{"BANANAS": [{"learning_rate": 0.01, "num_iter": 10000, "fit_intercept": true, "verbose": false, "weights": [-0.09725792207737226, 0.010378770941336232, 0.010378770941336232, 0.010378770941336232, 0.01037877094122653, 0.0, 0.003053267473619113, 0.0034601132000978774, 0.0032567003721606425, 0.003256911665030953, -0.04415742868867698, -0.00208359747683338, 0.003023427385894914, 0.005876469171910217, 0.005877124098778558, -0.13828903111847687, 0.0029313192567633557, 0.008624904169731787, 0.007324095690725093, 0.007324318849516024, 0.10419552941252247, -0.004643180787223503, 0.0041289130365593, -0.0008896670575300328, -0.0008895783133729958, 0.09215821270336057, 0.0001351625555681735, 0.0063956210559134, 0.005784798596816855, 0.005784834513939145, -0.10719552910813081, -0.010039490254314906, -0.008235185226248299, -0.00902289404003938, -0.009023024864734391, 0.16678419589418117, 0.012747933414253563, 0.016860457506170233, 0.015275531190097731, 0.015275721277713391, -0.08375563219559036, -0.003920200781926721, -0.002934730100345306, -0.0007096188080696846, -0.0007099708370786865, 0.008275911929311324, -0.0008807262095083227, -0.0010292032732425512, 0.0013813473588497613, 0.0013810949532690356, 0.016463180364903074, 0.01613506819015189, 0.018218273006721714, 0.016100548676082422, 0.016100648207555305, -0.010685556154573948, 0.006014179082065159, 0.0044401464077657975, 0.005668142887675558, 0.005667813968846638, 0.0780298177568961, 0.06121661067832503, 0.06121661067832503, 0.06121661067832503, 0.061216610677980746, 0.0, 0.01037401278602695, 0.010924369249723868, 0.010649328862650515, 0.010649827321630643, -0.04991235615988242, 0.010592150814486395, 0.010532666038445245, 0.009519697826284826, 0.009520267153239313, 0.17827537865830048, 0.006051812242688892, 0.011443164361073973, 0.006125923710984254, 0.006126067158323332, -0.09574044129323138, -0.0013436711263496539, 0.003978997325795375, -0.002029552157230264, -0.002029455244144349, -0.07806706289976456, 0.0019424135486200184, 0.006904659856435382, 0.005691294855143186, 0.0056912837600430494, -0.0005252373318542855, -0.009366071349662202, -0.012144376211476448, -0.00931325148895863, -0.009313363353845697, 0.13586515979547859, 0.013820913289546788, 0.01319997130709674, 0.015103366664017522, 0.015103525703019009, -0.05037488392412304, -0.0043865019740710305, -0.004151811561191383, -0.0007153134803920562, -0.0007156311498777314, -0.046588726894228945, -0.0013313054844161774, -0.0027870626855030613, 0.0013888488574144969, 0.0013886117360549883, 0.0017120200199388844, 0.01612445569038354, 0.017073154112613887, 0.016108659515711464, 0.016108769896150597, -0.01871649073948258, 0.005789416129048997, 0.003791199547884402, 0.00566784539512704, 0.005667529251971024, 0.07437992082011034, -0.03655478985014446, -0.03655478985014446, -0.03655478985014446, -0.036554789849846225, 0.0, -0.009432132142805064, -0.00971214965181877, -0.009572712626506375, -0.009570974216801897, 0.011073761221694269, 0.010556518309323928, 0.009337131107572453, 0.002947507566269396, 0.0029488436098093563, -0.10784127986178833, 0.007889570185364727, 0.005338468030146751, 0.00504222270319819, 0.005042755501965128, -0.10884564958974963, -0.004108989917361777, -0.0003924056876141614, -0.0023678867108768336, -0.002367666560332514, -0.16786998491709923, 0.00558564033354585, 0.0006725642982632605, 0.004962301410428897, 0.004962378802911076, 0.006630423467729674, -0.011686523081469178, -0.009592322008137784, -0.009786806922686974, -0.009786821977223331, -0.022066517333369312, 0.012076099180819644, 0.010761689101479491, 0.015100637204492206, 0.015100812695216516, -0.09577672139160498, -0.0036121436011321375, -0.004145011023886697, -0.0007664687049274683, -0.0007667684483471457, -0.006365175682367595, -0.0024707093847226454, -0.002698212190674768, 0.0013903955563728109, 0.0013901142778143703, -0.004796653967971944, 0.015096355161545184, 0.017082068985832876, 0.01613046171716994, 0.01613052656207112, 0.023953610652954645, 0.006313783217233577, 0.0037860380043431567, 0.005660702019078612, 0.005660387815855143, 0.0796574590642028, 0.010196574229049257, 0.010196574229049257, 0.010196574229049257, 0.04637605405321211, 0.0, -0.004835858473495, 0.06855544871043666, 0.03964966279008154, -0.0656773107020627, -0.06193317079282943, 0.014305305255719936, -0.042836167434004105, -0.07698537850565332, -0.011820859312346266, -0.019772000700556118, 0.05126657026172706, -0.03397471647188633, 0.08238129975664904, 0.0, -0.11787115020566956, -0.05457908586738393, -0.04560130717984657, 0.134320742020201, 0.0, 0.09642965032397893, 0.06315595727775573, 0.03822739407994299, -0.24295618334071217, 0.0, -0.07909871480065822, -0.10410585054581818, 0.12528254450173829, 0.0656883875245768, 0.0, -0.03312473151902363, -0.049109827474160886, -0.10287528771436759, 0.07648560566488861, 0.0, 0.0853799363424187, 0.029614741802626746, -0.00822845160047686, 0.10859028558555096, 0.0, 0.06050170829102061, 0.06880991337002525, -0.15428204085757513, -0.11570973887285137, 0.0, -0.26470517591068865, 0.04557124896324346, 0.03863728329796589, 0.03917859319200125, 0.0, -0.22134229521264467, -0.15154268591458409, 0.394493378015845, 0.11691805483613481, 0.0, -0.12306178555644276, -0.03098639168928429, -0.03098639168928429, -0.03098639168928429, -0.030986391689472734, 0.0, -0.016524081507074875, -0.015905413371909836, -0.01621718277617058, -0.016217475141381443, -0.018869787391685638, 0.010606786374833282, 0.0074912093817235265, 0.003115197104929267, 0.0031157546704251907, 0.17412574943035783, 0.009014240595105633, 0.0075765465325500015, 0.004797167922646546, 0.0047977312008041, -0.036393409805703394, -0.0019446209819908734, 0.003999987110581238, -0.001753221035024278, -0.0017529423897579188, 0.12488648473430672, 0.004358145603416236, 0.0027787676404836714, 0.004437958182633985, 0.004438026857807285, 0.0231102588391924, -0.013275431576888852, -0.010757654516236607, -0.009759875496047333, -0.009759884876306388, -0.0012539131620512161, 0.012471252672749972, 0.015958527294455755, 0.015412310587893472, 0.01541259666584356, -0.28562986392790246, -0.0032074077980020093, -0.004527894010119183, -0.0007884125019341736, -0.0007887748747432005, 0.10559792053447328, -0.0023966563318187444, -0.0013451981493527822, 0.001329000332892352, 0.0013286967691114107, 0.00029978861694831486, 0.01562578004555813, 0.01800991099959193, 0.016140447141945884, 0.016140449349723918, 0.06994687445988067, 0.006420427749655352, 0.004338089203244355, 0.005661801415166723, 0.005661469624898329, 0.08649559753594735, -0.041926763034967354, -0.041926763034967354, -0.041926763034967354, -0.04192676303529478, 0.0, -0.003977536607821256, -0.001889321406647738, -0.00293378164464346, -0.0029301102206110018, -0.06055516989897604, 0.0024986776023414392, -3.7840420235030575e-05, 0.0027799117697060245, 0.002781468338282215, -0.07034151688857603, 0.012856812541359739, 0.0005305687462452657, 0.005286978556581225, 0.005287269638522976, 0.1622993361627334, 0.0009257147923196145, -0.00026715314651350994, -0.0029818880190523906, -0.0029817224957019756, 0.11147132535709525, 0.004655882559561061, -0.0011166781006211983, 0.005486079610477228, 0.005486000911301489, 0.059834141727666525, -0.007475561386652284, -0.007525694352951446, -0.009813708880286952, -0.009813749955533786, -0.16947690736910342, 0.01584730859085364, 0.01002891237217904, 0.01478929795629138, 0.014789264190349292, 0.2957988619858592, -0.0036542556364876915, -0.0030883430973106894, -0.0007445485415974945, -0.0007447633467042182, -0.05558022820988209, -0.0011581108826367083, -0.00234662212300447, 0.0014517250069419265, 0.0014515006618783196, -0.04034911324048085, 0.016081715623982428, 0.017075697785274086, 0.016120486955762587, 0.016120609479553332, -0.012403246247701283, 0.005593558639806035, 0.0036498081474329253, 0.005659603800502499, 0.005659306010413124, 0.07642219237827542]}, {"learning_rate": 0.01, "num_iter": 10000, "fit_intercept": true, "verbose": false, "weights": [-0.4065814547096956, 0.004910728707308382, 0.004910728707308382, 0.004910728707308382, 0.004910728705630219, 0.0, -0.0029379577344990086, -0.0018923747464708249, -0.0024152303860098694, -0.0024155752920941675, -0.10760424608353487, 0.009547683173520831, 0.008469652791835681, 0.0036755236035326284, 0.003674745102930142, 0.1482648598422743, 0.008995314617085469, 0.007659850562168235, 0.009788612035223363, 0.009788631151195604, 0.17979395738406556, 0.015399883082326038, 0.023503020303459042, 0.01918524256457147, 0.019185353084012077, -0.3617691203334678, 0.015768668152193036, 0.017903857854829966, 0.022714605249045068, 0.022714625998577077, -0.2404876233612013, 0.03271979094219869, 0.03191908799884686, 0.035530900574295636, 0.035530933160478874, 0.013612905567818705, -0.010079110542477739, -0.00785796163162961, -0.011484732455778105, -0.011484690057656276, 0.08562006997519649, 0.02561420074627956, 0.022739783833282838, 0.026498437781696586, 0.026498713214275972, 0.040752515418873494, -0.0030885244050664388, -0.007970142081764666, 0.0007914871190050738, 0.0007917404779167316, -0.014039417469234384, 0.0255178299701646, 0.02867825428950412, 0.03075404788822266, 0.030753776187451433, 0.05953851166457472, 0.00029715881644261567, 0.001501474949297661, 0.005910061435266366, 0.005909771728115481, 0.0818322803396583, 0.017037379634149356, 0.017037379634149356, 0.017037379634149356, 0.017037379634193897, 0.0, 0.004908829985928194, 0.004188112700958094, 0.004548565928738498, 0.004549610254175304, 0.07422286820368465, 0.002623546986621968, -8.043047261606252e-05, -0.00310067515260016, -0.0031002898007438454, -0.0228314159122358, 0.011890549151514718, 0.016537493765848815, 0.005661083620899986, 0.005661366931061004, -0.3689283243975739, 0.013441908146401109, 0.024707205540423164, 0.017791280040583484, 0.01779116686758499, 0.3679270713803313, 0.012788961203824311, 0.021042657519081263, 0.02229723829253239, 0.022297160438942507, -0.11510980471246354, 0.02968647174116143, 0.03374231492724791, 0.03498857831934799, 0.03498847962108094, 0.2982043466948124, -0.012595857042444971, -0.006571779122008226, -0.011638717478262455, -0.011638680419072131, 0.05850501047703092, 0.023012898622850424, 0.024988123809271175, 0.02649480831731299, 0.026495112850449545, -0.03495370530954148, -0.004536148976711995, -0.007119435057500588, 0.0007693259361967265, 0.000769588630775402, -0.03530549121907072, 0.024037536054337314, 0.029191737367015542, 0.030738475444845995, 0.030738237313650198, 0.040519539401485706, -0.0010039341935530713, 0.0020227402704888534, 0.0058940721720806425, 0.005893806155572484, 0.07372818995137487, -0.020436556863725745, -0.020436556863725745, -0.020436556863725745, -0.020436556863974158, 0.0, 0.0027071058524319245, 0.003869498193251811, 0.0032884569041124133, 0.003291301953345889, -0.04911085473927801, 0.006143979471504706, 0.00023241801896817685, 0.00368503716276702, 0.003685733244833447, -0.11183997480766034, 0.01393328334487218, 0.000603890528536463, 0.00459015363042419, 0.0045910791643382545, -0.09813546372940532, 0.033706352397934965, 0.011000783987873809, 0.014719681670539919, 0.014719477039553227, 0.17727138417253138, 0.029156978286318365, 0.005731220283246432, 0.020751504107225035, 0.02075139349855317, 0.29561331216443165, 0.035477555680130356, 0.028753881109560186, 0.03523418933996173, 0.035234191792048696, -0.155895655539983, -0.008010710794219496, -0.01121249818707657, -0.011527608392986553, -0.011527564612679073, -0.037956909500615615, 0.024130909628771516, 0.02359356394843041, 0.026589594607217434, 0.026589843232761586, -0.04401808010150934, -0.0038203229680913425, -0.008412763807734987, 0.0008300139066409526, 0.0008302344160508727, -0.03995400723254129, 0.024473036926192026, 0.02680927875812902, 0.030806847447610433, 0.03080657339615906, 0.07583802595321876, 0.00018228560585858066, 0.0009596540883449284, 0.005889261251069669, 0.0058890098847831284, 0.07394982205641672, 0.046071537459029754, 0.046071537459029754, 0.046071537459029754, -0.0024255346590106915, 0.0, -0.03192322421389846, 0.01490366423913961, -0.011083337668514439, -0.07730887420567731, -0.03791866021029524, 0.18581382066468638, -0.0734942843687677, 0.1651013722871846, -0.0017040596302345266, -0.05392344444413039, -0.3970935245324552, -0.34077225151483165, 0.221284170792928, 0.0, 0.018217298344521463, 0.3866252700496236, -0.14747120034454728, 0.1386742013817959, 0.0, -0.6814981070157913, -0.07159585930998331, -0.12680357404390602, -0.22222425417589683, 0.0, 0.26243111040244904, -0.04009580969143365, 0.21200995790635133, 0.3231926818257756, 0.0, -0.21471866040519252, 0.08398636369627134, 0.4904864792029614, -0.27688333018043504, 0.0, 0.5595820272221012, 0.11714792695393693, -0.3346724520601912, 0.11400340936181877, 0.0, -0.5661591443177233, 0.12322282380698021, -0.014537953223808745, -0.2133703783615836, 0.0, -0.3003697872242848, -0.013717305198721483, 0.002395444083700333, 0.1470756296082434, 0.0, -0.20527611513601926, -0.2936217349290848, 0.28013283207864936, -0.0431554000077244, 0.0, -0.13808527604136894, -0.11306582966736266, -0.11306582966736266, -0.11306582966736266, -0.11306582966911218, 0.0, -0.01203798799949337, -0.018420053580345198, -0.01523001560705634, -0.015228072449740124, 0.17725060777618215, 0.006526232406150216, 0.006132151673593265, -0.005659057061460664, -0.0056605223959512365, 0.011350029645316864, 0.014107521264479264, 0.011434198103597722, -0.003568013897382508, -0.0035674437698542585, 0.224693904521422, 0.029635843318617194, 0.02217342843862679, 0.011521929929591909, 0.011521618409110415, -0.17624166420560375, 0.03370392139909485, 0.02008997188730937, 0.018139384815762265, 0.018139532746924168, 0.07894878883079008, 0.03722975269674089, 0.03454716662313005, 0.035095928388471906, 0.035096176673624975, -0.44250077782794517, -0.0068945847528677755, -0.008642978871437374, -0.011189748236833334, -0.011189801848246089, 0.12695209421772274, 0.02293233237770954, 0.023549434348181065, 0.02676097095417906, 0.02676104187617205, 0.12396948558857313, -0.004650102661183573, -0.007404461028931129, 0.0008371083455093936, 0.0008372561765407924, 0.017254483341107123, 0.024978430822217946, 0.02892132046232792, 0.030816847089427703, 0.030816478856879007, 0.15451107952712761, 6.888796126123824e-05, 0.0017996329556138856, 0.005904252449962709, 0.0059039698480845325, 0.0839243291566574, 0.07257621047772275, 0.07257621047772275, 0.07257621047772275, 0.07257621047828941, 0.0, 0.02385804360793591, 0.01970984919170955, 0.02178656340392152, 0.02178936544372086, 0.12188212146396658, 0.011637789212625043, 0.00017614916851655763, 0.013018938741229549, 0.013021454374329543, -0.028987629072971702, 0.020438080246310202, -0.004484147509562868, 0.012739507356325121, 0.012741147154817776, 0.025662836894424494, 0.020351757064835788, 0.0048108617030052005, 0.017913975793947396, 0.01791446000672073, -0.13017522404708773, 0.017157214968134202, -0.0030788296466727583, 0.023360816146939585, 0.023360730122335034, 0.21622908495216406, 0.03147054639962707, 0.02918678856114952, 0.03537230352574335, 0.03537203478460331, 0.21397518359886142, -0.009841327863966451, -0.010298222968940013, -0.011865103151618185, -0.011864921075915292, -0.27829010364866347, 0.024714958498184406, 0.022771403876526618, 0.02641840192789917, 0.026418795602702314, -0.18294306792808912, -0.004116811476715399, -0.009263848989404818, 0.0008229273732106376, 0.0008232392888013943, -0.1141205126211655, 0.024490391218141387, 0.02640022758595383, 0.030796858511262685, 0.030796684914767426, 0.0001476322768282797, -0.0014223539298404192, 0.0010111980857556659, 0.005874286081595226, 0.005874063308924171, 0.06760728278367326]}, {"learning_rate": 0.01, "num_iter": 10000, "fit_intercept": true, "verbose": false, "weights": [-0.8158010142616375, 0.00069394306219756, 0.00069394306219756, 0.00069394306219756, 0.0006939430623983472, 0.0, 0.006695522512627634, 0.006954535742689667, 0.0068251186644224015, 0.006825129131234541, -0.030558419397647633, 0.01515557191626301, 0.013230398735348092, 0.01177625263000911, 0.011776429404386503, 0.054873949866640154, 0.014726314381179632, 0.010666610084349624, 0.017357089880246653, 0.017357058510704154, 0.15152951649531793, 0.0182079674295645, 0.012098515819779597, 0.01951952148676445, 0.019519765815912204, -0.1801627090670537, 0.008757321244591363, 0.008405739400660486, 0.009248591321717046, 0.009248697125525228, -0.31933818349228577, -0.019491145806507414, -0.02199073946722035, -0.02172991878886977, -0.021729543416688413, 0.04712859544657706, 0.003195865928989969, 0.012403959709923076, 0.004657303480256323, 0.0046566386442637876, -0.1551788462569459, 0.005972893337393699, 0.0030930719040143336, 0.003625431735128138, 0.003625570566118488, 0.25289828954001786, 0.008326190367126828, 0.003552851284679897, 0.011395705777121574, 0.011396132133108411, 0.12283953515550351, 0.025727119515028495, 0.029393073174317084, 0.03521122697647023, 0.03521193221166388, 0.1064969653987978, -0.03301709845073236, -0.030507972283035655, -0.028557821901281217, -0.028556662350395248, 0.07312205669898701, -0.01960085997789869, -0.01960085997789869, -0.01960085997789869, -0.019600859977901945, 0.0, -0.0005775328903791256, -0.0015120590485111641, -0.0010447889147014223, -0.001044423646412711, 0.09074512621540712, 0.017269790479690256, 0.0108106239135157, 0.00837625212867483, 0.008376398085557528, 0.1317055443037621, 0.02073927096909337, 0.016141515412676208, 0.015562712843097775, 0.015562981608469514, -0.027563235248107755, 0.019510558738728163, 0.019351590524706527, 0.017384492223267566, 0.017384686921428992, -0.1258967282174235, 0.004292395826669163, 6.012228388235008e-05, 0.007385745767708419, 0.007385680684336575, 0.2697725920109345, -0.023222184101312045, -0.020021041116230927, -0.02287395103946415, -0.022873566773444046, -0.10603761987916874, 0.0019095635610952674, 0.0035127254119875885, 0.004253053216897009, 0.004252447511002484, -0.32842565722695116, 0.005623161507670954, 0.00044009829888698947, 0.0035654303978509983, 0.003565605534103615, 0.13916863991020417, 0.010000026209926783, 0.0005998498544416897, 0.011402464463940833, 0.011402949549244623, 0.05895669726740534, 0.025700343753702087, 0.027740687637093465, 0.03519451260638077, 0.035195196538620556, 0.1145942203177105, -0.03324184888241672, -0.03115294328084361, -0.028565325107008016, -0.02856418764279311, 0.08068613937001036, -0.039640188446862366, -0.039640188446862366, -0.039640188446862366, -0.03964018844751679, 0.0, 0.0015563595509450333, 0.002163065487483626, 0.001859804284316112, 0.0018643928529498172, -0.02584179792779251, -0.0007305240266049772, -0.00027048932076353347, 0.004333563297038852, 0.0043341979078056715, -0.3204330692161834, 0.017388827144504702, -0.000948348529623103, 0.013565212565496797, 0.013565521076942307, 0.057306011490980545, 0.02239529109200509, 0.0005899355118315331, 0.017140794088033488, 0.017140781498192894, 0.23245883099763906, 0.004112047219138658, 0.0004781437151240938, 0.00772857633615081, 0.00772872824973553, -0.025913219477672035, -0.022996701441691015, -0.017167993046511367, -0.021688198725621024, -0.02168786500280682, -0.20850411684103726, -0.0033646923110104148, 0.002038111181798486, 0.004760358060884689, 0.004759645493030685, 0.09056739307707193, 0.0018662158928779552, 0.003269246695311381, 0.003889043886780144, 0.0038892810105722324, -0.010024551189243423, 0.007596859910477783, 0.0051462380270624756, 0.011701882870787966, 0.011702305042160419, -0.12088306241560445, 0.025080617394036865, 0.027438953907406912, 0.03531559887097981, 0.03531631559815797, 0.10719995230559899, -0.03420712641906696, -0.03126806206878017, -0.02852012206594365, -0.028518977087053757, 0.06891534741755928, 0.007354494284355546, 0.007354494284355546, 0.007354494284355546, -0.032171720824542734, 0.0, -0.03630171095879866, -0.04538989046143338, -0.04922049345664418, -0.08110674218675565, 0.007435307128647846, 0.03304141945201585, 0.06924585158001968, 0.14832365680917303, 0.07500255891559468, -0.12039741780471225, -0.04966395134417536, -0.261320540174007, 0.11897138434885422, 0.0, -0.2110972743853891, -0.05170428756847699, -0.24761302102786562, -0.0028131744888442523, 0.0, 0.00948092312777501, 0.03685349571958629, -0.16557332157638743, -0.2248397718453578, 0.0, -0.3548429801075219, 0.17478520355312707, 0.2758926791072088, 0.24171888410636544, 0.0, -0.1488255580285318, 0.031232305765926147, 0.6720952021436948, -0.380631967305706, 0.0, 0.2614924238598573, 0.2913727566975411, -0.2600692434273381, 0.34819159945653344, 0.0, 0.293818700000461, -0.415482118714844, 0.21542433792856494, -0.2346380813179547, 0.0, 0.11206376445989974, 0.45699407135723263, 0.3197974394383963, 0.2048908966311124, 0.0, 0.2130376160955349, 0.35113627316746465, 0.6054640021332639, -0.5666943553674035, 0.0, -0.17151063562448313, -0.0873798273327757, -0.0873798273327757, -0.0873798273327757, -0.087379827332598, 0.0, -0.018070836530348935, -0.019128095770071334, -0.018601923868881657, -0.01860157196865161, 0.02935598963279144, -0.005923163738202749, -0.00420449943818675, -0.0007930991620223891, -0.0007925234250292502, -0.04811944509559876, 0.007482813526678641, 0.007867315205886275, 0.007843663965330266, 0.007844313590559093, 0.007536818763605981, 0.01905966057052174, 0.012091744794063863, 0.014981903787879247, 0.014982474844464033, -0.10754661598040816, 0.002637162959508574, 0.008642213913741831, 0.00767156980968125, 0.007671729664483905, 0.09616885622630267, -0.023348691997427912, -0.016869994957559916, -0.020467448525023572, -0.020467036316998016, -0.2742216509961522, -0.004267392758000919, 0.011955812781999036, 0.005283671851976181, 0.005282926828959882, 0.27229218227675595, 0.0023536717160107705, 0.0048919374759481184, 0.0040370925606941985, 0.004037201448932848, 0.12167031237871297, 0.007391746291649151, 0.005855984376222529, 0.011646913342814143, 0.01164704928260813, 0.07898533472746841, 0.025830785365283274, 0.02901485904889105, 0.03536922209509443, 0.03536990596528809, 0.17093190949899353, -0.033777255855198786, -0.030520442103084418, -0.02851368443946765, -0.02851252954368549, 0.06259464133793897, 0.0086356505296502, 0.0086356505296502, 0.0086356505296502, 0.008635650529817416, 0.0, 0.020098621223737057, 0.02449316041071089, 0.022299089677776152, 0.02230259073406584, -0.1316103493384684, 0.00672078661696773, 0.0013191405447496854, 0.009454571124056685, 0.009454471486129448, 0.282539508863716, 0.018693516027980354, 0.0010580720906625883, 0.019280522771393947, 0.019280786573133438, -0.0512512764502448, 0.023948307977922214, -0.009565466786529569, 0.01929734693011878, 0.019297464870854864, 0.26486268199794133, 0.0024406853606303985, -0.0019897856539237437, 0.007785529745343882, 0.007785546149009568, -0.1548275097152872, -0.025513818060818434, -0.020968612145093955, -0.02290762698439721, -0.022907577091586178, 0.08467378339250313, 0.0006309045632564219, 0.0010319166938808817, 0.004237608568252408, 0.004236912252106513, 0.25769008453828907, 0.005775288003251721, 0.0019383127177547974, 0.003741154544959562, 0.0037415690186155467, -0.2836934504681095, 0.00846359301079486, 0.004167201697942907, 0.011756793333447778, 0.011757552511980855, -0.5103090507977339, 0.025786255738583667, 0.02689375828063431, 0.035262033222071734, 0.0352627744692685, 0.04682630083709834, -0.033723452479939714, -0.03141391674708429, -0.028526552862812676, -0.02852542109954048, 0.06062525878923386]}, {"learning_rate": 0.01, "num_iter": 10000, "fit_intercept": true, "verbose": false, "weights": [-0.7042550722744693, 0.02549740779103891, 0.02549740779103891, 0.02549740779103891, 0.025497407791179816, 0.0, 0.014004052899364012, 0.013818004597574016, 0.013911230760404932, 0.013910921572282759, 0.02012667149650493, 0.006586262204153322, 0.0034867758638258105, 0.01064782810445861, 0.010647703961200525, -0.02566561531232749, 0.007883546080838407, 0.0026774864361703197, 0.009029947914418676, 0.009029995049082314, -0.022404945730186147, 0.022345019985228774, 0.018678757908812803, 0.022105751486461624, 0.022105703052369384, -0.01567957357461556, -0.006278079701224455, -0.008863713593329775, -0.004733100976160303, -0.004733132993560001, -0.04731907680625446, -0.0031090136538615308, -0.0085366586436894, -0.008558751393344834, -0.008558101087684638, -0.1103543627991678, -0.031251026747971394, -0.022220858956604, -0.028056707136253023, -0.028057151721327347, -0.20299538622003915, 0.005232475537474831, 0.003290388267478577, 0.008738805535404789, 0.008738674216620116, 0.3610876986491822, 0.028591473916065036, 0.026551324025594836, 0.03292142131174816, 0.03292156288437473, 0.04955153373329595, 0.026577990738198838, 0.03587297189776511, 0.04124321065504145, 0.04124316299853858, 0.10185640555024535, -0.10525371958778258, -0.09970268267687764, -0.0998429598544149, -0.0998425102248234, 0.1735128735924425, -0.06841918069969989, -0.06841918069969989, -0.06841918069969989, -0.06841918069881482, 0.0, -0.006283147262212191, -0.007023773358730797, -0.006653532422708941, -0.0066536319009244975, 0.07315526171810233, -0.0010816540361750233, -0.00037101433016501265, -0.0012846037293777483, -0.0012846420171318182, -0.04508039516641445, -0.0074098098313237415, -0.0027359184061965343, 0.00023167593943870487, 0.00023173402143033796, 0.04597625951612533, 0.015224075308539732, 0.016290803974896552, 0.017259766350397412, 0.017259649085840545, 0.03560784116198855, -0.003160060140334755, -0.0009219013549767497, -0.006783325415142382, -0.006783411516578002, -0.1542864956947887, -0.001226117794847864, -0.005836771330579952, -0.009364648113675964, -0.009364141125855187, 0.3135649020351264, -0.0330565392396316, -0.019643240975777743, -0.028028095755503624, -0.028028495192746805, -0.4216285792081824, 5.5642458334178004e-05, 0.003594825608153745, 0.008810266758169863, 0.008810218020511636, 0.1815179452100635, 0.027943834013531756, 0.02837517930159381, 0.03297131355158299, 0.03297156075427178, -0.06096091774840604, 0.02760220207495116, 0.03671279536246373, 0.04121717282051292, 0.04121716929274202, 0.06827384255339036, -0.10588968684671478, -0.09871109668911221, -0.09984617443341265, -0.09984573283569181, 0.17127887782650858, -0.0506330189952615, -0.0506330189952615, -0.0506330189952615, -0.05063301899523715, 0.0, -0.008573494857139463, -0.0054418447449653485, -0.007008315201012403, -0.0070076093910357694, -0.1344681097707837, 0.002701723776315745, -0.000368167084957676, -0.0012880342958685503, -0.001288107303810465, -0.05070915462628867, 0.0001620276034360177, 0.008111903355369677, 0.007489694565041772, 0.007489745329833575, -0.15272382661365755, 0.009745627815955659, 0.015858385538325862, 0.021188399536354492, 0.021188504899697813, -0.1915085100513582, -0.010798041663756634, -0.003931634075009357, -0.005224626089089505, -0.005224734355986253, -0.0766732740152825, -0.001270674937401274, -0.008040998662154844, -0.007443641411546375, -0.007443406910524267, 0.15623994575969322, -0.03646930793232675, -0.025182802043988924, -0.027767789840571204, -0.027768350041774775, -0.06455334309224191, 0.0020533868273931604, 0.00492316923027395, 0.008780426033482832, 0.008780442846489928, 0.009794977440529797, 0.02882109096198264, 0.029801543096393324, 0.03307463603708748, 0.03307480656948353, -0.12906740185839735, 0.028328976162304637, 0.0337095437488976, 0.04131115670121432, 0.041311124773459794, 0.14043805897507583, -0.10586809737920969, -0.10008606556739345, -0.09980936026454346, -0.09980894275457898, 0.18175625329451614, 0.06689738454000997, 0.06689738454000997, 0.06689738454000997, -0.17719874584736173, 0.0, -0.08605970090059958, -0.00561635780785884, -0.058161633023129926, -0.020403286012574254, -0.06858483966886954, 0.18045530618531289, -0.06293425359789777, 0.02729683912508815, -0.27977304116705093, -0.14539988675359794, 0.0968718569207604, -0.22342483260667384, -0.033005858842364746, 0.0, -0.10404898314748277, -0.0054891952181046495, -0.03196515771104507, -0.1950902103922252, 0.0, -0.37335003694904895, 0.0484702311656717, 0.06576389735295597, 0.30209710201877243, 0.0, -0.0581088437320467, -0.08829507603967897, 0.23634414646870586, 0.2285330966904854, 0.0, 0.102516936450617, -0.2504616477129372, 0.6158856401768381, 0.08559930710244601, 0.0, 0.6370126753103783, 0.501789178263284, -0.20941482381542526, -0.15182664210841446, 0.0, 0.15928431255695452, -0.12597017830072968, 0.135268645135729, -0.1148730162643858, 0.0, -0.20413071962867835, 0.49220924940649247, 0.8257737391786176, -0.1309696766584564, 0.0, 0.055459988752245684, 0.793633920894004, 0.47899437646124715, -0.441732944584502, 0.0, -0.22180202751578354, -0.004759019459035545, -0.004759019459035545, -0.004759019459035545, -0.004759019458654772, 0.0, 0.014217291008215003, 0.010654003611354199, 0.012438204626699336, 0.012438026366306124, 0.10194230892038249, 0.017561697404006104, 0.00018801103645407248, 0.011803911838740784, 0.011804153319210326, 0.10275921058012125, 0.0004849090216712294, 0.0035778016046825976, 0.014624412127139963, 0.014623651910274324, 0.1654409921568883, 0.00998556853725303, 0.017789526668161783, 0.02511117979231653, 0.02511089460017983, 0.20275991737417848, -0.010275037196072572, -0.007892172978211693, -0.002267390578771459, -0.0022676026610309254, -0.2261725018319004, 0.0027495537950260585, -0.008921117763214147, -0.006210739345252331, -0.006210550043141443, 0.08995600332108485, -0.03308120474851409, -0.02362355579200492, -0.02734067856877279, -0.027341124487300257, -0.12914976419581492, 0.0010207505534020824, 0.005303207051709102, 0.008466405516870277, 0.00846651566129183, -0.11096274751393854, 0.029466052452579616, 0.026823167959645726, 0.032983419423168216, 0.03298345141396679, -0.046822835316797186, 0.028563862628965316, 0.03440918007998966, 0.04139583653894128, 0.04139568714729086, 0.23977531589459067, -0.10558329629081437, -0.10051108169001392, -0.09980905297023936, -0.09980862653808238, 0.17236474679214966, -0.09624105744814099, -0.09624105744814099, -0.09624105744814099, -0.09624105744757083, 0.0, -0.026890926698674177, -0.025967520417877532, -0.026432634874045083, -0.026429431488136302, -0.029122843287422862, -0.0017377200235018612, -0.0061034303053972595, -0.014365822160601926, -0.014365086064057765, 0.11680996172338284, -0.00021707420172291858, -0.0019174153466285494, 0.0003626117301497747, 0.0003636563718527784, 0.009940732290216794, 0.017301387829935396, 0.018384675640829497, 0.017269810408095703, 0.017269889030197175, -0.17471402374111183, -0.007655287458036169, 0.0057620044924369205, -0.008178678069448189, -0.008179058719440017, 0.508371899969454, -0.00439253530844613, -0.006372035435620761, -0.00867521541796049, -0.008674935880199812, -0.48245878281744725, -0.03490251004380736, -0.02674790636574758, -0.0281944409809104, -0.028195140124595595, 0.39481085147388606, 0.00042379229775883553, 0.0017635792476825784, 0.009094109788250445, 0.00909413573568251, -0.06475227515744511, 0.026004246655780706, 0.02898821196260916, 0.03316575458224158, 0.033166105260386686, -0.3215761688515976, 0.028171992744605266, 0.03234546393651216, 0.04122656769522824, 0.04122663013972238, 0.08129870361269709, -0.10632392337224525, -0.09994426927033491, -0.09980966730155737, -0.09980926257393301, 0.16977598287903886]}, {"learning_rate": 0.01, "num_iter": 10000, "fit_intercept": true, "verbose": false, "weights": [-0.09050066284127607, -0.03577078108649797, -0.03577078108649797, -0.03577078108649797, -0.0357707810866017, 0.0, 0.002323200172645072, 0.0024741526016535606, 0.0023987145241728524, 0.0023988524088765346, -0.015040947927445203, 0.007021644991800535, 0.007617481135760407, 0.005218715191683882, 0.0052190892159776495, -0.11689523439610464, 0.0007190547598276837, -0.003068569636843822, -0.002755273349591637, -0.002755147476294047, 0.08347284642148328, -0.01314107009664093, -0.007760715377335167, -0.012380963137176636, -0.012380869355769373, 0.028178132699555002, 0.019876497344767045, 0.015844809482746313, 0.016566005271478057, 0.01656602304603563, 0.10042558926644432, -0.0010265289936531219, -0.00011339678605175613, -0.003895363469577166, -0.003895252602303785, -0.09021708638970734, 0.0028324450980466037, -0.0007528003521388342, 0.0010549024505359804, 0.0010552160303216563, -0.17889598226638848, 0.010895496174562619, 0.012824973352532734, 0.012960368598099594, 0.012960177447526032, -0.1274873954628498, -0.0007782062369436146, 0.001265501490636153, -0.0014689887615909364, -0.0014691129609232477, -0.03551656676200558, 0.003977416217623264, 0.002354563019983099, -0.0003013961088939058, -0.0003009465481222036, -0.021600281252978516, 0.0044773375186130384, 0.0001361799605588083, 0.002132704425012747, 0.0021323350814012243, 0.05748049597937254, 0.06666564544072547, 0.06666564544072547, 0.06666564544072547, 0.06666564544037187, 0.0, 0.011399870328209851, 0.011261312496757214, 0.011330740143203618, 0.011330788783659214, 0.015594521741048702, 0.00797394582934272, 0.005447871882113451, 0.00837717346967282, 0.008377090295003177, 0.1129712509097658, -0.0035400885222807597, -0.005966086661607285, -0.0011404014304053805, -0.0011403917685625874, -0.005898505377897836, -0.013018494855682546, -0.011796407854610001, -0.011572854482136788, -0.01157273868539019, -0.11232976459884773, 0.013876551430666259, 0.016798898906893428, 0.016879588936999146, 0.016879694381603087, -0.06805938239376609, -0.0041088759225895695, -0.0040970022754937, -0.0034978162361923946, -0.003497750238865126, -0.013738742669086973, 0.004492160305276468, -0.0002489869946055258, 0.0012160204055873265, 0.0012162881337884097, -0.0011560370973065226, 0.012243528141978348, 0.011393511153463631, 0.013060486055135294, 0.013060272012429167, -0.040406573848032395, -0.0013837377777806189, 0.0010598717617528745, -0.0014455741811109756, -0.001445719429621117, 0.0031685537783960535, 0.003162400186348535, 0.0015768974436725042, -0.0002934503840983061, -0.0002929912447684268, -0.023263203727960695, 0.004188270714245698, 0.00044855012266019627, 0.0021368142511700395, 0.0021364582778121105, 0.05509833474677896, 0.008081027638174457, 0.008081027638174457, 0.008081027638174457, 0.008081027637763173, 0.0, 0.00858973655002467, 0.008672196225232454, 0.0086315597169097, 0.008631729704096562, -0.0015140398347438257, 0.0025399320846693544, 0.005583395133350952, 0.0020975207506587386, 0.00209773717038517, -0.04957616544430335, 0.0021518318669442606, 0.005634121573037142, -0.003450501599340748, -0.003450446777765581, -0.09299256748040517, -0.011511008107541392, -0.012373901760593643, -0.012538839085938185, -0.012538709758279785, 0.04493273006810284, 0.014809762902582275, 0.02124991818413169, 0.016836098753588734, 0.016836194803623788, -0.10578484321251709, -0.004336823835399653, 0.001156309701551209, -0.0038621525635935006, -0.0038620667785399503, -0.06488065845420618, 0.006817506473212596, 0.0026302125380132393, 0.0009378386999711287, 0.0009379924085489302, 0.1088483487189046, 0.014059392733553297, 0.013820441158396379, 0.012984516230003062, 0.01298430536262263, 0.005315056832708898, -0.0008914791023677557, -9.959644474681322e-05, -0.0015111943852199059, -0.00151134142599151, 0.04665971294061835, 0.0036895282415146833, 0.002327853536268073, -0.0003358978805888155, -0.0003354645603111641, -0.02778803548469154, 0.004777083107646831, -0.0001681821164799943, 0.0021237642430789088, 0.002123417989599321, 0.04903608915737103, 0.034146231948725084, 0.034146231948725084, 0.034146231948725084, -0.15397794435628498, 0.0, 0.05488834631236527, -0.018407495253418896, 0.022629082523229854, 0.018118271920996947, 0.06102358276294964, -0.013678634091050535, 0.009861689595227912, 0.007853694804762255, -0.10022054461191186, -0.17784865897420812, 0.013353048004845103, -0.14731646652837802, 0.0879523908630126, 0.0, -0.05252881255601913, 0.08027705418210512, -0.13145973314973827, 0.1853590210908994, 0.0, -0.11365296632570816, -0.2018288425132256, 0.07388875554891539, -0.06125401990029166, 0.0, 0.0962418235850884, 0.019484264141642657, 0.027884031430844877, -0.10256820597986203, 0.0, -0.02339998085229409, 0.012183922532644715, -0.0895704322623667, 0.11331896496947981, 0.0, 0.02270491388478377, -0.0389106720950481, -0.098379188278908, 0.10436173337103424, 0.0, -0.16983854037455062, 0.04367219845167262, 0.13403650542219162, -0.08587410714543638, 0.0, -0.18381124904946883, -0.21980876645712596, -0.28930236745867616, 0.08995642888691041, 0.0, -0.1112343080830713, -0.08141479471029608, -0.08372065024482322, 0.040352065874942944, 0.0, -0.059134574978543866, -0.044844515841221386, -0.044844515841221386, -0.044844515841221386, -0.04484451584121215, 0.0, 0.010324153008459704, 0.011871023359355862, 0.011098888115589315, 0.011101551832477607, -0.04667690677053521, 0.007898768395114171, 0.005822616954408047, 0.0007771448928989716, 0.0007778899696017512, 0.0347969383473737, -0.005457423682442547, 0.0004263145610031633, -0.0034010250376972414, -0.0034007866108711872, 0.011421578617724843, -0.0109221274412131, -0.006626507063810678, -0.011804947943886358, -0.011804767882042991, -0.04154583166265808, 0.012822110165542714, 0.017894698002897613, 0.01737649604740488, 0.017376356229994602, 0.21664773284647698, -0.006835846479953471, 0.0007832103593761431, -0.004240400774169921, -0.004240339057471993, -0.038442779082815785, 0.006171241314586236, 0.0002910959677158084, 0.0006391273685291481, 0.0006393189162382023, 0.0023432803370453874, 0.014706903992880707, 0.013082679641727964, 0.012799907057784212, 0.012799704533118565, 0.01115091452273551, -0.0006832391485298674, 0.0016504063273038805, -0.0015760275423015442, -0.0015760736716496167, -0.006480223031449854, 0.003660304332847789, 0.0031720476455726044, -0.0003609814133179991, -0.0003605441257899361, -0.03892583699034162, 0.0047660453321540855, 0.00025908499672970276, 0.00212291085380632, 0.0021225630342979586, 0.04784999379989291, 0.06088549116625107, 0.06088549116625107, 0.06088549116625107, 0.060885491165705935, 0.0, 0.007225257506030284, 0.005104106516868815, 0.006165350522703521, 0.006163404167447997, 0.06177438726812119, 0.006782431159571429, 0.008339216121708086, 0.003416402455180958, 0.0034159230573846187, 0.11826165829306753, -0.0006335639767193311, 0.014603129781963552, -0.0034999120326816304, -0.003499420567227897, -0.14828669872893682, -0.009056985827471995, -0.012353696868171999, -0.013271926487165102, -0.013271978160752342, 0.17480221479295563, 0.019431249457015586, 0.016397850849214576, 0.0162962730286984, 0.016296427609373807, -0.04537545999195025, -0.0008492016054974435, 0.003997423532016375, -0.003484312553919436, -0.0034842682734279947, 0.12930010292048805, 0.006070626606967161, 0.002935954045702447, 0.0012362284236638716, 0.0012363907817662982, 0.056132318617842035, 0.01374514939266737, 0.01654313119738359, 0.013168926874866082, 0.013168727532296677, 0.04772412040120603, -0.0007072543646444467, 0.0004195200471564998, -0.001446430759201101, -0.0014466631379638857, 0.11569373771879335, 0.003122040667894231, 0.002831484765362653, -0.0003108412470040501, -0.0003104122725291713, -0.024546399951286102, 0.004012669573742785, 7.372210544315246e-05, 0.002124616742326552, 0.002124269912666471, 0.051086619726571275]}, {"learning_rate": 0.01, "num_iter": 10000, "fit_intercept": true, "verbose": false, "weights": [-0.2863917483021405, 0.07582246996068365, 0.07582246996068365, 0.07582246996068365, 0.07582246996152608, 0.0, 0.02446446745990428, 0.024179925689735298, 0.024322470203300674, 0.024322681601594162, 0.027500293591058784, 0.004790492827027899, 0.005345082644343859, 0.0018573763533206661, 0.001857386210699998, -0.007805071815852099, 0.004967576548403096, 0.00438042828781018, -0.00014269366017225863, -0.00014259408798942584, 0.18618756078065515, -0.010435274994371142, -0.01500848686559024, -0.017326879269526908, -0.017326788437244982, 0.2467237716169779, 0.019456017021463573, 0.014410307401342129, 0.015501585758771856, 0.015501244455535999, 0.5605548699192505, -0.009770507694379977, -0.011643892791799877, -0.008313370977362127, -0.008313154070884954, -0.1507893649937005, 0.008360821993704309, 0.0059556612506333675, 0.010672606164613803, 0.010673343425887221, -0.15837753133915783, 0.021661023839394188, 0.02394498886190224, 0.029518375649066755, 0.029518785831008875, -0.1173209215671809, 0.00463089035914301, 0.004700857017102541, 0.0028584463713586038, 0.0028587063433973803, 0.05838667942282558, -0.028376421808366074, -0.031468187249512836, -0.03462321942192677, -0.03462269408396913, -0.04128873374173701, 0.012033607448372875, 0.009152557997250062, 0.012268714140243945, 0.01226719645625516, 0.06266598750374017, -0.015999578910691436, -0.015999578910691436, -0.015999578910691436, -0.0159995789107481, 0.0, 0.011259254785166397, 0.010732342278696955, 0.010995950010767816, 0.010996066678353086, 0.05255989803563616, 0.00011580780819085563, -0.0025195535008747244, -0.005483025927947807, -0.005483108982832452, 0.06654040536579459, 0.005419763313045595, -0.002899840431010999, -0.0023991247298849206, -0.002398838983813882, -0.16036633807066053, -0.017384299423236906, -0.01702895291940268, -0.01762251997567858, -0.01762234852065705, -0.3143898447505196, 0.015265865176562619, 0.016740722918074543, 0.015121208449417977, 0.015121101648686526, -0.29580844829519637, -0.009578486996251974, -0.009738215112255456, -0.008559305401894028, -0.008559143918744821, -0.21488270995931055, 0.013104605036984447, 0.011838494264091087, 0.010550581463121855, 0.010551393602941559, -0.3082583806575359, 0.020070072128958935, 0.023419714276048723, 0.02942694192739303, 0.029427356092535068, -0.1083314198247506, 0.005425758416357294, 0.00583189299951157, 0.002790685294045274, 0.002790959051962515, 0.051154635700748755, -0.03240512210997879, -0.03323581680852382, -0.034630996569814276, -0.034630432945618295, -0.07209715432313406, 0.012503337957799008, 0.00712696399729374, 0.012277523945547746, 0.012276040514693942, 0.04214951282134196, 0.02894416231546543, 0.02894416231546543, 0.02894416231546543, 0.028944162315076755, 0.0, -0.007919678154696581, -0.004507824241641141, -0.006214322726069421, -0.00621219868269819, -0.1453272089434224, 0.00030908314712923087, 0.00196559641301561, -0.004038624199574878, -0.0040393239991339735, -0.017616107976167777, 6.690957279020297e-06, 0.00036859105312399395, -5.6680022496338e-06, -5.4900537330808755e-06, -0.10179844613458666, -0.023619815381343372, -0.01167613861336216, -0.01617354893752205, -0.016173424291242314, 0.01704862413854518, 0.007874641597268249, 0.01801698082276736, 0.013998903089430664, 0.013998969499602896, -0.3496667838861143, -0.01598499920345677, -0.00671938047297271, -0.009099619279660636, -0.00909948707341203, -0.186106270255845, 0.008654059279585949, 0.008294693217618263, 0.009671438774618124, 0.009671945644825186, 0.1386476041862282, 0.020960165900172387, 0.021077321859126422, 0.0295898152203666, 0.02959002737490617, 0.06543041055087526, 0.005338568766644153, 0.0041547141520719725, 0.0029183120989522723, 0.0029186349564113657, 0.05515136333307213, -0.02998465327262502, -0.03271090489104893, -0.03463494474562393, -0.03463447099595865, -0.06364447771671439, 0.014329907079672887, 0.008910797672172599, 0.012291084841343444, 0.012289567330192515, 0.07898571841372437, -0.05112455507247694, -0.05112455507247694, -0.05112455507247694, -0.07760513686711254, 0.0, 0.08102025838425633, 0.08116720993885136, 0.10087272579987021, -0.14449243320883984, 0.0015021577751677376, -0.19315855193752943, 0.025909489337265508, 0.01607801945646199, 0.007376274922492301, 0.1490531850286182, -0.05001185077520854, 0.02745776118354294, 0.15729605395957225, 0.0, -0.021812600652438195, 0.152490850437684, -0.38111100136357096, -0.04346451220188125, 0.0, -0.2284661613302254, -0.12756470320912353, 0.1582507077298593, -0.07311765143979651, 0.0, 0.12030720463654157, -0.0629449150475136, -0.031024984283106086, -0.056532447120414255, 0.0, 0.3493129877969564, 0.009813139787600608, -0.1180550855555855, 0.1577564955280805, 0.0, -0.23547179781160688, -0.08870709527618863, 0.08731212469584267, 0.1873989757201515, 0.0, -0.6018755670253634, 0.011662702220885224, 0.049462331004444034, -0.020537461746393683, 0.0, -0.06416770534900454, -0.05780839844137809, -0.8112966982177667, 0.15069737873702038, 0.0, -0.3308074240597593, -0.23032437724963825, -0.3366561598949297, 0.31261273902581205, 0.0, 0.00353964604222142, 0.08331133397516283, 0.08331133397516283, 0.08331133397516283, 0.08331133397568195, 0.0, 0.006409781278612306, 0.002072117563552456, 0.0042425073369717, 0.004244061267735444, 0.12089874968272352, 0.006717237592023297, 0.009055119231933547, 0.0030160634556693345, 0.0030156952496427367, 0.05097227297306043, 0.002123348008788416, 0.017740990841827006, 0.004576854564323624, 0.004577502014551884, 0.08258408420720482, -0.022436881762597533, -0.00753885355193371, -0.01482908744160622, -0.014828979033430672, -0.20443815069154264, 0.004298594595083058, 0.018661254913105902, 0.015273851303916541, 0.015273688702362313, 0.2662540445277466, -0.018963613313137815, -0.006046819255317053, -0.007714923445620629, -0.007714957229243386, 0.37829251022069144, 0.007438176698459071, 0.007863321346891675, 0.010310802943083472, 0.01031133217136397, -0.03488636485969239, 0.0223639146470602, 0.024460866333453072, 0.029937836314724506, 0.029937955183523587, 0.2028659717395002, 0.006001720525743962, 0.004310540470907537, 0.0031216768667022866, 0.0031219630556717872, 0.159781192160303, -0.030076380081873588, -0.03125739777284725, -0.034612501520328076, -0.03461206775485953, -0.06652000877399458, 0.014116872724119624, 0.009664880923175021, 0.012292469639539458, 0.012290951209471936, 0.08896275730815713, -0.025653932411147478, -0.025653932411147478, -0.025653932411147478, -0.025653932410947617, 0.0, -0.01564760552577146, -0.01766552654127766, -0.016658856623172957, -0.01665879196065747, 0.05955430596176364, -0.012166334399732392, -0.01143890942875281, -0.011085577035561638, -0.011084250876904499, -0.05281750109274055, 0.004799409943690716, 0.0019888222349218176, -0.004583257817947199, -0.004583288508090284, 0.21314894057386422, -0.022267038047828452, -0.00642928225496842, -0.017516542395916327, -0.017516681406696457, 0.09595991072149809, 0.010506054837207764, 0.017897321733105705, 0.012725321042495748, 0.012725420677272838, -0.016548588448135088, -0.009508473463425973, -0.0054585096995628055, -0.01048283034740642, -0.010482783442663686, 0.1839350050351905, 0.011650216337647146, 0.009077365939942527, 0.009032757971544013, 0.009033104568482992, 0.2708320468864497, 0.020441312112404002, 0.02279777481776807, 0.02924216600873104, 0.029242385755503725, -0.010561865719740465, 0.006763093202161329, 0.005734765133616985, 0.002715165007609214, 0.0027155006313150563, -0.01569842233116628, -0.03190698802490657, -0.03244623420036458, -0.03465736410652275, -0.034656849454044666, -0.10601840640070431, 0.01243262239491844, 0.009008316551726467, 0.012289701387320216, 0.012288185895343976, 0.06958520079160613]}, {"learning_rate": 0.01, "num_iter": 10000, "fit_intercept": true, "verbose": false, "weights": [-0.4171755629223388, 0.0443264895334037, 0.0443264895334037, 0.0443264895334037, 0.04432648953361051, 0.0, -0.011145129870119707, -0.010641001142366886, -0.010893226415462587, -0.010892844653733993, -0.05509559614796307, 3.8364881972027e-05, -0.0020551383270337354, 0.001710429623220915, 0.0017108320483098678, 0.03957540326665181, -0.007505966185437915, -0.010949769727167085, -0.009652327336513772, -0.009652232906773844, 0.04412018458912859, -0.0028352635974555006, -0.009784369198953808, -0.003399001113520319, -0.003398864907586538, -0.007132951524308297, 0.01787411755386096, 0.012180551749486554, 0.00951164858490433, 0.009512044601308323, 0.21956635161244367, 0.026515839769692354, 0.02333756253602315, 0.019912055715677217, 0.01991202759838164, -0.0948237321973043, 0.023726835830276252, 0.01655934880358221, 0.021869035978250885, 0.021869063438567437, 0.3684761232721562, 0.05682436988120651, 0.05294471507443522, 0.05488814788466794, 0.05488808824567941, -0.06867678698891709, 0.02280510390775197, 0.02574797641585942, 0.022091232397034383, 0.022090978995190767, 0.05846894497158231, -0.02102589370778579, -0.02923156850239968, -0.029509332679067475, -0.029508522962045668, -0.12104996222710004, -0.018762766308870818, -0.024438057515671567, -0.018169032579590124, -0.01816993726514538, 0.2073287226654301, 0.032118652732000944, 0.032118652732000944, 0.032118652732000944, 0.03211865273257405, 0.0, -0.004050048663985416, -0.003846632846062116, -0.003948412765288481, -0.00394851547687531, -0.01639812315209615, 0.0032207690005478474, 0.005151315961191791, 0.004211132882356368, 0.004211397775511534, -0.025611549276779017, -0.0065471303738524585, -0.00939629831974391, -0.009384818855958783, -0.009384637793510885, 0.08479452328441024, -0.0036379989389524465, -0.0073194055794309236, -0.0035701378202896428, -0.0035699814949965883, 0.0016132796613133383, 0.01367336895051352, 0.01603502120758981, 0.009792220259876942, 0.009792685037444009, -0.053165849941711904, 0.018764709884638155, 0.02773933110232028, 0.02034273087903258, 0.02034277844427689, -0.4716629257205849, 0.023371489784964904, 0.028843709044382403, 0.022171431273163678, 0.02217164098051912, 0.02946841365457538, 0.05656203569562587, 0.05229092187252333, 0.05494679189664785, 0.054946738216372595, -0.061710326911330826, 0.02353419832533509, 0.02468712147308605, 0.02213047773352645, 0.02213027636367997, 0.022722499964090318, -0.02496000344953051, -0.030147485707583906, -0.029517748288454746, -0.029516894137887165, -0.1526221499384618, -0.01877069865564954, -0.026018799732496895, -0.01815146923117094, -0.01815234920142141, 0.1894398276495225, 0.03177251266601885, 0.03177251266601885, 0.03177251266601885, 0.03177251266667048, 0.0, -0.010214617187371966, -0.006478695781310862, -0.008347524892509752, -0.008344559162695137, -0.16311868133836785, -0.005954947186913951, -0.004611085815337847, 0.0060290281189156174, 0.006031168896467993, -0.1959636996577531, -0.028382552001243167, -0.016639102439525967, -0.009680260360821253, -0.009680184830241119, -0.03322081593678344, -0.02094294619530553, -0.006096508099373277, -0.002701376176668887, -0.002700817188512579, -0.57239715274124, 0.014108872401069564, 0.020885807023872938, 0.007992133480050779, 0.007992697214584088, -0.2974983143106055, 0.018437406184908026, 0.023824792273158917, 0.01839497474066993, 0.018394881710962638, 0.17763547975201596, 0.011852340345690915, 0.025702109342109297, 0.021129776448855303, 0.021129970388677723, 0.08764594672761133, 0.05597874317320294, 0.05397036447426481, 0.05495343670516015, 0.054953319233464325, -0.04318926610561378, 0.02295680148568257, 0.022793411310320057, 0.02198296755644132, 0.021982766000495858, 0.08511161668118428, -0.0219020986111109, -0.02977062590368697, -0.029602839227243896, -0.029602170148999445, -0.08120457574532737, -0.01738946132928214, -0.024556743714490712, -0.018128016083783054, -0.018128903720994974, 0.1978488966737128, -0.021774215495408936, -0.021774215495408936, -0.021774215495408936, -0.014033418340359944, 0.0, -0.02455377611754324, 0.05176836449377677, 0.016016851885074727, 0.005546029842693009, -0.06490936202987563, -0.1456047238270712, -0.06994940607450433, 0.2366553293556237, -0.0022241332829964215, 0.05561288225090237, 0.016060546572907945, 0.09759341624736831, -0.1535596998541862, 0.0, -0.03164514469491263, -0.12451683192340167, 0.050845900839285814, 0.25109395200477125, 0.0, 0.03151509559304043, -0.05093453572517732, 0.282743717365784, -0.1545261258700303, 0.0, 0.5226021819562711, -0.0421694855379638, -0.09515747349463738, -0.10553275412181148, 0.0, -0.17556432649813952, 0.06662506830211183, 0.13449077982361338, -0.11019959880553953, 0.0, -0.2067806839398045, -0.28243944675203153, 0.1073944092372451, 0.17793980675652446, 0.0, -0.8187381071130849, -0.2315600471652076, -0.17275710900352673, 0.3062492595298287, 0.0, -0.5385029618385423, -0.36097960632166676, -0.7355578828961229, 0.011305864354240558, 0.0, -0.19266697487845502, -0.5645503632259867, -0.6258776942036102, 0.5219058962381757, 0.0, 0.04905203402696039, 0.10893293696752368, 0.10893293696752368, 0.10893293696752368, 0.10893293696805603, 0.0, -0.009869233421333076, -0.01522678329945791, -0.012548858845916515, -0.012546824661135611, 0.15313038301023948, -0.004279801340460631, -0.004573126674011633, 0.012559769965127612, 0.012561248983824934, 0.07995211740832413, -0.03615680766061251, -0.02374279989429733, -0.0024584660607320035, -0.002458824105521785, 0.1280123014937697, -0.019098886901359073, -0.009683729711476713, 0.0007835806286595379, 0.0007834069683276264, 0.10829460080476491, 0.017947315676093385, 0.01323544425317413, 0.009618605618649096, 0.009618903418660493, 0.49278861053526846, 0.01754048730235908, 0.025157516990731984, 0.01931323090464779, 0.019313242506368136, -0.2828490669722311, 0.00870748284857176, 0.018724780663577488, 0.021202805060121562, 0.021203229239468307, -0.48833408626651026, 0.05730258947084705, 0.053362442408675645, 0.055030646072857875, 0.055030535103473166, -0.10603127763935695, 0.02408682275971434, 0.024719332521248586, 0.022097119986474865, 0.02209694747310232, 0.09830972805850886, -0.0215090898555614, -0.02900872215478516, -0.029609518414844674, -0.029608851124058127, -0.08899482914404967, -0.017896582931128353, -0.02442184873701717, -0.018146815626981633, -0.018147700411471013, 0.19272587504572422, -0.045840915549343594, -0.045840915549343594, -0.045840915549343594, -0.04584091554886398, 0.0, -0.0024107499161606983, -0.005884970244015443, -0.00414896009825751, -0.004141872693176747, 0.10724576716808443, -0.003966030224917869, -0.011063094487198584, -0.0004948599683272442, -0.0004931678372681657, 0.05886071496560293, -0.0172531108019394, -0.023075150507601498, -0.016894224197818494, -0.016894080527481824, 0.26357756864616977, -0.006711109117411558, -0.024131609062436835, -0.006182582420519219, -0.006182041003279844, 0.30424612018818464, 0.01684685357910856, 0.02138058172043813, 0.006367400524811918, 0.006368270469342996, -0.4291931759272006, 0.019984348199373857, 0.0238773959940655, 0.017477695330605596, 0.017477684936617957, 0.5199290994034272, 0.022502895539724652, 0.027023044404772562, 0.021056821863804632, 0.021056969502258594, 0.12154834405662822, 0.057391668845665655, 0.05488781505454575, 0.054876307699260156, 0.054876190131713354, -0.0004454439541774465, 0.02304907449587863, 0.022913674289961095, 0.021868937079461286, 0.02186869485412633, 0.09804615492186963, -0.023760008831656215, -0.029867601399634326, -0.02959616725931939, -0.029595484042162116, -0.1100188761856621, -0.018512530280803265, -0.025340863661286572, -0.018109236747748086, -0.01811012011698722, 0.17816088419280357]}, {"learning_rate": 0.01, "num_iter": 10000, "fit_intercept": true, "verbose": false, "weights": [-0.6717298459915818, -0.02668437148898803, -0.02668437148898803, -0.02668437148898803, -0.026684371488986072, 0.0, 0.0022096034692657123, 0.0015180098342533806, 0.0018638323683402716, 0.0018642215130718026, 0.06861106221392292, -0.0029561974974937045, -0.0032807909135361304, -0.0009482700234329337, -0.0009480392094137936, 0.01628368600865615, 0.00828362926448394, 0.00928747064376099, 0.007041893060384708, 0.007042003193680067, 0.06691457015435552, 0.005789268615031536, 0.0008958196540256999, -0.000652388071679048, -0.0006522722589512439, 0.3765119754889771, 0.005814791389373802, -0.0030741643443123468, -0.0004322639519804895, -0.00043224168954034386, 0.36222488317179324, 0.010105324404226566, 0.01238794189061763, 0.01454058165238727, 0.014540939020019782, 0.09578520397012456, 0.02864450367290851, 0.0201781976967007, 0.024987924433639293, 0.024988438332218064, 0.4159217950502348, 0.06872991857875008, 0.06251087508784013, 0.05868840112691608, 0.05868828204608995, -0.055859955787344144, 0.0003318864406722568, 0.0024900673858540604, -0.0048452106966227464, -0.004845164914076179, 0.016979420813337465, 0.017801757367781265, 0.008249090851161645, 0.0097673220187032, 0.009767685408155622, -0.1186722843216417, -0.0022086328944409335, -0.011695681297683303, -0.007075504905709367, -0.0070764026961664265, 0.1023041261107695, 0.02717424265756775, 0.02717424265756775, 0.02717424265756775, 0.027174242658727015, 0.0, 0.013075465814808555, 0.012953145711411967, 0.013014453667557265, 0.013015105562186852, 0.010688175360005226, 0.005434518755667035, 0.011190868949412357, 0.00575609346359266, 0.0057566342536925965, -0.11999271239306264, 0.00781891645832038, 0.014463829183292492, 0.009187139821104135, 0.009187388281449712, -0.06501888282154293, -0.0019410364176445755, 0.004782031134617567, 0.0005402903674327101, 0.0005405254202793158, -0.44431034262675734, -0.0008298344753751349, 0.005489976959146271, 0.0005500239691557777, 0.0005501822720936853, -0.5911938597144994, 0.011141298674918561, 0.02063367332736887, 0.0151733157488411, 0.01517375789306116, -0.29801382984204106, 0.029016296466504474, 0.028154131459757, 0.025273519822750893, 0.025274144280961214, 0.16081603687212856, 0.06717075498773802, 0.05797375457116096, 0.058810683785789845, 0.05881049642682632, 0.06618844361220368, -5.256280546524579e-05, -0.00065573520783207, -0.004776811299341645, -0.004776789389696129, 0.07295594401270937, 0.016262717394126283, 0.0073913092792137775, 0.009761219272743924, 0.009761598028965918, -0.12243916657006375, -0.0023204117334419266, -0.012097616589522572, -0.0070598071791734265, -0.007060680919394691, 0.09464725561633534, 0.053448417015967045, 0.053448417015967045, 0.053448417015967045, 0.05344841701526013, 0.0, -0.005437956216076027, -0.003219724282528757, -0.00432927960671009, -0.00432791979803854, -0.0949987940075432, 0.008322920914450681, 0.008292080348270293, -0.001283618812137879, -0.0012827807417982754, -0.16188137825378127, 0.02095651071671793, 0.010516739443552131, 0.0022861112718320542, 0.0022865114502942136, 0.08126130005145966, 0.015550137502514364, 0.0064448275646699455, -0.003795162815234128, -0.0037951828317345465, 0.1566879996444992, -0.004178284262998092, -0.0008576674050643328, -0.0026401550849357077, -0.00264025004075623, 0.27643705675176833, 0.011898094146485157, 0.01019512632784809, 0.013489702670214482, 0.013489860370743569, 0.23586913258571104, 0.02334609499719241, 0.018507755417401083, 0.024944165383563338, 0.024944767804631035, 0.0860010643329055, 0.06382909191899465, 0.06034101884224967, 0.058804242070172826, 0.058804178169693765, 0.004784496313641977, -0.0012834287732449447, -0.002194996348617084, -0.005090142909681797, -0.0050901761187980375, 0.13822993230523536, 0.016464010444092524, 0.005605775209276758, 0.009596411924382072, 0.009596698324282503, -0.10768474520180076, -0.0019620628310076846, -0.012072988359771742, -0.007054992924701852, -0.007055840340284142, 0.07195368693527726, 0.0028077865679993442, 0.0028077865679993442, 0.0028077865679993442, -0.06795185423143817, 0.0, 0.005788569900440347, -0.022296319566132383, -0.010306051858827887, -0.01966894674717152, 0.02391532124938851, 0.14552184172311647, -0.0019225424304977173, -0.15381462041467714, -0.0959957209849497, -0.17724575697282852, 0.3006466655023836, -0.14342549262204582, 0.0013679192099777312, 0.0, -0.12107505426014104, -0.07170312174813354, 0.0969571705046189, 0.01845413761018293, 0.0, 0.20438283720907724, 0.41492851496041216, 0.22349338113469489, -0.46809873372747024, 0.0, 0.27546072665527394, -0.6346230600198773, -0.4060184010036324, -0.08521963507189176, 0.0, -0.25559740482810667, 0.17063542029898685, 0.1939671377443979, 0.3148933855553549, 0.0, -0.6621325551012287, -0.14879699649891562, 0.01131093424015546, 0.09043245685999524, 0.0, -0.6824295871517156, -0.122293762842598, -0.20837215428698747, -0.011466341852145201, 0.0, -0.39287143455754875, 0.06305210749605045, -0.04626445079050139, -0.11013703081580851, 0.0, 0.03516777889897037, -0.7907331011540264, -0.6270638688112133, 0.725066505428761, 0.0, 0.08229926261195995, 0.07877151341687398, 0.07877151341687398, 0.07877151341687398, 0.07877151341655889, 0.0, 0.00178929881225114, 0.0013687609631600126, 0.0015791739010540384, 0.00157953829181692, 0.012279270327874875, 0.015943261113637787, 0.008106401742120765, 0.007004227121896326, 0.007004282660665608, 0.1703177933800019, 0.03292539125755403, 0.01597929085214957, 0.007040957394658875, 0.007041721639138055, -0.05605089088257543, 0.01957187432601749, 0.011945341828765211, -0.003705361260994098, -0.0037048586956645283, -0.0366304616936127, -0.006137334183932342, 0.009390788290759887, -0.0028646134799526607, -0.0028643164257994283, -0.3911840573757975, 0.009869070954526727, 0.014536841314929253, 0.01364634647589183, 0.013646505348812716, 0.10051491992308208, 0.02545372376081672, 0.021684523703356277, 0.02477911354447861, 0.024779802921052013, -0.4052551641672131, 0.06421422430573892, 0.06321579040262836, 0.05886291285667646, 0.05886295877478281, -0.14127281193368155, 0.0014301951663192967, 0.0021577677496203394, -0.005108010720512354, -0.005107873815290575, -0.015979222724779057, 0.016733782411561038, 0.009436310578828476, 0.009617580530099298, 0.00961797208367336, -0.16605950834296077, -0.002692191964307385, -0.011121360013141086, -0.007031577395484487, -0.007032421525338857, 0.07249974835717711, 0.027187522942415596, 0.027187522942415596, 0.027187522942415596, 0.02718752294325082, 0.0, -0.010032877011970715, -0.010425016934988693, -0.010230486489929897, -0.01022453260561793, 0.012475512113410483, -0.0006957703563134346, 0.0028196927720601514, -0.009562489500376413, -0.009558944051316782, -0.04365352355054206, 0.0008551035742507007, 0.005068119168171786, -0.0024636366655060764, -0.0024630756416376496, 0.052556793080077574, -0.0012780699875827777, 0.00851794737468678, -0.0038848700169776275, -0.0038848916310651564, -0.08210322457938284, -0.001462901615072567, -0.005837380781643553, -0.0024159425725226104, -0.0024159426679784264, 0.05352859197046474, 0.005659036266198022, 0.011128277795784638, 0.013333221918293793, 0.013333443655112477, 0.12096577728500664, 0.029167851178559866, 0.024768384164186665, 0.025109037937885523, 0.02510969438851575, -0.14590582296825053, 0.06980488597860131, 0.06456437380850014, 0.05874563281802114, 0.05874544140658656, 0.2210949725816988, -4.762240192887416e-05, -0.0016933629092072517, -0.005072294256087602, -0.0050725055293351935, 0.2933465462776109, 0.016626770179548608, 0.005793965874012358, 0.009575266064459818, 0.009575442099504325, -0.03622576062716568, -0.001441838865072248, -0.012764644252126247, -0.007078383419443337, -0.007079236721132227, 0.07076410009061763]}, {"learning_rate": 0.01, "num_iter": 10000, "fit_intercept": true, "verbose": false, "weights": [-0.005045353448268769, -0.030497994232451208, -0.030497994232451208, -0.030497994232451208, -0.03049799423232379, 0.0, 0.0036725832971398974, 0.0036867233539449595, 0.0036796947130031737, 0.003679914220249371, -0.0008893621665198707, -0.0008566094771008107, -0.0010651711474835483, 0.000254904198577361, 0.0002549771473843008, 0.03688353608457699, 0.005615745230154156, 0.005909877498240454, 0.009001090288953649, 0.009001148660942688, -0.101465986736832, -0.007306192121679215, -0.008545228818910563, -0.0036545162156852743, -0.003654600644899499, -0.05823822621839365, 0.0008058517994959055, 0.003914555864550804, 0.005099292221538425, 0.005099351346804948, -0.21952759208912173, -0.001137572375172248, -0.0005459251652542954, 0.0014677206513379667, 0.0014675522938658683, -0.052207435461249264, -0.008219184497759817, -0.009277195633116152, -0.007940546854729124, -0.007940451631160932, -0.07142183683126903, -0.023296555221495648, -0.020561924454912988, -0.022429838206041202, -0.022429737104874496, -0.14752053117893935, -0.017242998671682244, -0.017195849669106963, -0.01631002818328153, -0.01631022426322019, -0.06989002253852127, -0.008346040148945164, -0.0063640998121705285, -0.007156301516366474, -0.007156910012870642, -0.013358131308645708, 0.012592916942601359, 0.01723821951145171, 0.011884279035412624, 0.01188507274813285, -0.10318232018077056, -0.040588419578501296, -0.040588419578501296, -0.040588419578501296, -0.04058841957896407, 0.0, 0.004511189480462548, 0.004682580814425522, 0.004596931204970619, 0.004596871191036655, -0.01854321355488689, 0.0015008636660453108, 0.0012280359092158076, 0.002769660135763597, 0.0027696491098649786, -0.05085845926346874, 0.01302035721061509, 0.01050991434387927, 0.011610756061115597, 0.011610739908562819, 0.06645608665462291, -0.00023425151182306764, -0.0052429198499512435, -0.002348596524712633, -0.0023486334610945104, 0.10196480976083824, 0.00782600043852507, 0.0012095690903844343, 0.005279141080785323, 0.005279141915324876, 0.26493456000558746, 0.002436830796346059, -0.002597468532434269, 0.0014739767002721984, 0.0014738243714780327, 0.08538868060582659, -0.009841218752115128, -0.012648180142725346, -0.008030426061951833, -0.008030425805525074, 0.15811927476723853, -0.020674123924515488, -0.017016545940207756, -0.022508080570592223, -0.02250799910757618, -0.10624537431553475, -0.01686292723671996, -0.01473386965519074, -0.016374557278358765, -0.016374792551625057, -0.03306897692371272, -0.00536079601448107, -0.004373202362279732, -0.007151599164845132, -0.007152238621869135, 0.009166512298287034, 0.013103034597365774, 0.018189103159839234, 0.011872840377859085, 0.011873614635346476, -0.09456651504311925, 0.004818170524060886, 0.004818170524060886, 0.004818170524060886, 0.004818170524209477, 0.0, 0.01615707928121167, 0.01542930616341229, 0.01579425516371073, 0.01579447391776674, 0.030449862986929057, 0.004926859900813229, 0.004488063104337921, 0.007043970660268931, 0.0070444296770695, 0.060250369003068106, 0.010032384651141809, 0.009896588105356974, 0.012623927188918934, 0.012623918485958518, 0.05649660348381253, -0.0033201219404846477, -0.0036496226714742936, -0.002158325198323081, -0.002158390832060755, 0.10568025341125521, 0.006565443586022391, 0.0032215095250499232, 0.006467049757553307, 0.006467014652811761, 0.023744663059855054, 0.0026474158656055436, 0.0003606537884754424, 0.001935394168042703, 0.001935344242549683, -0.008438540663402055, -0.002299482165218929, -0.0062760890111606075, -0.0076390925629811444, -0.007638995124824813, -0.028988077810651873, -0.02041676666887937, -0.01948696534312075, -0.022557639734115474, -0.022557618915640728, 0.05368243001822122, -0.01659448540995044, -0.015608305482159888, -0.016371693500015324, -0.016371873350934704, 0.006539327817919723, -0.0070298231406338675, -0.0039049752007399977, -0.007143749461419616, -0.0071443068046488445, -0.012493335019644471, 0.012222147797694823, 0.017476793562779903, 0.011852713186755333, 0.011853466612914405, -0.09751742316228942, 0.007478426686844968, 0.007478426686844968, 0.007478426686844968, -0.019398411288021947, 0.0, -0.005403904388171119, -0.00958685742522162, -0.009203284935949622, -0.01044343596488024, 0.003518568988262733, 0.003927422779845122, 0.0005171585025516616, -0.0262470539379084, 0.003562516067322176, 0.022131315907374435, 0.008642934649541162, 0.09451154662179503, -0.08585371949571409, 0.0, 0.040927930301674534, -0.025950964709329036, 0.08645276184239088, -0.0577151612478416, 0.0, 0.10622262363031416, -0.036230800412410086, -0.05236013147869228, 0.1628685264368833, 0.0, -0.11472671938113124, 0.1316901529668633, 0.00442071952797165, -0.03740332756403834, 0.0, 0.12348051281601365, -0.03816683171568013, -0.20282431223400818, -0.03907853162458026, 0.0, -0.0830168010478288, -0.038655177700898186, 0.08118847684906134, -0.2089402754293762, 0.0, 0.3476539483752283, 0.044935381570325846, 0.05502307356366932, 0.08939512821223108, 0.0, 0.5073325943099352, -0.07484540642836353, 0.03902901110609219, -0.003160501152021333, 0.0, 0.18201986471658294, 0.050813993529805056, -0.09780498191113096, -0.09135891634226054, 0.0, 0.10221672409915836, 0.00043326213523003064, 0.00043326213523003064, 0.00043326213523003064, 0.0004332621353692259, 0.0, 0.011985871854901029, 0.012477997633658266, 0.012233683943667436, 0.012235182926174988, -0.012659925682642922, 0.001542925563193698, 0.0019739053566431982, 0.0037368931825487025, 0.003737767173694935, -0.06323195835900906, 0.01537785619866091, 0.005314687538641437, 0.011457524408942873, 0.011457781557706995, -0.040588081621880275, 0.0008867176701295083, -0.011210392985188425, -0.002821053399695577, -0.002820964835704914, -0.022647081594052768, 0.009702750064609805, 0.0001681385255261393, 0.005915775172474047, 0.005915869134678275, -0.10398876953160156, 0.004293037690704576, -0.0033248123396045362, 0.0014501105115551315, 0.0014500623067147888, 0.0535677697382726, -0.0023404167596342536, -0.010148828594458176, -0.007862478291229703, -0.007862540567908026, 0.33229748586578445, -0.021279558268432502, -0.02164887901524085, -0.022473475897530144, -0.022473432659961122, 0.03405878343197284, -0.017824347643197236, -0.0174844480517731, -0.01633906400259759, -0.016339190992661855, -0.06460174754350359, -0.007659232906403614, -0.006578222227940196, -0.00719605974620047, -0.007196567044120564, -0.06788120239123317, 0.01235964060245017, 0.01710341526029149, 0.0118492506285, 0.011850004915833118, -0.11205403145287286, 0.009306882272572278, 0.009306882272572278, 0.009306882272572278, 0.009306882272215588, 0.0, 0.01938174077212706, 0.019309335466952342, 0.01934820509338632, 0.019348646314015335, 0.002102259942081989, 0.011811944424116582, 0.010653153059988244, 0.010347264287209808, 0.010347905760542382, -0.012637104282441544, 0.011547214968720914, 0.011985154769820114, 0.01378899349858984, 0.013789307850661466, -0.08102957065625761, -0.002533193128429106, -0.0008194397238190433, -0.0014963070579795735, -0.0014961474261439118, -0.10703924859670243, 0.006977869871599643, 0.0020323517684345685, 0.007017729333234854, 0.007017737326753622, 0.00529009699806158, 0.0027728832826465506, -0.000913829029481283, 0.0024201578294587673, 0.0024201087388809523, -0.023925629950969852, -0.009394024312534433, -0.006840373093050597, -0.007415945136683992, -0.007415739793810529, -0.2936854581012221, -0.022487435440398253, -0.020137902126348958, -0.022641712011828543, -0.022641760526603282, 0.133588826904793, -0.016360399989434067, -0.015327623315129931, -0.016404287872410588, -0.016404543030187808, 0.1463948182189579, -0.005966746829789552, -0.0035149330404802394, -0.0070914953434297245, -0.00709209076800319, 0.042350882916214465, 0.013373236059229365, 0.01778080739443384, 0.011856172065001417, 0.011856927553750986, -0.08973109814448912]}], "PEARLS": [{"learning_rate": 0.01, "num_iter": 10000, "fit_intercept": true, "verbose": false, "weights": [-0.11824462634443812, 0.049643202860945354, 0.049643202860945354, 0.049643202860945354, 0.049643202825163706, 0.0, 0.0016606426170724497, 0.0019282188162022605, 0.0017944363499406211, 0.0017943331636107436, -0.042062699028342025, -0.010091039064616348, -0.008810068857333129, -0.009079982843923654, -0.009079921184649816, -0.12872214181089556, -0.0026593559410371475, -0.0022114786668076545, -0.002268647635858389, -0.002268568213780381, -0.09313019703416023, 0.0031543925641931577, 0.0037077265368330873, 0.004216456639066488, 0.004216461592878633, -0.033439234170134176, 0.023322101259303184, 0.02217593745459937, 0.022315579459391537, 0.022315591839142175, 0.16928447030926505, -0.0021488592713733816, -0.0022759184749002975, -0.0022603273664816097, -0.0022603200881010778, 0.002310010821490924, -0.01254122160577769, -0.013222723055528723, -0.013233116470680312, -0.01323311048889873, -0.24285309226435112, 0.025337220707267762, 0.025588410889097583, 0.025593113721228397, 0.02559311520605683, -0.16013465231270238, -0.011261625636678312, -0.011458204195693945, -0.011452394113942865, -0.011452395219129627, 0.3522458817394391, -0.03352465012664541, -0.033699945658099986, -0.03369626879684327, -0.03369626966658979, 0.2373950007723725, 0.005498001318231307, 0.005553541341560663, 0.005553002657447666, 0.005553002826572664, -0.06119240926753564, -0.006568015820624766, -0.006568015820624766, -0.006568015820624766, -0.006568015792030343, 0.0, 0.004042252285401662, 0.0034035158421254806, 0.003722903360587341, 0.0037227607694276985, 0.08653074328597495, -0.009123126699276778, -0.008061494725458073, -0.008056631431661682, -0.008056606587650745, -0.07823791115226925, -0.00221652954652181, -0.0016876241834305479, -0.0022339549238356558, -0.002233910357589849, -0.08444482290361205, 0.0037091023822707903, 0.0036784392809856422, 0.0035694664770779022, 0.00356949426186337, -0.0015346555335476785, 0.022176486987629314, 0.02172322005475444, 0.022089858579483788, 0.02208988029034936, -0.08559872782193324, -0.0022759185036636317, -0.003092701559318193, -0.002284755210068756, -0.002284749116018405, -0.162871683465854, -0.01322272317361011, -0.013022657595394362, -0.013258102804503126, -0.013258106265858592, 0.18725872326033835, 0.025588411051404768, 0.025318122218087658, 0.0255886578204664, 0.02558865790231483, -0.1747310238015934, -0.01145820424773233, -0.01169030335095117, -0.011459794226689225, -0.011459794584543253, 0.03773242683334892, -0.033699945769308993, -0.03364293089192781, -0.03369985220014065, -0.0336998525659548, 0.045133068245572845, 0.005553541355324506, 0.005582200532860826, 0.005550862995427155, 0.005550862775140153, 0.07784139065473301, -0.0014494196917300521, -0.0014494196917300521, -0.0014494196917300521, -0.0014494196853804084, 0.0, 0.004183120898982765, 0.00452157444686979, 0.004352452793380829, 0.0043526368027343625, -0.023321376549436914, -0.01060858704025234, -0.007447883599152484, -0.005397411913416229, -0.005397061517592256, -0.05058301766993012, 0.002517690787942614, -0.0006483112136980453, -0.001130869557796519, -0.0011306577075549515, 0.00044696930723850815, 0.005758806354199319, 0.002563431240481193, 0.005423354267102069, 0.005423423284981502, 0.01524643297098883, 0.023338936901396604, 0.02181619292701077, 0.022361861810170997, 0.02236188400658048, -0.017641253700585183, -0.001549790552247492, -0.0027246536797796432, -0.0023291206517297844, -0.0023291110988406588, -0.06981497588882735, -0.012919705594306474, -0.013098221390126561, -0.013317409860210475, -0.01331741173907542, 0.12090161114874538, 0.025589405346133725, 0.025588410913468924, 0.025572864174537444, 0.025572864614610398, -0.018702714650682156, -0.011458204239934405, -0.011458204203511851, -0.011483297138042853, -0.011483295607725137, -0.08156256048640613, -0.03369994575263035, -0.03369994567478744, -0.03370839095841755, -0.03370839203066708, 0.007735382804951658, 0.005553541353262662, 0.005553541343627519, 0.005546674820790895, 0.005546674869207515, 0.001434563543354723, -0.004406279861197612, -0.004406279861197612, -0.004406279861197612, 0.05456087334724634, 0.0, -0.05884525727462866, 0.045727716583362485, -0.008780309312466913, 0.01816136202708304, -0.08701279904157022, 0.08348934931709874, -0.11901700587970326, -0.14158531341916358, 0.02054065196749602, -0.03600981893725838, 0.23505993347483925, 0.17529707113411272, -0.18344666905874352, 0.0, 0.03313934109829965, -0.17151716509512502, -0.0022833561648890302, 0.2080818564576203, 0.0, 0.09794396539242434, 0.07814268942908538, 0.18126738708900658, 0.02184833628426341, 0.0, 0.10482156452794555, -0.06666941982607787, -0.024136799417544628, -0.09468726769196158, 0.0, 0.1023672324799813, 0.19087030586803147, 0.10388188359184022, -0.03386296397727753, 0.0, 0.007400698892041725, -0.3578942931496211, -0.0058088173571350385, 0.12922394150010913, 0.0, 0.11987220466862283, 0.07158250372251569, -0.28746774867275826, -0.09565477957527031, 0.0, -0.01636922107853546, 0.014048363250725534, -0.05183461480574071, 0.014989065880947562, 0.0, 0.11907830154871372, -0.09940232476376044, 0.050330481629323215, -0.05925556787464638, 0.0, 0.07836852783355322, -0.011610857866418568, -0.011610857866418568, -0.011610857866418568, -0.011610857866153252, 0.0, 3.3180118193935824e-05, 0.0010849349953317138, 0.0005589871218879642, 0.0005583573517083677, -0.050732091090230226, -0.013605471592553204, -0.0059768484463656076, -0.007782813046224718, -0.007782599581697796, -0.01045740337406601, 0.0010037718603171971, -0.0005169873437446414, -0.001725201883513968, -0.0017250155145770963, 0.13073841012160142, 0.007288146556539087, 0.004143256225174504, 0.00660615843545285, 0.0066062619587143176, -0.010744316980419732, 0.025391226208548685, 0.022159828857466868, 0.02301939489877686, 0.023019458577186933, -0.14134077003114132, -0.002117375836453091, -0.0022759184749002975, -0.0023257389891171657, -0.002325721655359523, -0.052794253242659, -0.013222723138213575, -0.013222723055528723, -0.013238481875498143, -0.013238484939784089, 0.16600790760055797, 0.025588411002756717, 0.025588410889097583, 0.025607859370053342, 0.025607861193083933, 0.018230970864540726, -0.011458204232129336, -0.011458204195693945, -0.011458604111837613, -0.011458597681031971, -0.1758998202015969, -0.03369994573597227, -0.033699945658099986, -0.03369515864461442, -0.03369515968372508, -0.007761354147665743, 0.005553541351198192, 0.005553541341560663, 0.005553855895187112, 0.005553857565536678, -0.039514820811446624, 0.010010440926842893, 0.010010440926842893, 0.010010440926842893, 0.010010440933120854, 0.0, 0.008185131931767755, 0.008099987406399367, 0.00814299534735632, 0.008142390143456078, 0.009063799447629143, -0.00871348702812743, -0.011000279006210137, -0.0030135733795460897, -0.003013846527548961, 0.10788954423432698, -0.0011923217296866471, -0.0028226459709641133, -0.0005369331887102146, -0.0005367767707372339, -0.0877996031685123, 0.0040882077304907555, -0.002954880428803924, 0.004241346828678984, 0.004241480278144675, -0.02543104850854323, 0.022176486987629314, 0.0195785050578113, 0.021704772765376298, 0.021704803324667985, 0.009676466143924232, -0.0022759185036636317, -0.002987122226242077, -0.0023324982140824745, -0.00233248037335261, 0.025474594040852363, -0.01322272317361011, -0.013222723090981315, -0.013396284129924616, -0.013396281516012907, -0.10339629668512812, 0.025588411051404768, 0.025588410937818815, 0.025537892608630503, 0.025537900536683738, -0.1827415461290075, -0.01145820424773233, -0.011458204211322121, -0.0115079736020489, -0.01150797795216563, 0.10052251615506419, -0.033699945769308993, -0.03369994569149396, -0.033721614397458764, -0.03372161825167641, 0.0585490196765004, 0.005553541355324506, 0.0055535413456943026, 0.005539498541357849, 0.005539496595518739, 0.0543448886101212]}, {"learning_rate": 0.01, "num_iter": 10000, "fit_intercept": true, "verbose": false, "weights": [-0.43718687263226497, 0.04895813092441109, 0.04895813092441109, 0.04895813092441109, 0.04895813092756715, 0.0, -0.0035762199947657358, -0.0027465976706014246, -0.003161436529834251, -0.0031616584068197974, -0.12355456315646007, 0.001313859611468991, 0.001321550078939673, 0.001054783148311226, 0.0010547459827530432, -0.030088504080680176, 0.0007905914211070927, 0.0005334498185925451, 0.00013364084543805328, 0.00013372043508181328, -0.19873690628633747, -0.0004088945572454437, -0.0026711345074996533, -0.003134346196271535, -0.0031343130033505196, 0.24282718788631516, 0.0001231238235717824, -0.0008199115944337279, -0.0008849862261382053, -0.0008849741332078344, 0.10396298432629808, 0.017660891260371132, 0.015477589106251737, 0.015430219236506447, 0.015430223845169476, -0.05461655335703836, 0.02174951209120157, 0.022681202007024948, 0.02270437733330866, 0.022704377288750983, -0.3412809368669989, 0.04930305615738604, 0.04727780097697828, 0.04727370475448462, 0.04727370508527454, 0.3074735380582462, 0.02193233574932632, 0.02136787346034005, 0.02136471504743348, 0.021364716352731114, -0.22209895347485256, 0.01070305683957215, 0.010519122627251652, 0.010521292521266955, 0.01052129252697084, 0.04636361902850003, 0.028238010764481715, 0.02801949274136769, 0.02802426951341592, 0.028024268616324885, 0.3506633354498167, 0.014995591216225646, 0.014995591216225646, 0.014995591216225646, 0.014995591238400155, 0.0, 0.0010578263845242837, 0.00029742167927299427, 0.0006776307471129723, 0.0006774485714246175, 0.1321907467708333, 0.001990155925761372, 0.0012116787022016593, 0.0016687348317062144, 0.001668604428546561, 0.20367852896100075, 0.000616294671688426, 0.003314675995101826, 0.0011214846823168014, 0.0011215323719161946, -0.5406608006834321, -0.0026505621808175766, -0.0027346523793720812, -0.002830501571640838, -0.0028305344182593646, 0.12775246709628588, -0.0008194434860691633, -0.002441528062475187, -0.0007092795293638803, -0.0007092695559017726, -0.023967735032852586, 0.01547758930185906, 0.015150328129986667, 0.015463988867878328, 0.015463999089268295, 0.13948886937799854, 0.02268120220957235, 0.021533063323237886, 0.022719566238142887, 0.022719577628664743, -0.4963060136242173, 0.04727780127686036, 0.04754795925436105, 0.047264060699879956, 0.047264059989475075, -0.08684981076498137, 0.021367873557385113, 0.020896533447730715, 0.02135368810196619, 0.021353686511174808, 0.4971648350177457, 0.010519122661964246, 0.010564173844193902, 0.010520036484519315, 0.010520036884250532, -0.20297630105695533, 0.02801949281081273, 0.02812040925209465, 0.028023116660119612, 0.028023116772532174, -0.005122460899096693, -0.024202457217043387, -0.024202457217043387, -0.024202457217043387, -0.02420245722569726, 0.0, 0.0020746513516863726, 0.008020163235420815, 0.0050473126739896314, 0.005048184245528107, -0.4016188764687511, -0.0017299672277567976, -0.0027042578330098363, 0.00037307404501308336, 0.00037337946036476586, 0.02259913823992926, -0.000739552058850561, -0.007155279671003567, -0.0007649648419258906, -0.0007647871007101798, 0.2867455484894803, 0.001497858101676607, -0.0016203848848752337, -0.0052214174593724514, -0.005221357676730658, -0.026081407243864693, -0.0003005859062547435, 0.0018646880850811866, -0.0010347888343707418, -0.0010347671511151525, -0.18659165721832704, 0.0155916157327202, 0.01622141714032451, 0.015499010145228136, 0.01549902913200349, -0.3474483898581889, 0.02260168602143087, 0.0225660572933254, 0.02275039223054503, 0.022750386788823653, 0.26223193332896527, 0.04727830957038879, 0.04727780102200754, 0.047320507847894495, 0.047320519004073684, -0.39424392630895083, 0.021367873542842038, 0.021367873474918333, 0.021318853237271746, 0.021318858912027814, -0.20918784752603625, 0.010519122656758662, 0.010519122632459759, 0.010508510604755036, 0.01050851370886526, -0.12258001003810884, 0.02801949280040732, 0.028019492751796857, 0.028044726742177232, 0.02804472822274027, -0.036132940577014445, 0.1228990700100147, 0.1228990700100147, 0.1228990700100147, -0.43530870610156475, 0.0, -0.03231667961764835, -0.23993262711451638, -0.16820873696118763, 0.03133300362089161, 0.17588912316971472, -0.15694757661540104, 0.26750409637830685, 0.062326570334622675, 0.06591575024098491, -0.2688507371592242, 0.3599836822521601, -0.2380826248039779, -0.05470948553423235, 0.0, -0.07034629759197308, 0.005383759114310085, -0.18403878085539305, 0.2265439899973546, 0.0, -0.2677804742652303, -0.12698999637633723, -0.2211431142568092, 0.0680503273348557, 0.0, 0.14012450651817823, 0.1360113048410241, 0.3577740804991834, 0.17485829184282672, 0.0, 0.2636805142572897, 0.02278848481692041, -0.3377863083044894, -0.008678163200527287, 0.0, 0.13125744776380616, -0.31206259699887084, 0.3487058586139191, 0.04986812554683911, 0.0, -0.06709967852749393, -0.14777278394512014, -0.3864662334029243, -0.02534056532551921, 0.0, -0.1273476589719948, -0.07533676842891926, -0.21651044824278853, 0.19510303047693173, 0.0, -0.2007289956483237, -0.30232415608519086, 0.29881327735505464, -0.07144973709962195, 0.0, -0.07815323155260036, 0.010537244711674467, 0.010537244711674467, 0.010537244711674467, 0.010537244711475937, 0.0, -0.010311219271985762, -0.015134899057883764, -0.012723261021640512, -0.012724118302063653, 0.22854602945724772, -0.009758758130533987, -0.014350806876522234, -0.0088236233095865, -0.008824371767641183, 0.30090104847817084, -0.004581049454465332, -0.0024907441382279326, -0.0031514880020394936, -0.0031512067554963588, -0.22674749962512614, 0.0035643524060295527, -0.0031648774941262854, -0.007317507466497719, -0.007317334576672406, -0.08007707907963645, 0.0008364247152936847, -0.0008335548772557201, -0.0010469829091188524, -0.0010468908730156476, -0.13141110731826947, 0.016033749175229366, 0.015477589106251737, 0.015463665088528956, 0.015463691544631755, 0.13662268301980593, 0.02268120214885688, 0.022681202007024948, 0.0228644064947139, 0.022864415778213996, -0.022634961637015165, 0.04727780118697813, 0.04727780097697828, 0.04730919058652316, 0.04730918757004711, 0.18740218759352062, 0.021367873528286205, 0.02136787346034005, 0.021356598819259255, 0.021356613838601705, -0.3423968236939837, 0.010519122651558, 0.010519122627251652, 0.010513783423210287, 0.010513790157555472, -0.16457683663212216, 0.02801949278999716, 0.02801949274136769, 0.028041996457954927, 0.028041993216290088, 0.11211129442381608, -0.047126443800938285, -0.047126443800938285, -0.047126443800938285, -0.04712644380365248, 0.0, 0.022015452700520185, 0.023592891425413477, 0.022805383607787742, 0.02280587234091889, -0.07299782054305289, 0.005781849918968477, 0.004981799143992524, 0.009563508536140757, 0.009563596155968843, -0.12983973906726784, -0.001229780804594908, -0.007997706561809193, 0.001619927176691642, 0.0016201439669881448, 0.1805459264077583, -0.002570020571462465, 0.003845008130345982, -0.003126745781940856, -0.003126752752948528, -0.0019615222740061713, -0.0008194434860691633, 0.003644089776182616, -0.001022604599856156, -0.0010226011016967187, -0.1312021111642197, 0.01547758930185906, 0.01518299969331122, 0.015534329543047848, 0.015534329879028332, 0.07724291168169632, 0.02268120220957235, 0.022681202067838076, 0.02263645410983551, 0.022636445717461363, 0.27447355427896086, 0.04727780127686036, 0.047277801066997034, 0.04733181723078565, 0.04733184733092573, -0.6427793118608789, 0.021367873557385113, 0.021367873489484768, 0.021281133319216182, 0.021281136638417682, -0.05662387950234362, 0.010519122661964246, 0.010519122637675108, 0.010503241340864389, 0.010503244987368716, -0.08106783600758741, 0.02801949281081273, 0.028019492762222115, 0.028047455182708857, 0.028047461880715704, -0.14110451290719786]}, {"learning_rate": 0.01, "num_iter": 10000, "fit_intercept": true, "verbose": false, "weights": [-1.0828319273692308, -0.004694427318358681, -0.004694427318358681, -0.004694427318358681, -0.004694427284145861, 0.0, -0.0009532903870030901, -0.002011043638100117, -0.0014821571008559456, -0.001481953561274064, 0.15006939470875955, 0.00048387685595205576, 0.0013810476187811837, 0.0005878977574926592, 0.0005880891417511117, -0.13560130282987068, 0.003361800593078411, 0.004439465279858615, 0.003229271327635473, 0.0032294179967107834, -0.4073007900161281, 0.012015057011289524, 0.006598255996886483, 0.006165918516270045, 0.006165911872814937, 0.3818409901584925, 0.01106317989102072, 0.010068467828241232, 0.009798209984045021, 0.009798224795377354, -0.0143925605027549, 0.03200858276099359, 0.033951256844381036, 0.033867861807925226, 0.033867856474872206, 0.3594211927971397, 0.036907519468302424, 0.04090535616358325, 0.040840486724189, 0.040840480120060266, 0.14719327947739358, 0.02761751361314328, 0.02881018580694956, 0.0287722801233817, 0.028772281296166925, -0.24446257590274156, -0.03763206511216558, -0.037253614600659804, -0.03724803303057802, -0.03724803339024687, 0.21079122909063763, 0.021331551344386003, 0.021454864605014227, 0.021458532216823426, 0.02145853148255627, 0.24521210482599554, 0.052440106658538, 0.0521059766139623, 0.05210982727160095, 0.05210982636347222, 0.39228483509820866, 0.16633193362538493, 0.16633193362538493, 0.16633193362538493, 0.16633193365290588, 0.0, -0.00298643334678523, -0.004702289950783163, -0.0038443815840326977, -0.0038438639786128356, 0.21787750735684663, 0.001590026074102394, 0.002453277166330685, 0.002289151006445409, 0.0022894950928527722, -0.19018289329784668, 0.004325500650630523, 0.006146591236432726, 0.005160678204382531, 0.005160824506940119, -0.07996421207625025, 0.006514369897092244, 0.007169350070965971, 0.0062322316213594695, 0.006232238328180869, 0.37278387116768197, 0.01006871056780084, 0.01068361988734736, 0.01010171311091943, 0.010101738697556782, -0.2204677247424781, 0.03395125727346073, 0.033827547369912454, 0.033951936165569976, 0.033951941617796355, -0.10711803514972673, 0.04090535652887434, 0.041020489640812896, 0.0410163718489884, 0.04101638075871282, -0.9030000381880067, 0.028810185989691695, 0.029688213904746286, 0.028819316714441285, 0.02881931338613139, 0.34694748704808237, -0.037253614769850896, -0.03837961646790111, -0.037259161001981116, -0.037259163079939116, 0.6423147700939611, 0.021454864675813066, 0.02117168522481724, 0.021477578225391758, 0.021477581246905478, -0.9403336455859845, 0.052105976743104174, 0.05242753610270504, 0.05211547825593576, 0.0521154799612609, -0.5059567365975056, -0.0643135062235424, -0.0643135062235424, -0.0643135062235424, -0.06431350622964732, 0.0, 0.041129115194926874, 0.04256198348444814, 0.04184661547526083, 0.04184748679622913, -0.10152539969377539, 0.011403719582246391, 0.005815069362293818, 0.0027767600490958074, 0.0027766589001350437, 0.4305912618938227, 0.012669394639739817, 0.004646069898553241, 0.006252224107578625, 0.006252196015115868, 0.33554193257502607, 0.006087748964332259, 0.004352270856185634, 0.006173137141779507, 0.006173218446306109, -0.86175314726624, 0.008524364166796682, 0.009250963353063857, 0.009743680508148417, 0.009743698039410692, -0.1604034482202686, 0.03352003474354755, 0.034341792357491026, 0.03383997543995641, 0.033839961811749475, 0.13103067617210615, 0.040508184507458654, 0.04045039251726111, 0.040922760715652026, 0.04092278418597864, -0.683784789079261, 0.02881024389238282, 0.028810185834389226, 0.028758768665577732, 0.028758772747889197, -0.09185422227221017, -0.037253614744496885, -0.03725361462607636, -0.03730618384751094, -0.03730619066685984, 0.26728753511488057, 0.02145486466519668, 0.02145486461563802, 0.021470528843097806, 0.02147053603793363, -0.2891767170613599, 0.0521059767237547, 0.052105976633358336, 0.052120978905434844, 0.05212098070886798, -0.025295716354109078, -0.07079221119107752, -0.07079221119107752, -0.07079221119107752, 0.2223489673164972, 0.0, -0.07707756766406813, 0.06084540791747424, -0.013587291348865287, 0.10741405728966252, -0.12055322045908623, 0.27098572767754536, -0.2505172478454562, 0.13430171610605124, 0.033334551698361616, 0.20753317080287953, 0.17441567467023997, -0.3699784837858908, 0.1089310765187933, 0.0, -0.48845526717765203, 0.0713565379610153, -0.616078596433256, 0.007346862605955438, 0.0, 0.022748062168882192, 0.2197020342303128, 1.0130947772323318, -0.25219882343832334, 0.0, 0.2509697745671361, -0.5123969780873393, 0.6673359721160882, 0.12657106587532027, 0.0, 0.1939485696372759, -0.1354305575662834, -0.278236736849262, 0.7725210167122246, 0.0, 0.31467606815897314, -0.28255716365718153, -0.023573970974746433, -0.40177913338249077, 0.0, -0.3961180468732926, -0.01203850530126086, 0.41696096291018386, 0.1156792765008933, 0.0, 0.09053779809555233, 0.4588250153939718, -0.5714985562520826, -0.1819444651601122, 0.0, -0.5187973555340402, -0.3002927622334057, 0.39843042761900604, 0.248117941628686, 0.0, -0.1587665470459687, -0.013954575850443449, -0.013954575850443449, -0.013954575850443449, -0.013954575853410763, 0.0, 0.044367993060572604, 0.04325793517854056, 0.043815419521776665, 0.04381416520184345, 0.055758254150696775, 0.010650659165559679, 0.003839275803898289, 0.001157844754384219, 0.0011590170081678796, -0.020632882714364552, 0.01085264450983722, 0.005949951493045175, 0.0009836260847019124, 0.0009839551321222818, -0.002437787620226306, 0.019356460072299395, 0.008122977034035615, 0.0053878378845310096, 0.0053880463234162925, -0.14876850633133767, 0.011594634112097275, 0.010061424398015417, 0.008852896725550556, 0.008852870169932862, 0.5919321012016941, 0.03450310657777154, 0.033951256844381036, 0.03352914855830997, 0.03352915653507789, -0.14273599596021053, 0.040905356419374525, 0.04090535616358325, 0.040480602544123216, 0.04048062219512739, -0.05092871494305368, 0.02881018593491884, 0.02881018580694956, 0.028639028224070846, 0.028639031595912794, 0.06746816423525373, -0.03725361471912015, -0.037253614600659804, -0.03722274341454171, -0.037222735793656266, -0.222641852047137, 0.02145486465458938, 0.021454864605014227, 0.021453184477940365, 0.021453195607866328, -0.2709232306516564, 0.052105976704394964, 0.0521059766139623, 0.05211758806553305, 0.05211758966308435, 0.009416264109822317, -0.08462689923206985, -0.08462689923206985, -0.08462689923206985, -0.08462689922650798, 0.0, 0.036788336997239206, 0.04295926212630835, 0.03987594422249191, 0.039876071633443, -0.29619142013792565, 0.0011419719630782264, 0.0073226631701076, 0.004394555309975908, 0.004394467659640034, -0.47146206591109224, 0.004520757688777302, 0.010658414064519256, 0.011517241228299552, 0.011517490793337198, -0.21563458548813813, 0.0057202062599960146, 0.003712672344717171, 0.006957903949249559, 0.006957862690325784, 0.7377092316723021, 0.01006871056780084, 0.0136610908543755, 0.010633857696764061, 0.010633838383554585, -0.13252776777511566, 0.03395125727346073, 0.03406037242900422, 0.034150588569053036, 0.03415056372388541, 0.3061872713674247, 0.04090535652887434, 0.04090535627325759, 0.04136461835455531, 0.041364613746871205, 0.17994168186575288, 0.028810185989691695, 0.028810185861804748, 0.02887842878020215, 0.028878421594412052, 0.20802144353911767, -0.037253614769850896, -0.037253614651471284, -0.03738956775086455, -0.0373895941669538, 0.6561016953538681, 0.021454864675813066, 0.021454864626273974, 0.02148786150716415, 0.021487872929129855, -0.2603731731471851, 0.052105976743104174, 0.052105976652745356, 0.05212436753483062, 0.052124371619943814, -0.049742385302713375]}, {"learning_rate": 0.01, "num_iter": 10000, "fit_intercept": true, "verbose": false, "weights": [-2.697737548279178, 0.038554139127744906, 0.038554139127744906, 0.038554139127744906, 0.0385541391405236, 0.0, 0.004542473355488175, 0.002100685249606671, 0.003321629220459578, 0.0033218308585408604, 0.36763320113525166, -0.0009460299014919528, 0.001848196187327736, 0.001390030413527059, 0.0013903132077929916, -0.5723163762605318, -0.0004116385288195968, 5.851716883044016e-05, 0.0008694806493453059, 0.0008695444578647655, 0.6376434625413392, -0.002257151080768395, 0.0014867536928910652, 0.0018269014756764218, 0.0018269531205712538, -0.31794171545804545, -0.01671646364498735, -0.011633527514819261, -0.01167988121133632, -0.011679860335060575, -0.9187839968397158, -0.0034027136609922574, -0.002832473916141709, -0.0027877385989284946, -0.002787750812452711, 0.4393224822119936, 0.0691086218115131, 0.0746002145066341, 0.0745530057053497, 0.07455300618642335, -1.1304619422264652, 0.058731028472213606, 0.058842781577341526, 0.05886228411862733, 0.0588622816616892, 0.48172240924834003, 0.0717094907404822, 0.07250720988618542, 0.0724978232297929, 0.07249782520874383, -0.5633087624417715, 0.04463774626098717, 0.04575997839380333, 0.04576633956877168, 0.045766340075012645, -0.17918769484002206, -0.015546084468887177, -0.015492927114249358, -0.015486331834810558, -0.015486333465305395, 0.5724801978031072, -0.0880202614354099, -0.0880202614354099, -0.0880202614354099, -0.08802026143551787, 0.0, 0.0037893848419432064, 0.004888003157852245, 0.004338713222333984, 0.004338968781005515, -0.1570631630281415, 0.0009062308612532361, 0.003223045683420658, 0.00023326810519093148, 0.0002334564639707949, -0.5070206957455862, -0.00033980043635421385, 0.0015883525265967156, -0.0005691084319925305, -0.0005689859563095898, -0.4894333016417759, 0.0014487614774237943, 0.006157763510629043, 0.0008758829449220292, 0.0008759218380321288, -0.26844225313196657, -0.011633325415844243, -0.010839817231125967, -0.011731057668598818, -0.011731041633371334, -0.15410602234658735, -0.0028324739519384793, -0.0073398085285993645, -0.0028643500633710847, -0.00286435558429121, 0.8583980820972509, 0.07460021517282613, 0.07312388257723837, 0.07461999262719281, 0.07462000292389175, -0.17057138748823059, 0.05884278195057902, 0.05961849362806709, 0.0588599587025502, 0.05885996025336768, 0.13938780651247804, 0.07250721021548594, 0.07348503240460247, 0.07252011781672858, 0.07252011835704571, 0.2948192097713827, 0.04575997854480821, 0.04663775080427302, 0.045753460533621976, 0.045753460829908124, 0.1357572735172638, -0.015492927152647919, -0.015109595862750302, -0.015496413880981764, -0.015496414682368734, 0.3135952553491177, -0.025367928787930448, -0.025367928787930448, -0.025367928787930448, -0.025367928794046393, 0.0, -0.004665829417339268, -0.002782867507246222, -0.003724525524316592, -0.0037247452738624403, -0.12044229954842237, -0.0005531271009988013, -0.001499677643205741, -0.0037296705874228656, -0.0037298064825415913, -0.5144377215190852, -8.06790334515066e-05, -0.006551436420763563, 0.0014507684046813623, 0.0014507195110108693, 0.4439832073577961, -0.0005850836199233662, 0.007751782342045109, 0.003050746795432085, 0.003050578728321213, 0.9984867632254566, -0.01338517133836892, -0.011251677745709798, -0.011211805540669266, -0.011211789985619712, -0.3291797413457592, -0.003152139006907404, -0.002442822604625841, -0.002096354690838061, -0.0020963704963944713, 0.20688258972628348, 0.0745829779957996, 0.0744962085551152, 0.07449465240691046, 0.07449465736338688, -0.2662134930314769, 0.05884282911785218, 0.05884278163338437, 0.05895566613814031, 0.058955683856021165, -0.6636284213800204, 0.07250721016613834, 0.07250720993565564, 0.07256297127416264, 0.07256298928439893, -0.6957503556349318, 0.04575997852216287, 0.04575997841646294, 0.045737862526993626, 0.04573786310678186, 0.01612112421643753, -0.01549292714689525, -0.015492927120016832, -0.01550086370502256, -0.015500860902994894, -0.13895928602627566, 0.2508144259990742, 0.2508144259990742, 0.2508144259990742, -0.5077747179714585, 0.0, -0.18824221472285346, -0.2636289974654852, -0.28452309474853915, -0.8180220346748256, 0.06561481165781906, 0.031758524873724575, -0.15093533682574306, 0.5755590239800406, -0.2410376975773874, -0.10520364647353933, 0.5226282401281903, 0.5209876783944106, -0.7694715193371237, 0.0, -0.1771879531866306, -0.28238291492868683, 0.18387952487069661, 0.3005930962695732, 0.0, 0.07757237802759179, -0.1878654187452039, 0.054861865844196875, -0.9507727115282614, 0.0, 0.08022018740494041, 0.9340902625170261, -0.5651101362001524, 0.042901587766296274, 0.0, -0.059631983664830586, -1.4246196662364747, -0.5476067315872315, -0.35874879233821283, 0.0, -0.29675089176936853, 0.11454110716093409, 0.4386511171231274, 0.3300825319200255, 0.0, 0.026271145368432527, 0.22300078590696587, -0.3516105289034374, -0.41552397145469927, 0.0, 0.055918922040903395, 0.007110563993640174, 0.6617658360208444, -0.1198629377334617, 0.0, 0.2843081188477284, -0.7286074286154423, 0.12553260777711142, 0.28677097927452655, 0.0, 0.18991002852465014, 0.07199607496481002, 0.07199607496481002, 0.07199607496481002, 0.07199607495812853, 0.0, -0.013148429805646617, -0.0029099035652154237, -0.008030576725819544, -0.008029972191634495, -0.5010411969902095, 0.016688024677660163, 0.011929095747112034, 0.009037537314165877, 0.009037504917899744, 0.5418540836050852, 0.0036409848261731584, 0.005279397191012139, 0.005540377307187452, 0.005540617867321482, 0.13332395780713785, -0.007866152808091408, 0.0034488071924536037, 0.007805937577256955, 0.007805799709073432, -0.3280425867231137, -0.009465670371493637, -0.011639427515291827, -0.010920467365311487, -0.010920460142634434, -0.1319150900609679, -0.0025420597166334455, -0.002832473916141709, -0.0016317443231037712, -0.0016318245021334293, 1.147944984973227, 0.07460021497313021, 0.0746002145066341, 0.07452872759410517, 0.07452874942945596, -0.3143888972412361, 0.05884278183870995, 0.058842781577341526, 0.058857199861367754, 0.058857176977471955, 0.6822598300881255, 0.07250721011674634, 0.07250720988618542, 0.07249748643049239, 0.07249750000603115, -0.26779203267335144, 0.04575997849954181, 0.04575997839380333, 0.04577335487343842, 0.045773363045392715, -0.1892879939106285, -0.01549292714113805, -0.015492927114249358, -0.015515130688173246, 