{"BANANAS": [{"learning_rate": 0.01, "num_iter": 10000, "fit_intercept": true, "verbose": false, "weights": [-0.166157148429888, -0.017825596396964145, -0.017825596396964145, -0.017825596396964145, -0.017825596396883372, 0.0, -0.0027969781452583187, -0.0024528571962839914, -0.0026249724676136905, -0.0026249721352049997, -0.037611782973414824, -0.00027610890166000594, 0.004186041045786425, 0.005048846630148351, 0.005049269470431752, -0.08578236573717585, 0.0014533925493588518, 0.006526819071953891, 0.004303645450060094, 0.004303810428858674, 0.13599377928268783, -0.010481558276498232, -0.002843233161833234, -0.007972653662328666, -0.007972559218635588, 0.014330015319743065, 0.01796548671361865, 0.023976366546598547, 0.02415127948137081, 0.024151303922751825, -0.11697496122496925, 0.005482717511427145, 0.007903257461432186, 0.006650590558793993, 0.006650490518278414, 0.10520239176566928, 0.02468347721872976, 0.02811859705911048, 0.027212415951108217, 0.027212562761157452, -0.08193302000246754, -0.01789238665898314, -0.017633633449954937, -0.015634049786622924, -0.01563432822211775, 0.058789109674314076, 0.007142395405666362, 0.0070313823869660895, 0.008819332779133725, 0.008819176222178201, -0.003094182216897484, 0.01442748317310728, 0.016414062945494173, 0.013912391603717517, 0.013912522450871326, -0.0005238349555140674, -0.011939049703879052, -0.014277128467697766, -0.013039099816230802, -0.013039243778570525, 0.09300275037516718, 0.02971373750260364, 0.02971373750260364, 0.02971373750260364, 0.0297137375023026, 0.0, 0.006145467422158682, 0.006536795251854734, 0.006341216752171416, 0.0063416728302900524, -0.035108928856954054, 0.010743410164378124, 0.010394186813052519, 0.009023624986610504, 0.009024114827765418, 0.21552247549349896, 0.0027917438541533624, 0.008785117990039847, 0.0034551613173088693, 0.003455258037244842, -0.12845848311774313, -0.009793289507097814, -0.005015319395869648, -0.008928571556569925, -0.008928498602403221, 0.016684284574338824, 0.01945485235330629, 0.023417526577755175, 0.024132571406326606, 0.0241325374794006, 0.0477025033704975, 0.005504920106739414, 0.0030353522750128327, 0.006327646859121495, 0.006327559728725419, 0.07178674624533547, 0.02575118468747966, 0.025308804501344286, 0.027016388770125972, 0.027016492385877854, -0.023211152367053945, -0.01908825174991193, -0.018330940581819343, -0.01566817759685034, -0.015668429275674856, 0.01651613641376723, 0.006994310628821675, 0.005456145621865226, 0.008821442686029558, 0.008821295004370016, -0.011570254050043366, 0.01446524282381691, 0.015226705068121644, 0.013920331938404364, 0.013920472128340876, -0.008290741666576968, -0.012196144658864313, -0.014846459803900152, -0.01303934710507235, -0.013039478512894734, 0.08735707200447569, -0.010095700414915972, -0.010095700414915972, -0.010095700414915972, -0.010095700414913596, 0.0, -0.027921875510761765, 0.03381989407955555, -0.00011249925566157238, -0.015477802596332815, -0.05776347395139694, -0.07694676294474422, -0.040462126996109994, 0.028058448520939003, 0.032601364363098316, -0.03593397489467602, -0.08710175234543246, 0.19484325114893722, 0.059476990234151296, 0.035825478054435984, 0.09611187312409195, -0.07752499610112161, 0.059452040909611904, 0.08309026156100355, 0.04297048496200886, 0.13306612953322908, -0.13164732817266, 0.005360078397368598, -0.15290133947267243, -0.14348970225356447, -0.031130596299908556, -0.024213549396888735, 0.03320766938354589, -0.09864251753294216, -0.10166065221654731, 0.1619689088748242, 0.10923734807409757, -0.027051112504432616, -0.11105794652528728, -0.11376273858930307, 0.04700656053680238, -0.03850118316774035, -0.09540054286003627, 0.10867136359598296, 0.11228562416418279, 0.014223385139164435, -0.051181635202254605, 0.202295562952399, -0.022303286027509934, -0.02141986669217744, -0.060048248717674786, 0.05795247855063458, 0.15541486617968453, -0.0027708921173535293, 0.0004020620928074052, -0.09827164187337759, 0.014159221185080409, 0.12017306611064085, -0.0298718749006906, -0.029215142277564155, -0.026195117826990515, -0.008443114132165688, -0.008443114132165688, -0.008443114132165688, -0.008443114132166876, 0.0, -0.01933208137037479, -0.03831673854924657, -0.032453641911180955, -0.02210953239066323, 0.012594772733135135, -0.08945520412920598, 0.020611855281540917, 0.09479009702435702, 0.0798318867564536, -0.03827215985435653, -0.0728328704760802, -0.0815664535682582, 0.015281924973938063, 0.008132851986325884, -0.019445440128093128, -0.02159720541077738, 0.0636220921368102, 0.0034636041589282793, 0.0317294526020482, -0.0023971108769832755, 0.1739885682767999, 0.0982600966267786, -0.07075409314839363, -0.04648794022372602, -0.19315308470709686, 0.023005055003127446, -0.09504085681784673, -0.10384345165260167, -0.10207398854266272, 0.08940058302741517, 0.09213258088446864, 0.07320048496673838, -0.12367284944716768, -0.13321243557129703, 0.06760648846731666, -0.1585161291716092, 0.1335095491884309, 0.10517812098521749, 0.11175451929591852, -0.3284812331981868, 0.031408741058337686, -0.13477568532786682, -0.018106601814918803, -0.017089841286774005, -0.04671182797965848, -0.18565945461275007, 0.20403044762588943, -0.003634128338705421, -0.0028363740815529983, -0.07134982590766295, -0.08460429433618011, 0.027676551227281476, -0.029106389250817453, -0.02823629159464634, -0.06815828889638323, 0.005947709137807998, 0.005947709137807998, 0.005947709137807998, 0.005947709137193066, 0.0, 0.0017541364479574581, 0.0019682574008659586, 0.0018611958306018674, 0.001861318854552305, -0.026671155355917162, 0.005666063721549307, 0.008399786454671309, 0.007037592912345415, 0.007037937498605116, -0.0747291903172893, 0.0024848650506437715, 0.008305028710417573, 0.0038791146736109165, 0.00387925143671337, -0.02160795704471641, -0.010445787921149656, -0.003712396578917016, -0.00845093959040211, -0.008450860581133446, -0.03902916690161363, 0.018791323217740588, 0.023770122572389637, 0.02414191925569216, 0.02414190342824852, -0.029834437132811868, 0.004931978430480901, 0.006265978675613975, 0.006489008440399448, 0.006488923210626399, 0.05188641929470083, 0.024972309976673032, 0.027104001933633968, 0.027114335458705577, 0.02711446628442764, -0.0760889720517265, -0.01930912683862306, -0.018164391296303258, -0.01565112534180856, -0.01565139063596759, 0.037150760553901735, 0.007118694321059427, 0.006378282959072975, 0.00882038844307113, 0.008820235519742595, -0.005364567364217774, 0.01456967704482848, 0.015987893281240062, 0.013916364478521522, 0.01391649993394637, -0.004169436564648853, -0.012045357057730669, -0.014486146916600178, -0.013039223546790504, -0.013039361422191854, 0.09048725631702208, -0.0014379717209128623, -0.0014379717209128623, -0.0014379717209128623, 0.10812779375706738, 0.0, 0.005981975741031094, 0.048914591835828566, 0.03445174170472179, -0.0696834997726029, -0.036132453395849556, 0.012847050328085734, -0.014570857263071663, -0.07398819612304625, -0.01588666876738738, 0.030541525707754147, -0.006334246379053656, -0.08234880449998928, 0.054806970733138914, 0.0, -0.09969565550064803, -0.0425883081865647, -0.07948744864466477, 0.1195113638130922, 0.0, 0.02660599498585095, 0.1781904336217859, 0.0688600673595152, -0.19693559299322433, 0.0, 0.031770471570405336, -0.16061422104355524, 0.13585585568765876, 0.03983461150705217, 0.0, -0.12938556911141177, -0.05002374379573016, -0.07307903197165046, 0.08049937603004956, 0.0, 0.05110681402546, 0.14680280188763348, 0.03650205109548946, 0.05594568085743764, 0.0, 0.25654270058390566, -0.08375623400949538, -0.35874956748689235, -0.10906620518137436, 0.0, -0.12289847742174292, 0.1821243250653382, 0.052719657892885734, 0.04263928695853243, 0.0, -0.10495241717843065, -0.14249691420957744, 0.13713725671370525, -0.033250917958463376, 0.0, -0.07713323221068713, -0.06289966224259483, -0.06289966224259483, -0.06289966224259483, -0.06289966224262407, 0.0, -0.019478565679998675, -0.01857233558838737, -0.019028394989696672, -0.019029528145612318, -0.02650457915793585, 0.006500303108377883, 0.005646306562322025, 0.0008143484138992103, 0.0008147792393659943, 0.11580389056907021, 0.005715738827800879, 0.003982907286343335, 0.0005378384859820543, 0.0005384973739706261, -0.10057271145187659, -0.005394498927788505, -0.004417851456820746, -0.009264082606077355, -0.009263653639716228, -0.011005872025235477, 0.02310075053219911, 0.019529613516629275, 0.022631225557262793, 0.022631318295790136, 0.02637908937936988, 0.00208813951204123, 0.004712805247826831, 0.005666159637058747, 0.005666181765591702, -0.04132289948022177, 0.024352128427290422, 0.02708655057948785, 0.026985762757306037, 0.026986079002363213, -0.40081125935810136, -0.017483525066937722, -0.019354569697172606, -0.01585056830201173, -0.015850802753080172, 0.02750238899378168, 0.00614323792288877, 0.0065602283322214, 0.008693968615669375, 0.00869379902935628, -0.06270951997738773, 0.01399755585494161, 0.016232384697919985, 0.013885447402555668, 0.01388551329096131, 0.04360179940233145, -0.011778892892109323, -0.0144501834846398, -0.013062834271837414, -0.01306297833082408, 0.08742624908032987, -0.04102976982898828, -0.04102976982898828, -0.04102976982898828, -0.04102976982930682, 0.0, -0.001210959403551601, 0.0016681023514013987, 0.00022872031970753217, 0.00023176355474961938, -0.08554252687144571, -0.00023228296978231004, -0.0006731395292524816, 0.00465969252006112, 0.004660569651276486, -0.10043294161378591, 0.007630817155046783, -0.0002494426207017199, 0.0037801932265874344, 0.0037803566362817963, 0.0713691923490371, -0.00866228641654652, -0.007567200148375337, -0.009757226183190465, -0.009757020364522475, 0.005780889743429151, 0.022172262328180325, 0.016883223654760214, 0.023952405128783848, 0.023952301038804386, 0.05704690187303424, 0.007163621094072629, 0.0069682652190236815, 0.005720967916558608, 0.005720907111591208, -0.08871986061345322, 0.027729040913845423, 0.021089231751612852, 0.026721098172396186, 0.0267210273240636, 0.3433464886885491, -0.01854189708209792, -0.018120552272550685, -0.015674087165584983, -0.01567422894534079, -0.04607185396299627, 0.007326697028217365, 0.005448668966040974, 0.008915550852369806, 0.008915389973163568, -0.0411089504129878, 0.01455811591279991, 0.015471726714058543, 0.013955741702386762, 0.0139558888949542, -0.009072733044607841, -0.012212831733883458, -0.015203171414930602, -0.013035775342290707, -0.01303589269822357, 0.08135653586495048]}, {"learning_rate": 0.01, "num_iter": 10000, "fit_intercept": true, "verbose": false, "weights": [-0.3720703085397065, -0.04635315822766166, -0.04635315822766166, -0.04635315822766166, -0.046353158228282274, 0.0, -0.009227656993542853, -0.008523130382887151, -0.008875509934898619, -0.008875752823521087, -0.07014126709786594, 0.005061377771871565, 0.00580801164808704, 0.0035602558018382165, 0.0035599761956168793, 0.061989247661971905, 0.005940018658983932, 0.008678176803367068, 0.006259613371322107, 0.006259595349928319, 0.23801548713449028, 0.010713184461180813, 0.014779658300210788, 0.012339439677978759, 0.012339510881181513, -0.11451709899873425, 0.039468496877833416, 0.03972758974074977, 0.04129545986591387, 0.041295432535061016, -0.1138643833104272, 0.024311405941642116, 0.024032217153741552, 0.028544733816624934, 0.02854461065198515, -0.08203998183463368, 9.417328049676796e-05, 0.004793955248676042, 0.0047808969224593595, 0.00478068184896082, -0.02265383111173881, -0.014619175305822104, -0.01755474792573698, -0.01230888774487823, -0.012308725765525805, 0.12972644986120116, -0.005854513072005054, -0.00513482809995782, -0.0027206571174319045, -0.002720513011490736, 0.03821033682397036, -0.005961808588130248, -0.003959137683505593, -0.0038714232394330495, -0.003871514850564426, 0.019957013500021676, -0.042701537872865986, -0.04341431842448892, -0.04160433319468728, -0.04160412145847092, 0.04808686177674836, -0.05599120261539053, -0.05599120261539053, -0.05599120261539053, -0.055991202615672656, 0.0, -0.010527338104033342, -0.010993375418865609, -0.01076048269397792, -0.010759885794132056, 0.03938513755295733, 0.0007157876004372604, -0.0008269361367755326, -0.0027618733448921827, -0.002761560267854908, 0.06669077946608448, 0.0062968379163603665, 0.00816924728639682, 0.0006222801649506594, 0.0006224347314230667, -0.1204206633308358, 0.007129183354038577, 0.006635628349421591, 0.009313237099690027, 0.009313142338446753, 0.40181945914465317, 0.03913357311729302, 0.03714973026899253, 0.03976649585003963, 0.039766356484909615, 0.21127292612302961, 0.023943012228144194, 0.024179067517759743, 0.02769946276118176, 0.027699291280048544, 0.15797780114257984, 0.0003866352961773423, 0.0006867879405937551, 0.004514439311495386, 0.004514186384796262, -0.014770515456964544, -0.016709201659702144, -0.018487614019133035, -0.012345904887669595, -0.012345734897326294, 0.061750546198384576, -0.006471722099429715, -0.0060093287960171615, -0.0027388927055429103, -0.002738724701359316, -0.0027271557934335383, -0.00628370341773365, -0.005098940856971267, -0.0038775980760485905, -0.003877682563000212, 0.013352980686827805, -0.04290640449406568, -0.04414419792000144, -0.04161134464862146, -0.04161113744376225, 0.049715390602851676, 0.009736136312264542, 0.009736136312264542, 0.009736136312264542, 0.009736136312264984, 0.0, -0.018577084927881828, -0.0067031539910671015, -0.015511359418800545, 0.04279635194288715, -0.014281919131776566, -0.0631399555822532, -0.11770864803011297, 0.1148140409257567, -0.0690876198443709, -0.10798595120181391, -0.06081109091080046, 0.2548613240440383, -0.004937692326696617, -0.20527992633475614, 0.19184571009295173, 0.011064229407366644, -0.13306619691099048, -0.0010283888240591487, -0.05460573567241959, -0.13795725298709366, -0.07240975207696905, -0.11892174856217629, -0.01849248888831981, -0.051531470393576466, 0.15934731347629966, 0.05142109453964491, -0.25668778694126915, -0.19783708771109432, -0.21547729562906306, 0.00784218883078174, 0.3298785913761992, 0.1984052804622588, -0.08497629384889202, -0.07951820485737023, -0.1733065562494682, 0.2917750197056885, -0.18453316215220253, 0.1476715650660322, 0.15058320566423603, 0.05118812146635003, 0.21955196347423256, 0.17830963867338098, -0.022231087179620596, -0.025457582128071452, 0.07618729134537118, 0.2693426554718816, 0.14763209793362386, -0.020199058534503662, -0.015765575565622844, -0.11829983671960599, 0.2716063200728291, 0.4440062546676075, -0.05237572946342229, -0.04973290067177917, -0.07554774152313, -0.0117631967336307, -0.0117631967336307, -0.0117631967336307, -0.011763196733631926, 0.0, -0.010459229584415836, 0.019422773317130784, 0.003491428987994724, 0.07779382000587348, -0.027359397879166115, -0.09563076548728645, 0.17567817297086316, -0.0831271258522182, -0.005417899778128104, 0.04280498121431821, -0.23022153110801447, 0.0005597753738983046, -0.05802736692215641, 0.03583751291707535, 0.22571322664443128, 0.2016599498856001, 0.3650660718740466, -0.10053962158103136, -0.05633193863492452, -0.06656057339376391, 0.10201241711052468, -0.008735206305124801, 0.03254858972960719, -0.016550791273996928, 0.21590467521765982, 0.11364757225186976, 0.26161678029062313, -0.2235679221756115, -0.25502586685428497, 0.15988274246053857, -0.08960918347616464, -0.1770771640093805, -0.06747091249936311, -0.08017854827348236, 0.06169912987679745, -0.4882466326941111, 0.1489832934768367, 0.1331715491226268, 0.1385084507515432, -0.3994190760138617, 0.17273002751359612, 0.08651792088453342, -0.01807226360384625, -0.02365893629347371, 0.1641368139859521, 0.26941960231961487, -0.085576253804058, -0.022132420024783037, -0.02440989604311471, 0.06160472178155462, 0.07554008040078021, -0.3126151578059079, -0.049683687017765606, -0.05041841606194334, -0.02945782479304323, -0.05118761719931235, -0.05118761719931235, -0.05118761719931235, -0.051187617199481665, 0.0, -0.009731794831981166, -0.009905412013177774, -0.00981868290369235, -0.009818644709163013, 0.011673287469087907, 0.0028843042479071526, 0.0012790641437636888, 0.0003970365113680907, 0.0003970653127001313, -0.049798755190022845, 0.005210015240064931, 0.006857293403379838, 0.003439024915713941, 0.0034391602069851457, -0.316711818711435, 0.008357547557498981, 0.011336782563414175, 0.010825306558398758, 0.010825392444132118, -0.23222704653029064, 0.03863245415983212, 0.04006161825266483, 0.04053045654719234, 0.040530424146920645, -0.20424966452670565, 0.024395023433987872, 0.02454010490087124, 0.02812180986788678, 0.028121688419019603, -0.042189972066185015, 0.000835811575499859, 0.0037530798591206924, 0.004647577205509432, 0.004647350585482993, -0.042199080040895155, -0.016525617386422328, -0.017917522513448195, -0.01232740895593131, -0.012327242688832991, 0.09867011635569338, -0.006187476998546943, -0.005688641907200152, -0.0027297811384524003, -0.002729625483333128, 0.02046701146843451, -0.006071977177691621, -0.004181411422313307, -0.003874512764714782, -0.0038746008668632563, 0.016693408669752118, -0.04278322469561999, -0.04362481776506691, -0.041607841311590725, -0.04160763202908816, 0.049174243942975045, 0.022308524020334227, 0.022308524020334227, 0.022308524020334227, -0.0631519841307999, 0.0, -0.01042937342849785, -0.020584199738917702, -0.01964671900291302, -0.021344521875149337, 0.008191675420000441, 0.07873575223340176, -0.09658711731603362, 0.21139577283245492, 0.042119876350469036, -0.11830183161921544, -0.15243818174137394, -0.2915901820222979, 0.06783973485354805, 0.0, 0.10196694604762802, 0.2996770433775573, 0.03488279441261764, 0.15168757986459333, 0.0, -0.46043919236700576, -0.11325008168607792, 0.11991797589023065, -0.1323444268498233, 0.0, 0.11035390244954273, -0.011164843919540498, 0.2773327342308829, 0.11148843300091359, 0.0, -0.09095766446413339, -0.15782338542963217, 0.12109366643742303, -0.16088407988212075, 0.0, 0.36406357252545424, 0.16380112001635008, -0.10856167220950477, 0.2318745239968989, 0.0, 0.16172430701788562, -0.311231389293433, -0.031741924489711276, -0.1210887587720773, 0.0, -0.16893057863780317, 0.21681678450472214, 0.16429227579863337, 0.06117000425806009, 0.0, -0.03231753711597713, -0.2984558322459086, -0.018150183858871058, -0.09026369307130634, 0.0, -0.07672862867570124, -0.10173479507696366, -0.10173479507696366, -0.10173479507696366, -0.10173479507780071, 0.0, -0.021787140927183223, -0.02453937260632949, -0.023166112343215063, -0.023165142864248364, 0.07718191882655942, 0.005204880559958784, 0.004814224510480557, -0.005867291008096228, -0.005867076144051468, -0.0016052056513999483, 0.004405119415540023, 0.010355832124692056, 0.002808397374885843, 0.0028083966447306737, 0.05577503837825645, 0.008408694973601494, 0.014326522547288058, 0.009463089139124366, 0.009463074127728878, -0.09198111326365901, 0.04231147711820162, 0.041210655308669644, 0.04065082652017494, 0.04065074132276883, 0.09320158000247672, 0.026901387238685986, 0.024708669405706003, 0.029104391309901737, 0.02910432304810093, -0.20211347201721896, 0.001566919456781637, 0.005035483582581148, 0.004718770023814094, 0.004718630308326886, -0.27996286605991383, -0.018393674198255886, -0.017374422554334037, -0.012556711187905323, -0.012556496824402815, -0.12852177447211308, -0.006717737898893858, -0.005187153378188291, -0.002696602999680518, -0.002696451952406521, -0.0768024752437991, -0.006285380001422174, -0.00429255051634397, -0.003818776848450529, -0.0038189540312479325, 0.09294713954828641, -0.04296483910319229, -0.04348493172467603, -0.04160597038422559, -0.04160577705714646, 0.04960745973578877, 0.03404943391411253, 0.03404943391411253, 0.03404943391411253, 0.0340494339139604, 0.0, 0.010681965213215617, 0.009136281381495644, 0.009910266411599878, 0.00991084921235913, 0.04559116805419422, 0.009807343152661034, 0.01601509438902965, 0.009092124222768073, 0.00909257109849558, 0.024745168459626512, 0.012854612277602403, 0.011185549826063401, 0.004470000993145764, 0.004469868351600757, -0.06997148844924021, 0.014383696195725609, 0.014841283825162295, 0.009807562687041638, 0.009807763821576497, -0.1802626451369232, 0.03830202756558921, 0.03986966540874204, 0.03941753863011587, 0.03941750298801555, 0.26898451358163805, 0.0269424877008037, 0.025000838290161066, 0.027524090671315775, 0.02752391285496393, 0.0770881395077324, 0.0026791160905594094, -0.002431612299361723, 0.004232852410905373, 0.004232531074253104, 0.19190364961460965, -0.0163983732003893, -0.01914545149548966, -0.012453425760518905, -0.012453129437781202, -0.11495564855389606, -0.006566575878112508, -0.0061023445028881565, -0.002678310021796586, -0.0026780822605630547, -0.14203736732154387, -0.005995654158846376, -0.005842210795161871, -0.0038156280870212055, -0.0038156916618795455, -0.019569829659844527, -0.04284082185814132, -0.044001168923984035, -0.041606180745560745, -0.041605976384071514, 0.05020338353114565]}, {"learning_rate": 0.01, "num_iter": 10000, "fit_intercept": true, "verbose": false, "weights": [-0.9016560064646254, -0.056798486020364934, -0.056798486020364934, -0.056798486020364934, -0.05679848602088286, 0.0, -0.0009335007161980869, -0.001403182497926308, -0.0011683268734676436, -0.0011687650948130214, 0.04943124532825602, 0.006504050348626224, 0.007279342898130464, 0.006809510050723642, 0.006809626989698271, 0.12336515927846853, 0.0029346488294451326, -0.0002983434688126391, 0.00460611806800301, 0.004606249250716733, 0.1851734289323252, 0.023018195454133132, 0.015855399961540145, 0.020372165016883038, 0.0203722251430514, -0.0530934229371432, -0.01901035882778084, -0.019052053966601732, -0.017634141649854756, -0.017634113434243186, -0.19336068806455337, 0.05814827613048486, 0.05930251761338334, 0.05697388735072243, 0.05697410980203702, 0.03655387761714088, -0.033573883822111766, -0.021109330481709782, -0.03027608888173326, -0.030276689025907657, -0.13749126305223058, 0.014291470949342418, 0.01141464055848155, 0.011254509474835462, 0.011254467703780007, 0.21013310896610934, 0.007052076945212866, 0.002432247252200601, 0.00933654874529536, 0.009336652147259636, 0.08523506235142354, 0.00940180467627367, 0.01582084503558329, 0.017891914554225865, 0.01789201724401384, 0.07622372160752913, -0.032396927282433166, -0.03197108629949691, -0.030618707659062376, -0.030618307007818056, -0.03752209641959391, -0.04341060881957715, -0.04341060881957715, -0.04341060881957715, -0.043410608819224865, 0.0, 0.005605149357434274, 0.004799775953350758, 0.005202550636463382, 0.005202594521401111, 0.08500222525168384, 0.010910235834919263, 0.007301818162858576, 0.008912066936297704, 0.008912218284765752, 0.08641982718618818, 0.011629681831036045, 0.005949584948964012, 0.007012482748837845, 0.007012708487460772, 0.03659465608711053, 0.02539672938923289, 0.020503496914438823, 0.020582899177383897, 0.020582716003583048, 0.17701190529639557, -0.02091797208618034, -0.022733350891945805, -0.01844017988212928, -0.018440366538586557, 0.4413194716504128, 0.056157369054575475, 0.056169992631245176, 0.05616428544841844, 0.05616451212374673, 0.017783112265458992, -0.03214937899553655, -0.028379270859423916, -0.03053666614583587, -0.030537213213762196, -0.29753008909610473, 0.011635989341166206, 0.009069552656443335, 0.01117694132849704, 0.011176970774008485, 0.050795463174055824, 0.007498387447545257, 0.0005624915945854459, 0.00929700718635075, 0.009297175965251056, 0.020322095471840624, 0.009192350696529373, 0.015159759348382151, 0.017868880910587474, 0.017869005916860244, 0.05291676303723952, -0.03262151204176281, -0.03228076840643627, -0.030625157875332914, -0.03062474924260056, -0.04364028620917545, 0.001843169049238628, 0.001843169049238628, 0.001843169049238628, 0.0018431690492360583, 0.0, -0.0021143994759742473, 0.0254911430969746, 0.01227621487834637, -0.008112881221561355, -0.023006607172587356, 0.05220398188687665, -0.0690610025538202, -0.0022979871449611325, 0.03799141255658022, -0.025653076814639807, -0.003395595196582311, -0.09256877671878679, 0.03565039088087723, 0.15913676207922606, -0.2367132895098165, -0.21359919681381956, 0.12342889635712015, -0.09491892915757416, -0.10857146562649407, 0.2594702421922738, 0.34421798376817425, -0.31122601139660444, 0.00032218019763518267, -0.0579115622877313, -0.03513642722013668, 0.0889526757778561, 0.2966952471187832, -0.17618334284651546, -0.15441391376408992, -0.22370879975279262, 0.530749406037029, 0.46733411456862717, -0.13433046802435708, -0.13550632724898784, 0.19249762326453038, -0.16155096550070897, -0.15385180343049984, 0.12378002195133793, 0.11073472561001065, 0.43723976652912755, 0.12098950151752311, 0.061067592857959645, -0.09234923736737502, -0.10923992385505199, 0.33536061521195987, 0.13653672650714777, 0.6305611111550302, -0.02396318568533689, -0.022180639129428498, -0.0996996619155844, 0.11065197046636872, 0.26901448175451487, -0.06454380561968426, -0.0639970521496193, -0.07979285878849325, -0.004212538129229486, -0.004212538129229486, -0.004212538129229486, -0.004212538129229818, 0.0, 0.05260523248638974, -0.0903879012436407, -0.013789999725306685, 0.04405829113871791, 0.13188140368592738, -0.2521625513515034, -0.10852727093745221, 0.06201719649029621, 0.09885493837169099, -0.07356880639584727, 0.13630752677021982, -0.19522343532460193, 0.07567392604838645, 0.07435881214205071, 0.07925016571260787, 0.5073583063438661, 0.58251986061704, -0.13239893325131796, -0.2122621694085786, 0.0500750465233896, 0.08850540080060099, -0.29089899837359295, 0.11977155986448398, 0.0369873815187617, -0.055737414988338035, 0.15203284981488346, 0.12455830902849543, -0.22451327079512728, -0.23518081611643554, -0.5870071448917812, 0.06743176417094492, -0.5270536943725062, -0.08765240295970848, -0.09445305703651558, -0.18644924963892354, -0.5621201346546719, 0.2742251026827142, 0.10925101932980451, 0.1279046214385682, -0.798053955841503, 0.4130697331520205, -0.12624903507635665, -0.07510329717731139, -0.07662249004270485, -0.03923071257948433, -0.10381659352437801, 0.04628019189570163, -0.0217855294769633, -0.02108767999833193, -0.024060304889014627, 0.042358798579920344, -0.15324447431790103, -0.058036741353555854, -0.05655999100314442, -0.10847261663750413, -0.05011258270960463, -0.05011258270960463, -0.05011258270960463, -0.05011258270938788, 0.0, 0.0013397335527639404, 0.0026987935191607137, 0.0020192635638491135, 0.0020192394408957565, -0.1603705378670666, 0.008439641568025857, 0.008496847447617816, 0.007861507316027586, 0.007861662852588614, -0.05013502614759095, 0.0068217402403986625, 0.0029265161393554275, 0.005810122111310242, 0.005810265181465299, -0.07544801908976652, 0.022420518493890658, 0.018868514854166858, 0.020477604949316, 0.0204775897532041, -0.2277946112232651, -0.02210560036300375, -0.01928662211127492, -0.018037436041218387, -0.018037462337856705, -0.13497834524505217, 0.05536875007153334, 0.059792483845571794, 0.05656881029025354, 0.056569063857866024, -0.057557148265630714, -0.03351039385253152, -0.022781567905889095, -0.030406466447046636, -0.030407036475067116, -0.25049769717224857, 0.012068885685825698, 0.010506011598873141, 0.01121569896565202, 0.011215694844333495, 0.1333067672907923, 0.007571304943061103, 0.0019409963323643268, 0.009316764495174712, 0.00931690233036139, 0.056523751558889605, 0.009346986905735976, 0.01550642891379023, 0.017880389877398636, 0.01788050453810096, 0.0635960568345708, -0.03241658429248288, -0.03209566275972728, -0.030621934965681472, -0.030621530276036025, -0.04056931186074435, 0.006233198031018605, 0.006233198031018605, 0.006233198031018605, 0.008319804883625402, 0.0, -0.005925222675077262, 0.04880866905906311, 0.026748575396364337, -0.11310842911765587, -0.04556621672919446, -0.0183691068226384, -0.12374601631691755, -0.07165820985447814, 0.026316224494087135, -0.06583856602557088, 0.18488491482450406, 0.05619661089382112, -0.043168536565917466, 0.0, -0.33604632188385286, -0.08892770894690354, -0.03541030970415225, 0.05929393082441777, 0.0, 0.0909620923721092, 0.01017561137845492, -0.14158697775119597, -0.29765733118794024, 0.0, -0.5076617975791364, -0.08067894006373201, 0.023979598358071685, 0.21468609776338876, 0.0, 0.3303795884762751, -0.02445210378435019, 0.35268158324460874, -0.39505209193035085, 0.0, 0.3372277584429207, 0.30365892774963116, -0.1974926989029352, 0.22592957529558358, 0.0, 0.5992882465918982, -0.49517709009906524, 0.22939866806846002, -0.46874771334121607, 0.0, 0.33768333785743254, 0.36338560994707186, 0.339451158338057, -0.024285823075791874, 0.0, 0.07642980120760659, 0.2199175235375676, 0.20087174841416716, -0.65244024210792, 0.0, -0.16556395871249677, -0.1132831995309651, -0.1132831995309651, -0.1132831995309651, -0.11328319953126949, 0.0, -0.015948510403242473, -0.02026700024737492, -0.01810967476716274, -0.01811100455261514, 0.123121656776498, -0.007676870423904938, -0.009806749687320768, -0.005922192370060546, -0.005920834674100928, -0.1562316685178868, -0.008498596524402654, -0.005427158052744257, -0.0015326655706605014, -0.0015319933386731344, -0.12226334340267046, 0.017964629576485685, 0.015877217744359493, 0.016679094201078593, 0.016679078742694455, -0.01119289177076301, -0.0138069106467432, -0.019610362621154682, -0.017802928210289868, -0.017802929005193126, 0.09108062164909889, 0.05734913276185286, 0.06049784436963664, 0.058279023255580445, 0.05827923348442785, -0.2539998667444612, -0.0322413679625265, -0.022809323531238945, -0.029876418572670295, -0.029877117104584915, -0.07621913029948475, 0.009931859476061119, 0.012009582020307075, 0.011429486688175608, 0.011429340730824982, 0.2003790827466057, 0.004907192269941816, 0.003628063864937583, 0.009468357871813542, 0.00946837123264325, 0.016778113298954813, 0.010826917009307331, 0.015514348552249436, 0.01795461648389274, 0.0179546979384319, 0.12217611885209953, -0.03223043946576535, -0.03212104545386569, -0.030603982764277837, -0.030603575872654262, -0.049479500833012724, -0.034495253162908406, -0.034495253162908406, -0.034495253162908406, -0.034495253162555785, 0.0, 0.01784233217136397, 0.019633734339080177, 0.018740777351204354, 0.018740122147681507, -0.057886962562509345, -0.001399149856253208, 0.0027961765702273723, 0.009680513352093545, 0.009680569846825863, -0.08692921904024886, 0.008615029603042178, -0.0017636261127593647, 0.009263597264334018, 0.009263626274728569, -0.0034601469741175066, 0.026576607753632846, 0.0033042756827216177, 0.022342488715642705, 0.022342097373848714, 0.3877579304339622, -0.019067143622455617, -0.029695826336457024, -0.018588181987841852, -0.01858840350335379, -0.19240213631282008, 0.05533490829039003, 0.04551614655676171, 0.055826702386144254, 0.05582675836833018, -0.20723827501052788, -0.03215151542836644, -0.036649014700470176, -0.03059665670300579, -0.03059744309018008, 0.5224280761465863, 0.011883340066906715, 0.0073974803594772515, 0.01141690709835516, 0.011417123751969443, -0.34688750124625994, 0.00670806559579768, 0.001441426461266623, 0.009515929354350541, 0.009516262876288374, -0.2881447596394303, 0.009911677048205678, 0.013862516990683945, 0.017908129690781496, 0.0179082607629822, 0.043687988246673116, -0.032860231664192024, -0.03324042017350333, -0.030633933176773438, -0.030633522361681487, -0.04142660520213258]}, {"learning_rate": 0.01, "num_iter": 10000, "fit_intercept": true, "verbose": false, "weights": [-0.6822748711307953, 0.007916500981906277, 0.007916500981906277, 0.007916500981906277, 0.007916500982337463, 0.0, -0.014700745955939525, -0.013074308942333801, -0.0138877169597587, -0.013888196304803332, -0.1644722403772948, 0.005830320819972365, 0.001814522719530058, 0.0056510788605958215, 0.005650912450723709, 0.09049716421420484, 0.00982493854474146, 0.007265398602354414, 0.012605631111688007, 0.012605621016433128, -0.006614687979209984, 0.01729340621931272, 0.00932702729465709, 0.0171219943697269, 0.017121849588638143, 0.09912052486954043, 0.02440108138842343, 0.018550319328756615, 0.01832815058464688, 0.018328177503807757, 0.36499660027458575, -0.011936445717669827, -0.013281371262003806, -0.016311451814874426, -0.01631095860610821, -0.07781566688844874, -0.09724040593775544, -0.08596898214201366, -0.09252572037646359, -0.09252608227595059, -0.19200012619703355, 0.00418753636514401, 0.002113346329806346, 0.009561763454993762, 0.009561673147594185, 0.22560971230485793, 0.0025117018462096903, -0.0023839139056992128, 0.003568892152838374, 0.0035692649596514984, 0.07295046574139287, 0.048381336982690405, 0.05488341146118836, 0.05938262093110839, 0.059382106012567014, -0.001716925142066133, -0.06647372396958594, -0.06463778324164891, -0.06458006743316598, -0.06458007624436196, 0.09578127747676267, -0.07761189603226164, -0.07761189603226164, -0.07761189603226164, -0.07761189603222833, 0.0, -0.029477677587631125, -0.02981834058420795, -0.029648387317992974, -0.029648386404796178, 0.030539416493250884, -0.0007060199781870283, -0.0009063766852252424, -0.00165072513796044, -0.001650705597291649, -0.010513458012443579, 0.0024469535698991287, 0.005071772830642632, 0.00791361218848345, 0.007913630077441116, 0.2070175171864651, 0.013553244172435957, 0.009956572290298372, 0.013826951490881974, 0.013826942638534925, -0.08229941178376803, 0.02468263171389088, 0.01845677425889796, 0.016847165764555944, 0.016847276172633298, -0.17454312288633594, -0.010464735018439768, -0.017701793123493313, -0.017175298336121473, -0.01717492079750266, 0.1798719571241757, -0.0958556657991645, -0.08904431033215918, -0.09255550217796153, -0.09255589171256536, -0.22661533955824742, -0.0011916819966038064, 0.0030503476191098733, 0.009648823819616141, 0.009648798857983655, 0.07567900432077126, 0.0023965043454669687, 0.00039871786509872127, 0.003599243415145581, 0.0035996848283809156, 0.018207791899813808, 0.049063925134819, 0.05645608908152358, 0.059359660151798097, 0.05935918807160136, -0.03745002337649747, -0.06658732800193255, -0.06342588967167062, -0.06458450818886691, -0.06458451863522605, 0.09200793964264883, 0.026564850624000384, 0.026564850624000384, 0.026564850624000384, 0.026564850623999887, 0.0, -0.01556356203292117, -0.046614884206168127, -0.03462003253872972, 0.04950730753452791, 0.02348221807137572, -0.004773396958299678, -0.030096778457128524, -0.03388299949353989, -0.007804957920585344, -0.04784552684387463, 0.1565206793970537, 0.10955117140599659, -0.018346869579652928, -0.04600963486045498, 0.10140959210630612, -0.033951022515338, -0.2355006073807838, 0.010720152290440725, 0.03709461886018384, 0.17163393334876, -0.4704768521884421, 0.7127594112107565, -0.17292627613590153, -0.15322353050649612, 0.16020643748875255, -0.3468863368173693, 0.2442299179472292, 0.045774865277521046, 0.0759370472774476, -0.14084420354268873, 0.7687128845083319, 0.09513933226028524, 0.12339111637209489, 0.12034274497214092, 0.33795998324704707, 0.3289722076796095, -0.2415883945568713, 0.11652252060647696, 0.09890031998774668, 0.5780648295791824, 0.09451581989568188, 0.24168159732057024, -0.07472070776425117, -0.07863983345575445, -0.18952938433367314, 0.1211474751970817, -0.06993501049214644, -0.016375446065201183, -0.010550054080482874, -0.25127895225980507, 0.2617443837164882, 0.40277824194609835, -0.10778412211642624, -0.1027147307678715, -0.24493634810369244, -0.008868631359395689, -0.008868631359395689, -0.008868631359395689, -0.00886863135939592, 0.0, -0.002202446876827695, 0.03323385616369264, 0.015965314353098756, 0.03438864841108588, -0.030280626185209707, 0.17675758354207005, -0.10877552801828562, -0.006728954409388991, 0.0028578383087287176, -0.12523836752348338, 0.007181139822631027, -0.14124699520278358, 0.009861398639733591, -0.03929377924484156, -0.13974949416929122, -0.11435602182849047, -0.44977542730027376, 0.12888201775424002, 0.07146861911310341, 0.021306906966686717, 0.09685970122477082, 0.14619742392350107, -0.1783089739886322, -0.17472798767353842, -0.6815670470204483, 0.4552746228445671, -0.10294964335274875, -0.03910413091757138, -0.03457614870723037, -0.12409708926550467, 0.4681384059409896, -0.07477429414458622, 0.1735287881091546, 0.18785984414185886, -0.15299307449330066, -1.006567557960813, 0.06286621935271422, 0.10335493140001939, 0.11790155452964926, -0.6358789604021272, 0.3738393046993208, 0.22559929203500753, -0.06764642115913563, -0.07298012237032772, 0.10386003299805115, 0.6177368293763847, -0.44523315729024604, -0.010303683255798703, -0.010514412584680145, 0.079425016008016, 0.06084408717880869, 0.06002640885774421, -0.10548975828249188, -0.10564196396679354, -0.07947120920862101, -0.0348933346784926, -0.0348933346784926, -0.0348933346784926, -0.03489333467811227, 0.0, -0.02113596103402558, -0.022410946357773992, -0.021773565799496623, -0.02177346044625106, 0.15820932312637645, 0.0023211743721732727, -0.00025340149569168274, 0.0019976843689603536, 0.0019977654837917682, -0.1467891934782076, 0.004905660575038926, 0.006017454267103296, 0.01025802199694157, 0.010258102694034437, -0.06330025162814418, 0.013959496216701632, 0.009539345484299284, 0.01547334885790848, 0.015473327867472565, -0.24228196317759407, 0.02301714770134543, 0.01865321561208142, 0.017587152906367337, 0.017587256571579557, -0.0033472401841033402, -0.012314833700024959, -0.014845809361021608, -0.01674366988986942, -0.01674320928198083, -9.243982625437284e-05, -0.09784157484692978, -0.08736238081706879, -0.09254062148203415, -0.09254100073438747, -0.22462928240881996, 5.948710594220787e-05, 0.001999032065753947, 0.009605323396673566, 0.009605263521333134, 0.15616257354520374, 0.002377332696029674, -0.0011976048665309023, 0.0035840781374644726, 0.003584484558197126, 0.052368684470419855, 0.04891236394593612, 0.05511788169462646, 0.059371132703341045, 0.059370639251428145, -0.020622520561392504, -0.06635762438762334, -0.06426287830245493, -0.06458228932317021, -0.06458229924983107, 0.09416024139326194, 0.036574818021803054, 0.036574818021803054, 0.036574818021803054, -0.11747914254537611, 0.0, -0.06484522805781322, -0.021096922210393082, -0.0530474324047602, 0.05423285486325652, -0.03815015244805065, 0.07091185518999522, -0.11400819427110395, -0.027467868184895914, -0.01714624619546406, -0.00984760620471424, -0.08592829446102375, -0.0676050678684552, -0.029728810268789492, 0.0, -0.09433343463673782, -0.1106926349334669, 0.17373469064546393, -0.17985727421597045, 0.0, -0.35448312376532815, 0.18213681068358556, -0.3910365412675833, 0.012658507582669185, 0.0, 0.24156800473200118, -0.16350472727923637, 0.23180806573969537, 0.4058855342399167, 0.0, 0.40146872537980827, -0.31148862877038264, 0.14555638824095463, -0.4147287152971932, 0.0, 0.20074340846295355, 0.27090846790453454, -0.22426012908943246, 0.20355182540571415, 0.0, 0.3280254198117928, -0.17227442806173188, -0.06289587817655491, -0.17767719129119788, 0.0, -0.05877954694925607, 0.2652645317188774, 0.8704054588313203, -0.4316935479830633, 0.0, -0.06573514186922642, 0.32631173277910813, 0.43094959436719676, -0.036495504842802666, 0.0, -0.24862559366656195, -0.055999907365580415, -0.055999907365580415, -0.055999907365580415, -0.05599990736508728, 0.0, -0.032996675102536864, -0.03413779357277656, -0.03357250300098618, -0.03357199785041629, 0.031305062318980635, 0.0068850219504957705, -0.002662125391436124, 0.000523654095811869, 0.0005240604732985393, -0.004987695434877478, 0.011192378107724138, 0.007060015699945213, 0.012607245358373495, 0.01260691313746347, -0.014620219079096265, 0.014038423472514428, 0.006199978734838157, 0.018428611389767213, 0.018428441982895224, 0.04873346466145328, 0.022628938392581725, 0.01741722656264735, 0.020677081536166177, 0.020676854226365483, -0.09205436694378376, -0.008233317977731452, -0.01512276350069744, -0.01424169113530316, -0.014241464275945437, -0.09916720595294248, -0.09930953633687672, -0.08925264180609933, -0.09178216634578247, -0.091782457317626, -0.13738076683193412, 0.0012771132716079615, 0.002948559289592459, 0.009406848222050405, 0.009406925163955521, -0.03358909206048491, 0.00360726964228277, -0.0023757618027673982, 0.0036612617847774733, 0.0036615722274761183, -0.0658317109167292, 0.04990475945821258, 0.05347913349028349, 0.059493493696449615, 0.059492988793187984, 0.06636744571196514, -0.06580898686464923, -0.06529481732044952, -0.0645815017773248, -0.06458145306458933, 0.0649970240296727, -0.09778264295219309, -0.09778264295219309, -0.09778264295219309, -0.09778264295197195, 0.0, -0.03222247017667888, -0.025982059162490266, -0.029105676497988793, -0.029104579946371167, -0.1896771187978741, -0.004647376405658324, -0.011819984275482379, -0.007166747206852694, -0.007166634806438661, 0.0372244436020014, 0.007442903914368007, -0.004623864044681782, 0.004981090921283214, 0.004982015918642603, 0.0441400719698639, 0.012526532496416751, 0.005270834702243736, 0.011570482777377093, 0.011570264238700828, 0.01779590829246532, 0.021031551870724845, 0.017342359572381866, 0.01603842085893012, 0.016038575984430734, -0.13891688210976805, -0.010006926998571919, -0.023105473965722913, -0.016327214647698474, -0.01632696858157416, -0.19287041390791557, -0.09669659970378468, -0.09808086947047744, -0.09212887090831247, -0.09212945300592594, 0.37469834159668897, -0.0011307879357719487, -0.002686681683846596, 0.010176301217878278, 0.010176430427681255, -0.15267445635422353, 0.0017854679446755223, -0.0006239462912593043, 0.00383468573362295, 0.0038351329434928383, -0.12167803306494256, 0.05008563811547328, 0.05191533022330263, 0.05940926051865126, 0.05940881200774485, 0.026178965924249772, -0.06653159276055019, -0.06555650730097476, -0.06456132726564442, -0.06456135595068906, 0.10299424326359322]}, {"learning_rate": 0.01, "num_iter": 10000, "fit_intercept": true, "verbose": false, "weights": [-0.20098322516436362, -0.022903769228696903, -0.022903769228696903, -0.022903769228696903, -0.02290376922881615, 0.0, 0.0022386467022978474, 0.002886246606536452, 0.0025624685027222315, 0.002562543423054856, -0.06893872813751932, 0.009989140247761019, 0.01004492688451077, 0.008528670354370242, 0.00852888993310773, -0.11905346249239564, -0.014308358712221754, -0.015843838296539646, -0.019295189919980076, -0.01929503721600389, -0.00693339281708221, 0.005319246044504506, 0.00995436646358104, 0.00366998356487904, 0.0036701402356436852, -0.037506432959146276, 0.025779863958409067, 0.02507860942507684, 0.02429862120761695, 0.02429860699184796, 0.06704896190395046, -0.008239185822932815, -0.005160105280171059, -0.009989534521892782, -0.00998947011289895, -0.0752267589674601, 0.03929976470047981, 0.035522428091353704, 0.036900247035719626, 0.03690060671425883, -0.1239774116965315, 0.01944423632668934, 0.02181990566788954, 0.01985766376369457, 0.019857418310149026, -0.120673547854174, 0.026089693465047147, 0.028756293259529747, 0.02573856246631263, 0.02573851159291351, -0.05298391304156585, -0.009923147599552673, -0.013083035897364282, -0.014365759424012156, -0.01436515409448073, 0.038268481831207464, 0.03139146383383854, 0.027836964246873194, 0.029003407731286856, 0.029003272270174088, -0.012075486941727531, 0.07451952397451687, 0.07451952397451687, 0.07451952397451687, 0.07451952397437796, 0.0, 0.009632056017907991, 0.00946387669989212, 0.009548085663767563, 0.009547904111670507, 0.015318310141616933, 0.008595508919821835, 0.006451039724044256, 0.009649891422535683, 0.009649696709010565, 0.05356420499372228, -0.01969749007593344, -0.022307831181791946, -0.01860273453814145, -0.01860279353142469, 0.027567079610822963, 0.0027630641313008113, 0.0022617125152172564, 0.004149031891146949, 0.00414918677154782, -0.021714803555125888, 0.020290496446505865, 0.02224923492144863, 0.024611101813979356, 0.024611168316038393, -0.08449883869488153, -0.010779353992959671, -0.011226586456958388, -0.009478245683585332, -0.009478220749090615, 0.035104729037218466, 0.041491255279861305, 0.03546137567277972, 0.03712849424932309, 0.03712881222386556, 0.05861825351018015, 0.02096226108749288, 0.019764259210318064, 0.019965806382883606, 0.019965538519642407, -0.026607224549610255, 0.025174202213881926, 0.027172710923606, 0.025761042700396274, 0.02576097420052799, -0.017996390337837866, -0.010639231664280139, -0.013745308283306782, -0.014353673588538549, -0.014353061534549261, 0.03959331231234779, 0.03103001090551402, 0.02793503454493606, 0.029009680182804014, 0.02900954977285591, -0.00900633696393058, 0.02965767702999132, 0.02965767702999132, 0.02965767702999132, 0.029657677029991874, 0.0, 0.002632164826129269, -0.04058335196351026, -0.01986234131327862, 0.10533749538072082, 0.038408750390161873, 0.05476784375884852, 0.06351066210702581, -0.09810595999644119, -0.005676297304972042, 0.026878635628032322, -0.033627461683336565, 0.12180726279465584, -0.05804171521804396, 0.03572776379966378, 0.11049048633523383, 0.09047228345640336, -0.013043917553752952, 0.05204373523532832, 0.045356597504898996, 0.049909769706198356, 0.08387102422981013, 0.029612395732072073, -0.027986281492882164, -0.025384013460182375, -0.18512130228152268, -0.13401262885061227, -0.05409688392338254, 0.009298064821415679, -0.011919498925905546, 0.18564274686410429, -0.4822794951860836, -0.15355003818424914, -0.12041367323723816, -0.13339178876716268, 0.10467801785092642, -0.14911839045704478, 0.19781008410717532, -0.04512541776176252, -0.04791116597325829, 0.07818471224619492, -0.16567351548921017, -0.012877761192662504, 0.040273314774756375, 0.048154139999144335, -0.22449064634806257, -0.08769050290732903, -0.13506466853085286, 0.016477780721145394, 0.017551241882690808, -0.05390135961569132, -0.2070301143451744, 0.03572266917338165, 0.031999939281780646, 0.033428463810527186, -0.04050217629023344, 0.0046823078701564306, 0.0046823078701564306, 0.0046823078701564306, 0.004682307870157886, 0.0, -0.03012719317289604, -0.0139980662180886, -0.026595018847625208, 0.06339984733203029, -0.01930551884025906, 0.2264184176768575, -0.07771361106202122, -0.16103668321821432, -0.10263586994125654, -0.04261368708165011, -0.09052012767999769, -0.06638182374836832, -0.04224148174646718, 0.038650877975927166, -0.021010577737430248, 0.06815766485884793, 0.19416948802772374, -0.03670288180105282, 0.03015686623663488, -0.14520328936127355, -0.15386079790258442, -0.055501637022277256, -0.023260333438417057, -0.006063736295411162, 0.06970897346095327, 0.08343164052053052, 0.13812516811449205, 0.03852543889356086, 0.040064746523581565, 0.037917054363319644, -0.1600413933216062, 0.28751589535802613, -0.15266583544900428, -0.16311613800815059, 0.35185897598802, 0.17781546068731327, -0.1845022328018605, -0.04860161985506113, -0.05128220475142704, 0.1864686599983092, -0.3922495536475696, -0.1686655324009055, 0.045507806365751316, 0.050556842690033084, -0.06009878683672744, 0.07743923548772305, 0.11528917471674548, 0.014185170831706664, 0.014827758363044076, -0.050187650503584286, 0.007053746800103025, 0.023171156085494197, 0.0314799674823507, 0.03333654638456496, -0.041761385149035095, 0.025849453816594228, 0.025849453816594228, 0.025849453816594228, 0.02584945381672719, 0.0, 0.006060197409123375, 0.006055056487832632, 0.006057681488640624, 0.00605765234371988, -0.0006814996999839549, 0.009593452473124108, 0.007971020572936074, 0.009089671277949673, 0.009089734774334054, 0.060209726273012604, -0.016042155481912634, -0.018758152479839772, -0.018948729461814112, -0.01894866832528192, 0.05305653789590012, 0.004240874491245962, 0.005980634598651047, 0.003909671032172867, 0.00390983361453652, -0.01199452153950996, 0.022775134580612873, 0.023226061824680948, 0.024454968266317427, 0.02445499456513153, -0.023980978181582, -0.00910594287896006, -0.007478466737075415, -0.009733715687909754, -0.009733679885291316, 0.006570462011715641, 0.04137915938962088, 0.03555506835060436, 0.03701444852562035, 0.03701478447666563, -0.025768670916531528, 0.020424768614437743, 0.02134738057040586, 0.019911771957677463, 0.019911513692162094, -0.07584713979413577, 0.025524594855952962, 0.028191434861265047, 0.025749810244320256, 0.02574975009784194, -0.03815874664387991, -0.010279305396469115, -0.013342936549511972, -0.014359712387465645, -0.014359103638104949, 0.039478532035276195, 0.031263237300267054, 0.027675362561489628, 0.029006546093836096, 0.029006413097507445, -0.010617703551556276, 0.025736621604891458, 0.025736621604891458, 0.025736621604891458, -0.2622420163682628, 0.0, 0.038841864664149434, -0.028335934180520363, 0.006918662673522634, 0.018849444275222536, 0.0560984042051717, -0.07544678207678747, 0.0684882157573957, 0.06909006862142691, -0.04320742461394826, -0.1648345333483673, -0.07334647406338886, -0.20206933241813615, -0.01636656731201272, 0.0, 0.0074585850311057736, 0.09648454687877324, -0.18973708018668356, 0.1306738022824472, 0.0, -0.1804068785761997, -0.2039492467718541, 0.036049103660004425, -0.01426252053917174, 0.0, 0.14025492928605351, 0.18534736164486149, 0.09557970598069311, -0.14446119153172368, 0.0, -0.15660000382461461, 0.1707719929260909, -0.063280821643216, 0.2746265037395225, 0.0, -0.13322533825670876, -0.1343935617123558, -0.07262485864746335, 0.054035717583477916, 0.0, -0.2577105172117028, 0.01575504924739314, -0.014843299581032832, -0.13798823498862364, 0.0, -0.18857942946465273, -0.24683699492996716, -0.3427616296490257, 0.09794288988434167, 0.0, -0.05669139924587178, 0.05002254732689675, -0.11269518230114374, 0.0248449126460966, 0.0, -0.03219354187210357, -0.039313671412580756, -0.039313671412580756, -0.039313671412580756, -0.039313671412661455, 0.0, 0.02013753136538409, 0.02094676304705895, 0.02054508664942526, 0.02054575792739651, -0.023706012511274948, 0.00726053266553315, 0.006816605727161904, 0.004031689990358618, 0.00403213597498228, 0.015322998548380979, -0.024012107606951674, -0.015064215673187567, -0.01839809304996187, -0.01839841006251061, -0.043897781969694044, 0.009261903411287877, 0.010766494294248469, 0.004388403941111056, 0.004388404875023738, 0.03985002438408428, 0.01965152873334181, 0.026462605136446316, 0.02488191420592703, 0.024881760732082446, 0.15708590097465353, -0.013734595193513515, -0.004357754834256522, -0.010668566590782145, -0.010668489820763861, -0.18877882814148325, 0.04270532094451462, 0.03685106517568809, 0.03641522143594114, 0.03641544894481922, 0.11682646230802315, 0.02340441503604118, 0.02262067685686259, 0.019634041858872926, 0.01963380884179436, -0.02371917899726172, 0.02557635295272551, 0.029137768063742377, 0.02565839228148528, 0.025658403335413305, 0.016798544619531147, -0.010192120927529231, -0.012443425002291427, -0.014391956588144758, -0.01439135574327861, -0.005486876517905238, 0.031160369225085437, 0.027969105087571305, 0.029008951409712495, 0.029008819166252125, -0.003957652989295996, 0.09790729939804899, 0.09790729939804899, 0.09790729939804899, 0.09790729939785048, 0.0, 0.007257454645202578, 0.00668015942426605, 0.006969643586705464, 0.006967617886708503, 0.01708733985472974, 0.0031609672516673256, 0.007452966785476102, 0.004394286066007797, 0.004393171825365771, 0.15545696791586763, -0.021833330305090538, 0.0011275626294811767, -0.022916517129544445, -0.022916587867041843, -0.2493028375255731, 0.005596701676841008, 0.006980649388700814, 0.0021238453846890116, 0.002123652060277357, 0.22407635131111556, 0.02438006960679465, 0.0260521400417016, 0.023778618998885115, 0.02377878563526173, -0.0567241999149861, -0.008148617014422746, -0.001239260182614407, -0.009523167991725348, -0.009523101414812813, 0.07919883110667486, 0.04272632159969406, 0.040674183641256474, 0.03716043713157427, 0.037160678214202894, 0.08033614210017961, 0.02224135270193159, 0.02514286565818395, 0.020026973792472747, 0.020026674545969438, 0.12073027048129208, 0.025643567450350367, 0.027417023180077365, 0.0257570097109883, 0.0257568819465904, 0.08363032398139446, -0.010946677089011212, -0.01235829016020056, -0.014396133682285555, -0.014395532248125788, 0.01440687132302423, 0.030733784035070207, 0.027710466634667454, 0.028995495243494533, 0.028995368143897037, -0.0036210879001963014]}, {"learning_rate": 0.01, "num_iter": 10000, "fit_intercept": true, "verbose": false, "weights": [-0.43700517515709375, 0.05060078837888028, 0.05060078837888028, 0.05060078837888028, 0.05060078837949115, 0.0, 0.015610460086659513, 0.015037669980388272, 0.015324242607232762, 0.015324456418651386, 0.057875671956121005, 0.002462388471898897, 0.00352021702829534, 0.00118541779718627, 0.0011855118432727376, 0.05105028885108299, -0.0036437868635718898, -0.00477163810403272, -0.0051685788584112085, -0.005168561003184539, 0.11271743174918321, -0.02846832053525627, -0.03245805880114326, -0.03429283840719255, -0.03429283310567808, 0.18513769715597034, -0.028628265391269735, -0.03536128867461093, -0.03668401936381332, -0.03668416095569416, 0.31079121251666564, 0.04346757189707517, 0.04010318807506004, 0.04034600688677859, 0.040346144521436644, -0.12771020457470303, -0.009726180899616934, -0.015858185396227173, -0.012831085383196331, -0.012830385211172975, -0.09852359500034068, 0.06746980650812873, 0.06689912168629898, 0.0690235820566646, 0.06902395328088158, -0.07148610420547802, 0.011830793937085048, 0.013923941920191816, 0.012398991282393029, 0.012398968199536365, -0.01737507311102119, -0.022350962940456267, -0.024887155304038337, -0.024377548355311217, -0.024377360075980667, -0.05166719932621917, 0.04864751105483605, 0.046660603915732325, 0.04893676427872772, 0.048936251031626174, 0.07449042740437427, 0.041425959778549314, 0.041425959778549314, 0.041425959778549314, 0.04142595977909162, 0.0, 0.008393498718975172, 0.00787164722638341, 0.008132683617324976, 0.008132867378008704, 0.046802632733387126, 0.0015737066894527445, 0.0028522202984730574, -0.0016382043969636853, -0.0016381584691346068, 0.06457509577051777, -0.0030390778498389807, -0.0038077835877446116, -0.004855916528747355, -0.004855639795388221, -0.06614726987116219, -0.033326250358920756, -0.03239352205493227, -0.033711922675634276, -0.03371174375785982, -0.27486424272752275, -0.03318058219266485, -0.03335191440872979, -0.036022367920773735, -0.03602228404230693, -0.3024774048949311, 0.042084978042200606, 0.04140560571717452, 0.040731968523112755, 0.040732081008552815, -0.16449398485586192, -0.007880528348249309, -0.012521036115857585, -0.012744801812174179, -0.012744094644313506, -0.006741298907024837, 0.0681595194706877, 0.06585869820246847, 0.06910244958035507, 0.06910277643118572, 0.04207191384067652, 0.012296876903459675, 0.01284057870710371, 0.012372453868417897, 0.012372413602143431, 0.028168386876979968, -0.023347121497192175, -0.024562963851042285, -0.02438660253877618, -0.024386409784950085, -0.05078614176071154, 0.04866557144475839, 0.04687352967257077, 0.04894003088368219, 0.048939514365048696, 0.07843837005213777, 0.004696118288488325, 0.004696118288488325, 0.004696118288488325, 0.004696118288488155, 0.0, 0.011592869819466764, -0.004105733080929659, 0.0051653394009509345, 0.0730048460418936, 0.015357637166740108, 0.0310517354259383, 0.018377520547019566, -0.042725302598612944, -0.022397729501142268, -0.02734057649517483, -0.017792520867006414, -0.06873034609083994, 0.09376165817646724, 0.11686888018823803, 0.1798433531671051, -0.051866041179749245, 0.1683578538313298, -0.10681113654526052, -0.01969736793792533, -0.1183706005437438, -0.13534234500382344, -0.14860666900803346, 0.13679867007747953, 0.11903409213561159, 0.12618664278526837, 0.05709281235122866, 0.0707219870157043, 0.20009269384187756, 0.18649329856172553, 0.042962365905043744, -0.1672204812064577, -0.26149025808354104, 0.05402403637383109, 0.03492661258460857, 0.29184934230682735, -0.19973005147496034, 0.3120634167602319, -0.006617499328417876, -0.00031573314630483447, -0.28029034499240113, -0.18135487702006028, -0.12072076546957787, 0.05821015806610089, 0.06718567514705417, -0.2953378898534292, -0.04586145785324509, 0.12769927780739906, 0.01621973615487693, 0.01924981470340799, -0.1724710674556968, -0.4273483727150609, -0.39793077002388116, 0.05011710840626493, 0.05099298722134568, -0.035561913396351584, 0.022017814888275946, 0.022017814888275946, 0.022017814888275946, 0.02201781488827672, 0.0, -0.02324244542777437, -0.03705133277674123, -0.034279706510537425, -0.0047628175296659785, 0.007232684459394469, 0.06857178489779539, -0.12398360363860232, -0.04285637299829241, 0.05795194541311215, -0.1298187706837583, 0.09481203148250576, 0.16860309791678987, -0.042834888381124106, -0.01707397522005573, 0.011425650609494707, 0.04691877535038646, -0.021481411367505178, -0.05471044179262853, -0.006084231729069027, -0.23714303634486655, -0.09144271010955356, -0.09559671805387718, 0.14614538448160025, 0.16790235433741058, 0.11187050729159406, -0.015769104520473733, 0.049374569477150354, 0.20097740452363771, 0.1978781604085505, 0.12336251375014644, -0.05843073214053984, 0.2673687500139028, 0.03792671088444107, 0.035640032889658634, 0.32016268021341115, 0.18618038839990284, -0.45826464334668815, -0.013305367010003392, -0.009733075498011083, 0.1028871900970014, -0.38928728491962233, 0.09991489866007239, 0.053550712954312324, 0.05943941373978127, 0.0009090651917134515, -0.34404595203430366, -0.20050402015909488, 0.01446339944811934, 0.017131989728113653, -0.19320402231377135, -0.14953504942288298, 0.009562499224059377, 0.04732579476197817, 0.05062106900120576, -0.08701682750790361, 0.046035685037113444, 0.046035685037113444, 0.046035685037113444, 0.04603568503717882, 0.0, 0.011611965275511477, 0.011840037658735996, 0.011726068419173206, 0.01172616946815772, -0.03996636899885482, 0.0024088005951060057, 0.004565749437638091, -0.00022735705339119007, -0.00022731513708090103, 0.035041945389382136, -0.0035157286830203934, -0.0036279284096267486, -0.005012143031758665, -0.005012001240021165, -0.030476628975850982, -0.031365266785794065, -0.032630918934995104, -0.034002183330792274, -0.03400210420530529, 0.04967031433183374, -0.02955077863736181, -0.03538678982525106, -0.03635296793817523, -0.03635300746947099, 0.05338885042120162, 0.043889189049431204, 0.04216622943012897, 0.04053911953378855, 0.040539242728569846, -0.16061937303764146, -0.007429777712234561, -0.015150655375682302, -0.012787914159030103, -0.012787213401116002, -0.025057597445006307, 0.06859714847624142, 0.06700318530783636, 0.06906304272943975, 0.06906339098712848, -0.012625493964576653, 0.012065030279066183, 0.013540038620821124, 0.012385713514094666, 0.012385682340829424, -2.5845640724447593e-05, -0.022884975024860862, -0.02498988079059728, -0.024382078540990285, -0.024381887348580548, -0.05372764542964768, 0.04853461973556931, 0.046609988579440834, 0.0489383986921038, 0.04893788377368726, 0.07624524872096018, -0.018127993878837047, -0.018127993878837047, -0.018127993878837047, -0.06243688103440169, 0.0, 0.029288172166264146, 0.03731678086414485, 0.04142258762340553, -0.0987697215091187, -0.0071556647383730675, -0.25469072457649544, 0.03438072770209777, 0.0015895056306037554, -0.03250150404537176, 0.1627392916577604, 0.1225333545852004, -0.046214396472251514, 0.14820431843797377, 0.0, -0.39481731066936154, 0.3366259845011794, -0.3407675771676031, -0.07715005869676102, 0.0, -0.18546203903894187, -0.07837701666216072, -0.08883810850457692, -0.014930486418853972, 0.0, -0.05768764460057823, -0.015040140091754618, 0.0813989727893936, -0.012569195353013795, 0.0, 0.17333004996666748, 0.11371997565256323, 0.08029285997077268, 0.1415215582955132, 0.0, -0.3304243881624231, -0.4871397202133434, -0.050164168391189895, 0.10118960306518684, 0.0, -0.6018522399447318, 0.043363476409828704, -0.04588189050073784, 0.12744478921452615, 0.0, 0.013309158913657162, 0.16540241420650395, -0.5625517337258532, 0.08314646347877916, 0.0, -0.06901793552252397, 0.023557266629971443, -0.42490692435951843, 0.4240350743547037, 0.0, -0.04691435708018759, 0.03940545412331038, 0.03940545412331038, 0.03940545412331038, 0.0394054541239063, 0.0, -0.0193921315181202, -0.019201184159529195, -0.01929965847683076, -0.019298167688856997, -0.006105075510083339, -0.01128498632531325, -0.009275105419207806, -0.006434125155857452, -0.006435170380364648, -0.002023198488261769, -0.012908229568027032, -0.003944834290798476, -0.0037951276663311492, -0.0037955063596520496, -0.08965732344119103, -0.02226344207610157, -0.032514020358191766, -0.03136250101568901, -0.0313630857606511, 0.22689879844314212, -0.04022586431832491, -0.0346845551039514, -0.03828387857126079, -0.03828387953741088, -0.046395647803101736, 0.033068973284693964, 0.04375650626929905, 0.04032106530154821, 0.04032108633453959, 0.2669392543119674, -0.010980965348275359, -0.014892637835582225, -0.0133001963347635, -0.013299714302553804, 0.084545181442066, 0.06870081306779045, 0.0674348184144744, 0.06912633637575184, 0.06912653917705978, 0.06524947427021208, 0.013777904563232454, 0.01349028963630701, 0.012566997389152384, 0.012566917012751134, 0.21795397482750836, -0.023124731859456665, -0.024636197888119056, -0.02437270498388519, -0.02437256579898417, -0.009338382683866381, 0.04863463584699486, 0.0468216772443123, 0.048969075002204744, 0.04896854605386352, 0.09756851523247008, 0.04715202300075357, 0.04715202300075357, 0.04715202300075357, 0.04715202300135703, 0.0, 0.0026721010974910414, 0.00164922049579254, 0.0021608794125698707, 0.0021587548630206486, 0.0318725622494377, 0.0008511660674618098, 0.0023634211893301233, -0.0008069312328793767, -0.000806095581092832, -0.08240886744525833, 0.0007193363522504608, -0.004315145037194623, -0.004113046306172632, -0.004113183338347478, 0.2423430815823537, -0.033977598375385484, -0.02979692429570628, -0.031926372043775034, -0.03192617397642898, 0.14332047700728145, -0.03640526753007286, -0.032969219913695516, -0.03697831056376006, -0.03697826686335336, -0.1132937456433792, 0.04127977048054132, 0.05631057482586703, 0.03976443648293977, 0.03976450405932572, -0.03914818178359941, -0.008349419333549329, -0.007837381454062976, -0.013575570173735379, -0.013575136819993986, 0.07630048920532989, 0.06942998835572599, 0.06908120634019736, 0.06913407224977543, 0.06913442869229723, -0.20020619773216308, 0.012507023690465777, 0.01484994638121854, 0.01233857125042853, 0.012338552000977525, 0.025056944851087868, -0.023590866796049013, -0.024272488135491214, -0.024450310495596185, -0.02445013211061772, -0.023757401882857552, 0.048691756816446136, 0.04698720703953139, 0.04895229208620045, 0.04895175099651106, 0.10212725197127989]}, {"learning_rate": 0.01, "num_iter": 10000, "fit_intercept": true, "verbose": false, "weights": [-0.6707007298748215, 0.06629875846346968, 0.06629875846346968, 0.06629875846346968, 0.0662987584635104, 0.0, 0.005260419554000972, 0.005202973516273511, 0.005231745182275225, 0.005231816832646231, 0.0031858890298554782, -0.0015968741991134368, -0.004628006063694926, -0.0022819850702752984, -0.002281807060640346, 0.1381684303027218, -0.018018829561946375, -0.02291085705745889, -0.022848103353143998, -0.022848107808688223, 0.128782944599416, 0.0075752487387563735, -0.004445560855281997, -0.00169401197682552, -0.0016939457432262166, 0.11643924246356491, 0.016634574366262284, 0.009054089519640596, 0.006363314398958882, 0.0063635554433248065, 0.11339479014622576, -0.001671381025200435, -0.0012940025661430286, -0.003986409488410493, -0.003986596999420297, -0.12586214013387473, -0.018169219067473697, -0.02631381683460541, -0.022226780877920658, -0.022226561586476404, 0.24865246876338928, 0.1170110317564403, 0.11350795425189283, 0.1158480649780189, 0.11584803108298014, -0.0619939794678726, 0.053080262451071565, 0.052248870189705934, 0.054701908128418394, 0.054701521745824495, -0.007558405363983521, 0.008585343363548562, 0.002322089425864298, 0.0017648874037448795, 0.0017654263034636074, -0.05504436411102483, 0.04861395953369923, 0.04533061649235122, 0.04814524646696473, 0.04814532735701237, 0.08521260105147327, 0.029572981220079158, 0.029572981220079158, 0.029572981220079158, 0.02957298122070021, 0.0, 0.011237661971769867, 0.010247261083885247, 0.010742600048555338, 0.01074201130638084, 0.10034291112573065, -0.001192061310696664, -0.0009261864720569859, -0.0008076536832528017, -0.0008075485713193609, -0.004303253427869225, -0.015788473075293158, -0.022667706000436653, -0.02295964518175662, -0.022959614716292046, -0.002896460404621726, 0.004365520574713073, -0.002500119785990678, -0.0018051284297371608, -0.0018049258528278714, -0.11728567510044857, 0.01367414872086949, 0.010739809791412027, 0.006569692290439381, 0.006570089437697943, -0.1516966314326845, -0.0038531007960809264, 9.206234559196378e-05, -0.003559007059257716, -0.0035591521378874843, -0.3676960955443839, -0.018259724851773455, -0.017332607183390764, -0.0219076452046738, -0.021907252692419797, -0.0930784414689195, 0.1178230211389687, 0.11417853252428588, 0.11596950923726385, 0.11596949324205233, -0.07527041384506834, 0.054056633184119025, 0.05263115020528858, 0.054734591417263084, 0.054734198227271505, 0.009108599801169223, 0.007052038556175259, 0.0022933674232647806, 0.0017585220296110712, 0.001759051960811227, -0.047924521910847416, 0.04913051669297394, 0.04497584441450094, 0.04815181603213683, 0.04815189270221945, 0.08671450774305632, -0.03968556788866217, -0.03968556788866217, -0.03968556788866217, -0.03968556788866151, 0.0, -0.012736618843527671, 0.014729589139212572, -0.00046461886731572394, 0.0483237501303579, -0.025805612783109184, 0.18942462374857624, 0.020870468766782235, -0.08187451626303802, 0.1303463070239063, 0.07083708177645638, -0.04239888731169479, 0.0935834611098189, -0.08421499892257181, 0.1024487266504533, -0.20656244432796442, -0.19424461568370885, -0.08370657674541988, 0.12369905820075462, 0.07089538693066416, 0.06859092180970787, -0.20667662486804272, -0.07636637648443281, 0.03526682901186093, -0.040640694759301446, 0.3651527045955403, -0.14588131684782965, 0.4269212043349368, 0.019775604789493226, -0.017577176907406376, 0.4037334586094637, -0.5199444709548388, 0.22746769433799488, 0.17038270892746746, 0.1577380490803394, 0.29751437839494793, 0.18376604643896075, -0.21913336333080852, 0.033528227041181725, 0.04123232635703883, -0.41195341582368034, -0.43066192127428793, -0.32496703070872857, 0.08206477118538928, 0.09248061770890123, -0.31270733684951396, -0.3341990123815233, 0.3459274746743874, 0.04526357325581473, 0.04939885518565774, -0.15883935883149747, -0.37319319154990754, -0.49835075511723287, 0.05142672168786947, 0.0511554950718566, 0.010951184247273026, 0.003822794590229043, 0.003822794590229043, 0.003822794590229043, 0.003822794590228647, 0.0, -0.014467892103163458, -0.042585436796874036, -0.03157356531174473, 0.02350537758086624, 0.0215569985763395, -0.08384078577619274, -0.11878983492592435, 0.017986693601982795, -0.017573108704044636, 0.03899708168037899, -0.34195876524841085, 0.06179621980527593, 0.033504507767631204, 0.0008923593248549341, 0.1275145425921179, 0.07702283785947021, -0.07079642493955676, -0.004033336295778746, 0.03344180215980079, 0.008338317930383681, -0.07799122024196647, 0.03169205068432241, 0.022153976575890105, 0.06456720520116294, -0.038123884030109606, 0.06151347851462366, 0.12664035380661112, 0.08326419468234131, 0.07095336284476163, 0.2765721929668275, -0.1574177401889907, 0.11942442380525302, 0.1804526173999457, 0.19025624894684978, 0.20808700761722201, -0.4570603483424728, -0.4662519755933478, 0.02470761723003563, 0.034200822150567425, -0.00476990254449614, -0.3483667134078171, 0.25905078055995995, 0.07047310357953226, 0.07736869150295439, 0.04094229230239504, -0.337580412337428, -0.37767403829129725, 0.044939366250660404, 0.044808587109464636, -0.08447252100198498, -0.3472546792575188, -0.016569878657377253, 0.046393709323633986, 0.04944518310891689, -0.08369935851737585, 0.047935030174746034, 0.047935030174746034, 0.047935030174746034, 0.04793503017485729, 0.0, 0.007559992824855293, 0.008418150610846598, 0.007989100896151957, 0.007988936942250455, -0.10296338023511614, -0.0025865733884167944, -0.0017981032056042503, -0.0015443174787285357, -0.0015442291595413773, -0.17169250485481066, -0.018244309790060472, -0.021613823441205916, -0.022903914888939184, -0.022903920591796228, -0.16346498851427974, 0.007252179219250059, -0.0018827191865672032, -0.0017496077403890622, -0.0017494756876842218, 0.13354070621377376, 0.01657278682254052, 0.011524589143376777, 0.006466574363483051, 0.006466895548597812, 0.03192299929858191, -0.000976548409122936, 0.0005884637301947975, -0.0037725621476709624, -0.0037727408729428015, -0.21086234672009965, -0.016923224056663366, -0.02265919942387003, -0.022067104105362702, -0.02206680720705449, 0.12262477525429766, 0.11829935090473442, 0.11427543076385442, 0.11590882855042216, 0.11590880048634236, -0.0642728846643502, 0.05378748076158124, 0.052330336511606956, 0.05471826092395266, 0.05471786913347581, -0.00017874813195229447, 0.007970216024891584, 0.0020942507813447543, 0.0017617025407055712, 0.0017622372981625197, -0.05243683926625552, 0.04878379452860254, 0.04528779379842053, 0.04814853348926085, 0.04814861212087214, 0.0864684223045788, -0.044728892898470596, -0.044728892898470596, -0.044728892898470596, 0.16235637977719586, 0.0, -0.040548197066919776, 0.09248483671498187, 0.03183349144047953, -0.0688931654392117, -0.11177260799499644, -0.0640840152899345, -0.03973317891356837, -0.10457415239116952, -0.07153866896303122, -0.009879618990972932, 0.10709571331233728, -0.139023203386054, -0.13235754823365867, 0.0, -0.008595059875936385, -0.1991901298705689, 0.26456467500053704, 0.18127054000908271, 0.0, 0.31977269309869255, -0.0493433341017978, 0.164947868891212, 0.029378059758532398, 0.0, 0.2060303804817508, -0.015892252470876736, -0.395187840471259, -0.29089058424979175, 0.0, -0.26948063721967547, 0.17257334227405746, -0.17788604686098436, -0.055864035925917106, 0.0, -0.3160129311937435, -0.4562172966561103, 0.32611385282047656, 0.12339109345186161, 0.0, -0.9194951364081965, -0.07811621986592694, -0.038035129367386525, 0.3110921929014255, 0.0, -0.35740703741631763, -0.4545266088571324, -0.5820733270234872, -0.013724447134546939, 0.0, -0.06897583600325145, -0.023757560701491563, -0.31200599222661074, 0.6147394454972462, 0.0, -0.052920984609348236, 0.08982270263941239, 0.08982270263941239, 0.08982270263941239, 0.08982270263964166, 0.0, 0.02468316637849188, 0.023370413729195374, 0.024030565592640593, 0.024028729605130392, 0.0375754963970878, -0.0004653091055243821, 0.005094372163309337, 0.014001708123822584, 0.01400210374845615, -0.06367258786185849, -0.024732401961815698, -0.02180017546191708, -0.01620470071170058, -0.016204957821748814, 0.21295736955230873, -0.01201878542960025, 0.0028892521291156263, 0.003391889621047456, 0.0033922571434881143, -0.3981143450293138, 0.010722454257771718, 0.01692377887867164, 0.006936950688009266, 0.006937182509199941, 0.2066366255271789, -0.004233717435778843, 0.0036054820053971507, -0.004375746262630288, -0.0043760114464007965, 0.1880869529626048, -0.026164074391702825, -0.021063906352030353, -0.02253769601684088, -0.022537381037941652, -0.139234606867868, 0.11729909005440776, 0.11608091075529413, 0.1162575152070173, 0.11625734200769783, 0.07096563712503093, 0.05363129736085341, 0.05274551987380161, 0.05498282738097796, 0.054982370948809985, 0.23734197493554204, 0.00829277287396991, 0.002976494123706361, 0.0018235428596265972, 0.001823971168883026, 0.011735632519350277, 0.04920796503763721, 0.04598388938800396, 0.048187404083349074, 0.04818746821153636, 0.09171438701737104, -0.006015057290092687, -0.006015057290092687, -0.006015057290092687, -0.006015057289707073, 0.0, 0.009093969118806697, 0.008320816802293421, 0.008708210712297763, 0.008715809001791423, 0.024339485687498517, 0.0026887302595135607, -0.002806840437107468, -0.006866018152814897, -0.0068634756996714145, -0.05168474893914856, -0.02311874435389235, -0.026508952403287656, -0.027433866207139515, -0.02743321119297666, 0.12969025783987378, -0.0007741138489031588, -0.015999491252168877, -0.0037479397064051475, -0.0037472545243469294, 0.012340345175255852, 0.014964898464545653, 0.012673320389242642, 0.0049620931727949544, 0.004962785690657279, -0.3448257500652996, -0.003651420217462177, -0.0010679862481398116, -0.005643507117785225, -0.005643661728495428, 0.4760637702309597, -0.01901903360101005, -0.015567588302277427, -0.02270358032910203, -0.02270327168130429, -0.10517718941581394, 0.11828362450569839, 0.11795515683242755, 0.11592008390266206, 0.11592008652509977, -0.18568397194687555, 0.053328473687431724, 0.051279407607410815, 0.05462328270506643, 0.05462295361393418, -0.0035300842018698227, 0.0068815967135898316, 0.0020133486489576032, 0.0016877206384474128, 0.0016881955291552621, -0.04227744662973978, 0.04881256879098217, 0.045061014621435136, 0.0481819241264222, 0.04818199557129861, 0.08300151009074375]}, {"learning_rate": 0.01, "num_iter": 10000, "fit_intercept": true, "verbose": false, "weights": [-0.5948618554130561, 0.06039722465848462, 0.06039722465848462, 0.06039722465848462, 0.0603972246589931, 0.0, 0.009000828613832236, 0.008160886173564856, 0.008580970634301344, 0.008581304427782196, 0.08671784346635146, 0.004812161535554017, 0.006199021104999855, 0.008029676654002015, 0.008029933088624503, -0.04796656163582759, 0.013300914623355337, 0.014800208516875064, 0.01328953167537459, 0.013289713897176935, -0.10425877815877632, 0.01592241447701093, 0.012172974024312243, 0.011791228337870807, 0.011791408807516649, 0.24227908542074134, -0.01625543068821454, -0.017398932694255766, -0.018294323049452995, -0.018294141070900515, -0.032684963056731096, 0.06724855201079882, 0.07056427735858561, 0.06828028761286058, 0.06828017009128759, 0.02894339388182945, 0.06770569489481598, 0.06382231371198431, 0.065328795445151, 0.06532890812441301, 0.2435804606125078, 0.04348651363225614, 0.03640508365461777, 0.03596716547933869, 0.03596716916597768, -0.024453116702078496, -0.004932419458540893, -0.004419915644112836, -0.007282585681279219, -0.007282606272054717, 0.0020400938432583835, 0.03155706969275261, 0.02004795581877471, 0.023491611489300065, 0.023492382309251145, -0.0352184572066949, 0.04843040333928373, 0.04250156007093066, 0.04456692429600033, 0.044566939398502786, 0.06227871348668311, 0.011530940263409678, 0.011530940263409678, 0.011530940263409678, 0.011530940264115054, 0.0, 0.011036822460868805, 0.011297473017301411, 0.01116727559857687, 0.011167746814248631, -0.02316429226530133, 0.013330063584690988, 0.015927134147614257, 0.011890602224641411, 0.011891128697982846, -0.07127359599143099, 0.014948287797612234, 0.015929960618704195, 0.01372815477920731, 0.01372829648027859, -0.15557160975250964, 0.00979249785423223, 0.0161052710914857, 0.011945846536975776, 0.01194611707814047, -0.48051789156932384, -0.0203142153371093, -0.01461014834654053, -0.017777195143282597, -0.017777031431148446, -0.185863393412258, 0.06602841748969358, 0.07152594801745904, 0.06871302722526255, 0.06871297322398348, -0.054555622805858676, 0.06630503007798658, 0.0674202300790255, 0.06548579320123396, 0.06548605591334908, 0.08216390539590217, 0.04317824351084669, 0.033786570085275976, 0.0359829033393353, 0.03598291226075857, 0.006284403348853026, -0.006724971541452816, -0.006356549854176546, -0.00727092880667696, -0.0072710124477006486, 0.06943325386171621, 0.030658566412314642, 0.018695799684494127, 0.02349337897814216, 0.023494130457868485, -0.015938696422201675, 0.04883708725811532, 0.04166386919095592, 0.044578557873422305, 0.04457856564701218, 0.07343921219722627, 0.0016067824216004503, 0.0016067824216004503, 0.0016067824216004503, 0.0016067824215994216, 0.0, -0.016084000952083885, -0.041396451328352395, -0.032191030176414295, 0.009856952609500324, 0.01825848125816862, -0.14778404772711778, -0.11470101454220091, 0.01797872502701215, 0.06128062603315987, -0.1196495573949163, -0.15099567043361234, -0.020562492765530904, 0.07508328181026898, 0.03029436634829018, 0.22933704864075385, -0.221477047107599, -0.01675823361607704, 0.018354190245649746, -0.03429510380426433, 0.005795638280906938, 0.040768127321973845, 0.2206932448177351, 0.09502002314906344, 0.045415388843657103, -0.002137526737259199, 0.2321459932089136, 0.40191227896115195, -0.46487497878788336, -0.5173473271878203, 0.04991691093872298, -0.5034069278063131, -0.27901772173378536, 0.048884091147656246, 0.02861066154781777, 0.26877910038329, -0.5120858332532059, 0.2757706022100263, 0.05695459586750686, 0.06556510186935068, -0.4735317111272662, 0.118493618611177, -0.35929711850854007, 0.060178041624416145, 0.06773777946729127, -0.12634142432384302, -0.6339927652236899, -0.2550580182026157, 0.06570238064187348, 0.06681325406160865, -0.16526131649372724, -0.3238524290926248, -0.2215075403409126, 0.07722756408085854, 0.07616730420072162, 0.04702179203076784, 0.00903962978911079, 0.00903962978911079, 0.00903962978911079, 0.009039629789111098, 0.0, -0.01987950942640536, 0.005330473367936198, -0.010045405202073995, 0.04033709711639536, -0.025457073680204848, -0.017249364643799045, 0.12570107492772326, -0.03062064860029408, 0.05701186673519682, 0.08510284135196584, -0.16062744692918088, 0.21210808011218193, -0.004775630446158096, 0.1104053590009765, 0.09269031213536359, -0.23822564216528008, -0.10774920339560347, 0.03857515294107922, 0.1396771685273328, 0.0017502659266095226, 0.05946048404774365, 0.036024543209399504, 0.15290779246036454, 0.2098425999635878, 0.025644815351829768, -0.09287193751041505, -0.055594203284401886, -0.4341966933687921, -0.44118637481518713, 0.23317209329497118, -0.014864468975431665, 0.06716607016671203, 0.0395297835859833, 0.05508574915578501, -0.17360661862468452, 0.00413961162729984, -0.4054452561553739, 0.05822418277517089, 0.04645968544012233, 0.6394282385225003, -0.4534398563322814, 0.29875366792477, 0.05269551714423634, 0.05757218811425813, -0.15281571093627525, -0.23580619591264315, 0.3901101502520875, 0.06501552815775732, 0.07069149050083547, -0.21719204386481814, -0.4205560012020553, 0.09878214624149434, 0.06931251399267144, 0.0709022263604582, 0.003669926574381513, 0.03595916247748381, 0.03595916247748381, 0.03595916247748381, 0.035959162476808394, 0.0, 0.009643863670149189, 0.010106226155344305, 0.009875081471362871, 0.009875267353837142, -0.05206028914958101, 0.009962976717276204, 0.010813717025705764, 0.009961465625843026, 0.009961613892522507, 0.07484289303026653, 0.015253047302188443, 0.014711892479858067, 0.01350899576458672, 0.013509044529013825, 0.30898401679943627, 0.013720584928713858, 0.015189490546042357, 0.011868591239830553, 0.01186876454694811, 0.1959377822050455, -0.016485115944965083, -0.0157731273256667, -0.018035582398643776, -0.018035449714167914, 0.09842168801964209, 0.06738650384052142, 0.07202016266176635, 0.06849680547730834, 0.06849670392912935, 0.04961514421066719, 0.0666871242157885, 0.06521692994211635, 0.06540734796895101, 0.06540753923295523, 0.16916352954592026, 0.04387492610392094, 0.036013450676838525, 0.03597503977493339, 0.03597505004506705, -0.01888101936888661, -0.005672118965750277, -0.005622181179386233, -0.007276753255962569, -0.00727680391030915, 0.032374736525557134, 0.03104412408023886, 0.019556793912909192, 0.023492495838949693, 0.023493257197129167, -0.025991812834999278, 0.04851365839056993, 0.04218247268303919, 0.044572745052932836, 0.044572756551939124, 0.06807736067364256, -0.007640052110490606, -0.007640052110490606, -0.007640052110490606, 0.051994630843047264, 0.0, -0.022955273066402125, -0.013137672108487432, -0.022618677426116847, -0.024541226931633475, -0.009344690947119079, 0.20933124127461775, 0.0034381849302137064, 0.050036065212075057, -0.12627065462133985, -0.08267329799025282, 0.13107745353460623, -0.1036495430653504, 0.0904935778800717, 0.0, -0.08981538562973078, 0.03631028175074415, -0.0020418625016325087, -0.02473617660261611, 0.0, 0.12954486081576308, 0.22106171058473298, 0.07522999460599276, -0.1436686780370525, 0.0, 0.10919730562086859, -0.4126556658199691, -0.43625676476907227, -0.16245117793284916, 0.0, -0.12611895386331712, 0.3483580090869184, 0.21130830413956422, 0.10815982781144562, 0.0, -0.6435470731765848, -0.379157450373083, 0.01083606556115043, -0.01972203406480087, 0.0, -0.38654287363119366, 0.5762406598843602, -0.12345443877768812, 0.16152364711352313, 0.0, -0.2889297767910476, -0.2917356871453269, -0.6136050774969745, 0.06337563639121989, 0.0, -0.10592291818664523, -0.30705195953351266, -0.08350466335211539, 0.6331794070804495, 0.0, 0.09083449000900691, 0.08210688513743755, 0.08210688513743755, 0.08210688513743755, 0.08210688513764298, 0.0, 0.01749114876731617, 0.019047181017713605, 0.018271591052641947, 0.01827453366096005, -0.041472810009461625, 0.015560283277105404, 0.021323911049649404, 0.013787220623316184, 0.013788281649473646, -0.04890670048348086, 0.03422672579163808, 0.02604291077048083, 0.016999432067506762, 0.017000438525681203, 0.008981860039816748, 0.027207764854098086, 0.025509859140769617, 0.010139972477526099, 0.010140609957119611, 0.14659962009816735, -0.02075555906703457, -0.007675028662093418, -0.019742710798487335, -0.01974228178727564, -0.2083065777731543, 0.06793136636535284, 0.07532625385329039, 0.06779551790652241, 0.0677955279863944, 0.12309351558802173, 0.06598481281120559, 0.06633845321436885, 0.06522940149699993, 0.06522968353471983, 0.009855984264008633, 0.04295427298046428, 0.038827250228205934, 0.03602990668551506, 0.036029908806241864, -0.03487341363876517, -0.004770010164833034, -0.004724624373543385, -0.007528654655848507, -0.007528576986064791, -0.030939852919440618, 0.030601735893675052, 0.020934606534671565, 0.023459714949290653, 0.023460440103692998, -0.05136425285236673, 0.048828603881109975, 0.042729938154329766, 0.0446081686609341, 0.044608184001739624, 0.05885114967316536, 0.03293649933722852, 0.03293649933722852, 0.03293649933722852, 0.03293649933780775, 0.0, 0.010955986006043732, 0.010809135134020334, 0.01088377135143546, 0.010887172958515587, 0.005527485807327361, 0.0057465551465345245, 0.010086921201614817, 0.0026298258904415505, 0.0026326877345091287, -0.12455336494969302, 0.009375353036500554, 0.00824480841115647, 0.00681965142378109, 0.00682022078920826, 0.06401202675385152, 0.010254012664784784, 0.015615644388712224, 0.007833577473552357, 0.007833598733061269, -0.061814989304433354, -0.019615311018619522, -0.022272547629040264, -0.019725847106952455, -0.01972595584092991, 0.2234047020417885, 0.06204981202868779, 0.07064311535141504, 0.06714140860461508, 0.06714135742879854, -0.12598226612113814, 0.06455517293464394, 0.06844271852124703, 0.06496765557484582, 0.06496809513313545, -0.25459978750739903, 0.043243720240135945, 0.04162639350794276, 0.03589803697303015, 0.03589822899555242, -0.11766953158604884, -0.006938264008198361, -0.004953236877668515, -0.007469603186018708, -0.007469885180401297, 0.27310210394021134, 0.030218279766797213, 0.01967823042379715, 0.02338648552699129, 0.02338715769169766, -0.01921808485672364, 0.0492681502206146, 0.04313170526803837, 0.04456713424703265, 0.04456716818334235, 0.04135049216327555]}, {"learning_rate": 0.01, "num_iter": 10000, "fit_intercept": true, "verbose": false, "weights": [-0.07002834572220798, -0.011432330573787756, -0.011432330573787756, -0.011432330573787756, -0.01143233057400757, 0.0, 0.01096523084980112, 0.011033668885823543, 0.010999570952985826, 0.010999961592914434, -0.006721604538077257, -0.0007579028633467561, -8.695537748393656e-05, 0.001022429444232216, 0.001022631581571888, -0.0377699456996893, 0.009916024639461176, 0.01120276444853729, 0.014025480731636427, 0.014025659329844243, -0.14122639848613228, -0.01576117716723821, -0.014465099863851413, -0.010612464438676531, -0.0106124935747021, -0.09412766646560476, 0.01111197801441338, 0.01349358259423392, 0.017767770238773288, 0.017767835491706706, -0.1859508742062223, -0.01850962650722368, -0.019292102622984662, -0.014661404445751997, -0.014661354214041368, -0.028427523095088184, 0.011343556012708603, 0.007973265191006126, 0.010946749590227152, 0.010946838821079156, -0.014937958594528306, -0.05478798989949515, -0.05046217819587924, -0.05345225746229995, -0.05345226610627262, -0.1551517651252597, -0.03223613338008501, -0.03021397187448552, -0.03190466673553391, -0.03190481922858654, -0.05590920864126682, -0.016123362743093728, -0.013845232870098206, -0.014857512013409627, -0.014858205682580386, -0.03976892572352548, 0.0003936755704900084, 0.004879110296621753, 0.0014237198626493915, 0.001423954140051345, -0.07119478024013416, -0.005984334391849553, -0.005984334391849553, -0.005984334391849553, -0.005984334392268811, 0.0, 0.010976626468706925, 0.011461029794120824, 0.011218958113653511, 0.011219185493277925, -0.04761342151515281, 0.0021917349413246518, 0.003578345111050033, 0.0037071874216696504, 0.0037072491073998634, -0.0916222695243901, 0.01589554050527196, 0.01763453832830052, 0.016602052222972414, 0.016602198953706668, 0.001831040001895904, -0.008738421997783888, -0.006251977390868025, -0.008808658686350107, -0.008808637572902152, -0.05177923978309246, 0.01803362526762784, 0.017629903612679708, 0.018162286967106544, 0.018162297732389324, 0.1308703375839623, -0.015020913311278857, -0.014251246512617775, -0.014470900386037242, -0.014470817710771076, 0.007059436177460842, 0.009042683082441232, 0.009540371794385128, 0.010935636363691591, 0.010935640544601636, 0.11258245141976508, -0.05253311443924584, -0.04691447074621798, -0.053531788804112405, -0.053531840942194056, -0.08623883569422734, -0.0311990261388731, -0.027351571939973566, -0.03193906264034762, -0.0319392326545391, -0.0414838130601639, -0.014247191467663074, -0.011532016362742129, -0.014856440353289986, -0.014857145422726316, -0.026978555748945515, 0.0008194024307820436, 0.006204239468674385, 0.0014152173342583377, 0.0014154501325325296, -0.07217722246031524, 0.008777347075711234, 0.008777347075711234, 0.008777347075711234, 0.008777347075711104, 0.0, 0.0015177225842355896, 0.007549616664960528, 0.005093895322488326, -0.009862953077574052, -0.004790202589448909, 0.04680311645464441, 0.027507400004414782, -0.024383798270764683, 0.05097099970021102, 0.030907721837132723, 0.05306073792491778, -0.11790063103268139, -0.06284708531115427, 0.020091743284882523, -0.08844147716312474, 0.11710666081105106, 0.10093450718247003, -0.04188403507365108, 0.03018420779033621, -0.020746695791330393, 0.0953639075074992, -0.04657278667106684, 0.020826267104860966, 0.09557518983131208, -0.12616823477592806, -0.027002431933306027, -0.1474510260369625, 0.1776268737297491, 0.2243151722138101, -0.01780917676715122, -0.034051275219052164, -0.0045484317852613415, -0.03988344175628578, -0.013315624707357462, -0.4991041169602949, 0.09836479468412865, 0.11214753192360016, -0.14893948910147695, -0.14779049341472564, 0.025580265084224448, 0.2334331361081311, -0.056275254497528404, 0.0006666639157392658, -0.004519792657038549, 0.2355602824851855, 0.13148053788257566, -0.2876549654922606, -0.01927276659819406, -0.02873999620029921, 0.36646593357537577, 0.18010970921584316, -0.06794699463469336, 0.020390664279676517, 0.016943356539271467, 0.13516160705841404, -0.0027630616158023182, -0.0027630616158023182, -0.0027630616158023182, -0.002763061615801983, 0.0, 0.010687467890697303, 0.006591868283600063, 0.010325241433513608, -0.03115048032815666, 0.005360193053832318, 0.013729352547859213, 0.00046926027838277337, 0.00262197928248817, -0.04004006626070631, -0.019240867121268858, 0.15897175803441702, 0.01917525451408525, -0.015234055780825179, -0.06506516616471966, -0.06836093972246954, -0.07063843101172741, -0.1149147658142274, 0.017246237470767395, -0.049638055342588916, 0.06169292196893616, -0.03624871707346485, -0.05745746780994147, -0.048662063075780485, -0.06174851326180911, 0.050592119917542235, -0.256067572337245, -0.10954686828959533, 0.17600867379850504, 0.19436016691407623, -0.04738224337829965, 0.030996402197916363, 0.0300684418219752, -0.05173540004026807, -0.05386408888691096, 0.041811387366181084, 0.5522562443320324, 0.4307350589996446, -0.1383900022716153, -0.14444911042821226, 0.3612060110224497, 0.12092409502361481, -0.3249128883239136, 0.00038824930358841695, -0.0007033673662990829, -0.021780327498963907, -0.061474836552684, 0.11587774974221403, -0.01978659266570546, -0.020544998210379688, 0.10387436933878412, 0.13760075936684885, -0.02694960471335394, 0.020523359014107227, 0.018755833992965126, 0.10712341701739805, -0.008705833743965101, -0.008705833743965101, -0.008705833743965101, -0.00870583374373605, 0.0, 0.011203639133371548, 0.011014877501086373, 0.011109368963727126, 0.011109575153622247, 0.022724379649956793, 0.0010573659743094977, 0.0008591311964660389, 0.002365726670679837, 0.002365773890911116, 0.08183157249546083, 0.013910346462179963, 0.013598175753499699, 0.015314647062105571, 0.015314717375235359, 0.1398309482051407, -0.011248477463632455, -0.012326958747496591, -0.009709947207039943, -0.009710033961871388, 0.18029108460200557, 0.014636636685752252, 0.014116999811123552, 0.01796516308867793, 0.01796517426083416, 0.089593948279486, -0.0167332453920863, -0.01875024506294529, -0.014566087612789274, -0.01456603439957818, 0.033805093065849674, 0.009979341130263135, 0.008285271993487582, 0.010941189169337343, 0.01094123296698351, 0.05953137980096861, -0.0534170166410413, -0.04958695938233813, -0.0534920502748646, -0.053492081309449546, -0.1198097808052931, -0.03180115975949076, -0.02921026189753339, -0.031921876415992444, -0.03192203717931037, -0.05116019702228204, -0.015152111691682948, -0.012952909243786524, -0.014856975810312128, -0.014857675341442219, -0.03299691783956028, 0.0005813425069342554, 0.005322458100078872, 0.0014194656984845722, 0.0014196995780425842, -0.07186055114693078, 0.011895549414450415, 0.011895549414450415, 0.011895549414450415, -0.10332155933414001, 0.0, 0.0014465778408332935, -0.01049358390063723, -0.005560885848916935, -0.014676427253941129, 0.010393527407549437, -0.009048843786481717, -0.013340336035814972, -0.02731908228549764, -0.026669604578730664, -0.036748731082278385, 0.030071210388130168, 0.11181120648121695, -0.05769313847802754, 0.0, 0.039231703481443295, -0.08594421637547606, -0.007608272478353778, -0.0854705280207096, 0.0, 0.11778869281374393, -0.1800215107269344, 0.04948214989700667, 0.16660528203987052, 0.0, 0.00302259394390489, 0.09233325704503342, 0.11549702314748657, 0.01172911793221469, 0.0, 0.14839714271353457, -0.12113873689326181, -0.23838263225807405, 0.0911885168942047, 0.0, 0.05719316141966389, 0.18880499968012493, 0.13427408763966123, -0.162694150898152, 0.0, 0.22799213490397152, 0.011407434745726402, 0.13691312787012203, 0.02763938255282902, 0.0, 0.37773238139733195, -0.08699194511485267, 0.14031894750477156, 0.053643382395044036, 0.0, 0.18454888096323785, -0.18090947855441833, 0.01670812443953263, -0.10289537920321755, 0.0, 0.1700532922385364, 0.013105825584640483, 0.013105825584640483, 0.013105825584640483, 0.013105825584615618, 0.0, 0.020289855395209274, 0.020908310192286006, 0.02060212793589737, 0.020604507591893265, -0.01772332769612268, 0.002482950768955308, 0.001575604384265454, 0.005526106204178508, 0.00552723737610666, -0.009169654193944351, 0.017620276653547467, 0.007721668670276605, 0.014442345998109809, 0.01444269753380521, 0.05001926951353623, -0.01299712948269022, -0.019438241277822697, -0.011254090226754214, -0.011254160291743505, -0.0011102719641968035, 0.017690060992187708, 0.00856102661805378, 0.01796848076630079, 0.017968549309254872, -0.08835376946057798, -0.01378777374728006, -0.022474812661937436, -0.015114655479195853, -0.015114630247573063, 0.06662057790623552, 0.016714152519674907, 0.006942965935638763, 0.010996273986801272, 0.010996171029156364, 0.4438874383702997, -0.05315658109195526, -0.05209600726735981, -0.05338982062785931, -0.053389864477810065, 0.07077114965337286, -0.03179908544469571, -0.030413341752877167, -0.03200988074192531, -0.0320099564874102, -0.08382947349005576, -0.015678729431739032, -0.01407540269810508, -0.014952706024777657, -0.01495326282993094, -0.11556380052209586, 0.00042054378793009384, 0.004761867822689484, 0.0014056403356885597, 0.0014058522144727666, -0.07201060941271133, -0.0052192862585803265, -0.0052192862585803265, -0.0052192862585803265, -0.0052192862590361615, 0.0, 0.01354400978785782, 0.012596175080972294, 0.013071928037474131, 0.013075141098997493, 0.028586780345604083, 0.011068452213413902, 0.005286111634777368, 0.008025053146447716, 0.008026577016241364, 0.061541311895370966, 0.01493450340598777, 0.012627051387109005, 0.01826837115020633, 0.01826900193865475, -0.07713251617909907, -0.009521249865407198, -0.007017411447916971, -0.008216459101570496, -0.008216196658866127, -0.09273232257108845, 0.01756811217256225, 0.01908005462180518, 0.01965348588436345, 0.01965356164058169, 0.045727468538451096, -0.015707875388298938, -0.01641734784981315, -0.013633293051087179, -0.013633242382405377, 0.09601152363787752, 0.009605753611487841, 0.01384874445578065, 0.011605899782588582, 0.011606151563172181, -0.4434460702344548, -0.05374190755799643, -0.05145376318686415, -0.05379750374051684, -0.05379787631207144, 0.4248266169996005, -0.03113187086904726, -0.029202114115367068, -0.03206792777318239, -0.03206815785041859, 0.15702163536668462, -0.01465225914303578, -0.011419962408222194, -0.014851697012208091, -0.014852389829734644, 0.02090012218923363, 0.000994253803854505, 0.005449237348659824, 0.0013941846350451772, 0.0013944006161409458, -0.06685102101473757]}], "PEARLS": [{"learning_rate": 0.01, "num_iter": 10000, "fit_intercept": true, "verbose": false, "weights": [-0.19681334129272715, 0.03925260389444247, 0.03925260389444247, 0.03925260389444247, 0.03925260386557734, 0.0, 0.0017660936369523735, 0.0021784261592833133, 0.0019722641923683765, 0.0019722222630628337, -0.06127735568866158, -0.009615833940503608, -0.008626077741978207, -0.008689107649328323, -0.008689069210696024, -0.06975788710382108, 5.204935601966443e-05, 0.0007852039108387562, 0.0008693897493524455, 0.0008694642114460499, -0.09347656718937321, -0.0009736421702287932, -9.427163691530728e-05, 0.0004749123106670556, 0.0004749009233813741, -0.0028500790455702365, 0.019644373082262453, 0.018777223527324718, 0.01905017069563864, 0.01905017199853298, 0.375029029299337, 0.016362856792088605, 0.017027940522253048, 0.017105502226528495, 0.017105505758550302, 0.05250894283167775, -0.0014390046416577183, -0.0011056212382763231, -0.001094075753443546, -0.0010940727044585364, -0.14606092822576425, 0.03720275963318466, 0.03764456081779473, 0.037651086234890614, 0.03765108669404571, -0.06415378805171698, 0.02613923212099952, 0.025955599536688325, 0.02595498359528308, 0.02595498314455304, 0.1394316701472202, -0.0035816882958769848, -0.003651161961390001, -0.0036510005037490765, -0.003651000844678433, 0.08736450881603704, 0.001397269053295639, 0.0014225848835670747, 0.0014215853506716536, 0.0014215855493572142, -0.07086863893844479, -0.02263124187897805, -0.02263124187897805, -0.02263124187897805, -0.022631241859307868, 0.0, 0.0044622840899728655, 0.004216960806380101, 0.0043396445771744525, 0.004339510429821227, 0.03343851742413829, -0.00875226811110427, -0.008558969154424334, -0.008005449373561433, -0.008005462645795216, 0.05260123889521386, 0.0007784929741395066, 0.0007386046513144664, 0.0008246006154074089, 0.0008246219643787049, 0.04263607864018326, -8.310688212320639e-05, -0.00023258029128347518, -0.00016811200103863613, -0.00016808234086537407, -0.02560654414524748, 0.01877766863650762, 0.018294020446013984, 0.01872172341078722, 0.018721738869005532, -0.12356023969067605, 0.017027940737453912, 0.015286928361351758, 0.01705596899485546, 0.017055975186722062, -0.13935042066765008, -0.0011056212481494391, -0.001892405825917286, -0.001113867893522598, -0.001113869099459677, 0.13457702630936189, 0.03764456105657375, 0.03690350651512032, 0.037659369564215533, 0.03765936997550725, -0.08298590844005266, 0.025955599654568413, 0.02563088761202417, 0.025955839306164248, 0.025955838680606257, 0.14932124839720345, -0.003651161973438801, -0.0036710553594030784, -0.003651344099376431, -0.003651344398856401, 0.05743328215946301, 0.0014225848870925066, 0.0013972161817893398, 0.0014192789273333316, 0.001419278685790251, 0.08544095998106924, 0.01542766678594088, 0.01542766678594088, 0.01542766678594088, 0.015427666785940285, 0.0, 0.02933881598148044, -0.02161967830876075, 0.0026650177875468927, -0.10165919024348477, 0.04675154038767026, 0.04391183471820922, 0.12422416284703737, -0.06107614419368125, -0.10637021712673522, -0.008830023566616099, -0.1730713663976662, -0.34194823335436253, 0.030534034824629734, -0.11054381137053843, 0.13564816700666457, -0.1852526044962351, 0.11206812658731138, 0.0707827588173641, 0.08500658777246041, -0.004945506952667884, 0.20889186949848354, 0.2933345827134192, -0.037423946288010136, 0.04901599635874453, -0.2863628570257807, 0.17815809851631315, -0.20927857659115418, -0.15228867475711513, -0.1391548677689326, 0.06037042964284414, -0.19864434495259442, -0.2535444366117603, 0.026198963511599564, 0.055048395624225435, -0.31297660072624045, -0.17812348177641918, 0.06823760134148554, 0.012652080573090571, 0.024611840913704445, -0.16977684169944204, -0.0022098821529128415, -0.024292015570920793, -0.047624163572117656, -0.028991743671956453, -0.3138483864228678, 0.05967328705771002, -0.038700350936607585, -0.04412043042586223, -0.04623070340337258, 0.017278144516644015, -0.017233603315490342, 0.1686560768737564, -0.011050330096553122, -0.011040263426758413, -0.009285787565161649, 0.013073200451887569, 0.013073200451887569, 0.013073200451887569, 0.01307320045188876, 0.0, 0.052399910497169494, -0.028362382699456134, 0.013155863370016486, -0.08543725615846899, 0.07420311800194081, -0.10249525376523302, -0.07591536514279615, 0.023460918753275654, 0.22473758627712123, -0.0704548819758229, 0.10181785511818475, -0.009246926209622223, -0.011881156036026142, 0.1726221902549478, 0.11373974949451451, -0.14329657129369477, -0.09122975511669212, -0.05831623065024071, 0.1605359973130607, -0.1815747314419015, -0.08211780221722005, -0.04150249168589569, -0.05371732462005828, 0.02014445367460004, 0.03793704797261935, 0.040831933927523, -0.07942255695610148, -0.12997134718652512, -0.12064319355253385, 0.22589434694843852, 0.041814442121200605, 0.1064301264948076, 0.024825567737724343, 0.022421122091115245, 0.04767661837974836, 0.04756720501779451, 0.10073826657867457, 0.007265684880167146, 0.0014264816067892448, -0.12257834342467525, -0.027372723118282545, 0.06087041157868136, -0.04271529718072751, -0.049476700898715385, -0.09940369585348244, -0.14373584855020524, -0.33865999118352447, -0.04283833926793681, -0.047644136336191356, -0.004638918460520783, -0.15859428623757663, -0.07912109403997752, -0.010384894718418372, -0.01578417172706879, 0.09290224574057376, 0.011967977070607606, 0.011967977070607606, 0.011967977070607606, 0.011967977099294118, 0.0, 0.003192136049663748, 0.0031209083838861797, 0.0031565305535870324, 0.003156462018270855, 0.01471440769289309, -0.009032697010816125, -0.008485726656149717, -0.008347118646175676, -0.008347113163189698, -0.16110203482181334, 0.0006894370484911586, 0.0007987365066339554, 0.0008469845100179171, 0.0008470106262842536, -0.21570786815241158, -0.00023832709704782698, -0.00010627265434265985, 0.00015324640966172696, 0.00015325017559829072, 0.14327058766062034, 0.019305927207032458, 0.018597003490901036, 0.01888586859413609, 0.018885871982214246, -0.057512768321688224, 0.01674744213652791, 0.016132351926080812, 0.017080723766204568, 0.017080725741008253, -0.18312171399329774, -0.0012716173096539132, -0.0014957479005963065, -0.001103976562653475, -0.0011039762060343244, -0.03212265167724285, 0.037444952471594434, 0.037279656068302636, 0.03765522988840835, 0.03765523006217259, -0.1300071914906736, 0.026036563026215737, 0.025790133520072884, 0.02595541166302696, 0.025955411409692403, 0.06655240142798026, -0.0036186760641443608, -0.0036588170716352363, -0.003651172381371131, -0.0036511725253643877, 0.05485514678666007, 0.0014116278761231184, 0.0014098186079400299, 0.0014204315882836605, 0.0014204315828554614, 0.004125334056442378, 0.0025645944766504378, 0.0025645944766504378, 0.0025645944766504378, 0.01711865948050966, 0.0, -0.07433599023587384, 0.0584256991283979, -0.01021894798583059, 0.031177069635856973, -0.1108482954960032, 0.1336995250590146, -0.13868524431805204, -0.0799913493087781, 0.02173482571429934, 0.027086466896105242, 0.24222706366957877, 